digraph Tree {
node [shape=box, style="filled, rounded", color="black", fontname="helvetica"] ;
edge [fontname="helvetica"] ;
0 [label="lm_222_y <= 0.419\ngini = 0.75\nsamples = 18018\nvalue = [6974, 7203, 7005, 7081]\nclass = happy", fillcolor="#fefffe"] ;
1 [label="lm_153_z <= 0.11\ngini = 0.679\nsamples = 9425\nvalue = [5639, 791, 2969, 5365]\nclass = anger", fillcolor="#fefbf9"] ;
0 -> 1 [labeldistance=2.5, labelangle=45, headlabel="True"] ;
2 [label="lm_152_y <= 0.308\ngini = 0.682\nsamples = 7391\nvalue = [3883.0, 620.0, 2497.0, 4590.0]\nclass = sad", fillcolor="#fbedfd"] ;
1 -> 2 ;
3 [label="lm_18_z <= -0.053\ngini = 0.674\nsamples = 6924\nvalue = [3775, 537, 2164, 4395]\nclass = sad", fillcolor="#fceefd"] ;
2 -> 3 ;
4 [label="lm_177_y <= 0.908\ngini = 0.638\nsamples = 2704\nvalue = [1240, 112, 804, 2047]\nclass = sad", fillcolor="#f4c9f8"] ;
3 -> 4 ;
5 [label="lm_76_y <= 0.605\ngini = 0.596\nsamples = 1221\nvalue = [427, 39, 367, 1072]\nclass = sad", fillcolor="#eea9f4"] ;
4 -> 5 ;
6 [label="lm_177_y <= 0.868\ngini = 0.631\nsamples = 980\nvalue = [396.0, 39.0, 314.0, 775.0]\nclass = sad", fillcolor="#f2bcf6"] ;
5 -> 6 ;
7 [label="lm_9_z <= -0.04\ngini = 0.57\nsamples = 434\nvalue = [123.0, 14.0, 127.0, 392.0]\nclass = sad", fillcolor="#eb9cf2"] ;
6 -> 7 ;
8 [label="lm_88_y <= 0.708\ngini = 0.652\nsamples = 119\nvalue = [60.0, 3.0, 38.0, 78.0]\nclass = sad", fillcolor="#f9e1fb"] ;
7 -> 8 ;
9 [label="lm_336_z <= -0.032\ngini = 0.633\nsamples = 76\nvalue = [58, 2, 27, 29]\nclass = anger", fillcolor="#f6d5bd"] ;
8 -> 9 ;
10 [label="gini = 0.0\nsamples = 9\nvalue = [15, 0, 0, 0]\nclass = anger", fillcolor="#e58139"] ;
9 -> 10 ;
11 [label="lm_42_z <= -0.057\ngini = 0.664\nsamples = 67\nvalue = [43.0, 2.0, 27.0, 29.0]\nclass = anger", fillcolor="#fae7d9"] ;
9 -> 11 ;
12 [label="lm_222_z <= -0.018\ngini = 0.498\nsamples = 27\nvalue = [29, 1, 3, 11]\nclass = anger", fillcolor="#f1ba93"] ;
11 -> 12 ;
13 [label="gini = 0.0\nsamples = 5\nvalue = [0, 0, 0, 6]\nclass = sad", fillcolor="#d739e5"] ;
12 -> 13 ;
14 [label="lm_477_x <= 0.648\ngini = 0.393\nsamples = 22\nvalue = [29, 1, 3, 5]\nclass = anger", fillcolor="#eca36f"] ;
12 -> 14 ;
15 [label="lm_323_z <= -0.026\ngini = 0.33\nsamples = 21\nvalue = [29, 1, 1, 5]\nclass = anger", fillcolor="#eb9d66"] ;
14 -> 15 ;
16 [label="lm_222_z <= 0.005\ngini = 0.091\nsamples = 10\nvalue = [20, 1, 0, 0]\nclass = anger", fillcolor="#e68743"] ;
15 -> 16 ;
17 [label="gini = 0.0\nsamples = 9\nvalue = [20, 0, 0, 0]\nclass = anger", fillcolor="#e58139"] ;
16 -> 17 ;
18 [label="gini = 0.0\nsamples = 1\nvalue = [0, 1, 0, 0]\nclass = happy", fillcolor="#47e539"] ;
16 -> 18 ;
19 [label="lm_140_z <= 0.125\ngini = 0.524\nsamples = 11\nvalue = [9, 0, 1, 5]\nclass = anger", fillcolor="#f5cdb0"] ;
15 -> 19 ;
20 [label="lm_199_y <= 0.501\ngini = 0.18\nsamples = 7\nvalue = [9, 0, 0, 1]\nclass = anger", fillcolor="#e88f4f"] ;
19 -> 20 ;
21 [label="gini = 0.0\nsamples = 1\nvalue = [0, 0, 0, 1]\nclass = sad", fillcolor="#d739e5"] ;
20 -> 21 ;
22 [label="gini = 0.0\nsamples = 6\nvalue = [9, 0, 0, 0]\nclass = anger", fillcolor="#e58139"] ;
20 -> 22 ;
23 [label="lm_365_x <= 0.597\ngini = 0.32\nsamples = 4\nvalue = [0, 0, 1, 4]\nclass = sad", fillcolor="#e16aec"] ;
19 -> 23 ;
24 [label="gini = 0.0\nsamples = 1\nvalue = [0, 0, 1, 0]\nclass = neutral", fillcolor="#399de5"] ;
23 -> 24 ;
25 [label="gini = 0.0\nsamples = 3\nvalue = [0, 0, 0, 4]\nclass = sad", fillcolor="#d739e5"] ;
23 -> 25 ;
26 [label="gini = 0.0\nsamples = 1\nvalue = [0, 0, 2, 0]\nclass = neutral", fillcolor="#399de5"] ;
14 -> 26 ;
27 [label="lm_332_z <= -0.057\ngini = 0.662\nsamples = 40\nvalue = [14, 1, 24, 18]\nclass = neutral", fillcolor="#e1f0fb"] ;
11 -> 27 ;
28 [label="lm_212_y <= 0.774\ngini = 0.444\nsamples = 15\nvalue = [2, 0, 4, 15]\nclass = sad", fillcolor="#e57fee"] ;
27 -> 28 ;
29 [label="lm_239_z <= -0.135\ngini = 0.208\nsamples = 12\nvalue = [0, 0, 2, 15]\nclass = sad", fillcolor="#dc53e8"] ;
28 -> 29 ;
30 [label="gini = 0.0\nsamples = 1\nvalue = [0, 0, 1, 0]\nclass = neutral", fillcolor="#399de5"] ;
29 -> 30 ;
31 [label="lm_384_x <= 0.776\ngini = 0.117\nsamples = 11\nvalue = [0, 0, 1, 15]\nclass = sad", fillcolor="#da46e7"] ;
29 -> 31 ;
32 [label="gini = 0.0\nsamples = 1\nvalue = [0, 0, 1, 0]\nclass = neutral", fillcolor="#399de5"] ;
31 -> 32 ;
33 [label="gini = 0.0\nsamples = 10\nvalue = [0, 0, 0, 15]\nclass = sad", fillcolor="#d739e5"] ;
31 -> 33 ;
34 [label="lm_463_z <= -0.094\ngini = 0.5\nsamples = 3\nvalue = [2, 0, 2, 0]\nclass = anger", fillcolor="#ffffff"] ;
28 -> 34 ;
35 [label="gini = 0.0\nsamples = 2\nvalue = [0, 0, 2, 0]\nclass = neutral", fillcolor="#399de5"] ;
34 -> 35 ;
36 [label="gini = 0.0\nsamples = 1\nvalue = [2, 0, 0, 0]\nclass = anger", fillcolor="#e58139"] ;
34 -> 36 ;
37 [label="lm_303_z <= -0.068\ngini = 0.573\nsamples = 25\nvalue = [12, 1, 20, 3]\nclass = neutral", fillcolor="#bddef6"] ;
27 -> 37 ;
38 [label="lm_361_y <= 0.571\ngini = 0.204\nsamples = 10\nvalue = [1, 0, 16, 1]\nclass = neutral", fillcolor="#50a9e8"] ;
37 -> 38 ;
39 [label="gini = 0.0\nsamples = 8\nvalue = [0, 0, 16, 0]\nclass = neutral", fillcolor="#399de5"] ;
38 -> 39 ;
40 [label="lm_168_x <= 0.418\ngini = 0.5\nsamples = 2\nvalue = [1, 0, 0, 1]\nclass = anger", fillcolor="#ffffff"] ;
38 -> 40 ;
41 [label="gini = 0.0\nsamples = 1\nvalue = [1, 0, 0, 0]\nclass = anger", fillcolor="#e58139"] ;
40 -> 41 ;
42 [label="gini = 0.0\nsamples = 1\nvalue = [0, 0, 0, 1]\nclass = sad", fillcolor="#d739e5"] ;
40 -> 42 ;
43 [label="lm_218_y <= 0.504\ngini = 0.562\nsamples = 15\nvalue = [11, 1, 4, 2]\nclass = anger", fillcolor="#f2c09c"] ;
37 -> 43 ;
44 [label="lm_472_z <= 0.003\ngini = 0.272\nsamples = 11\nvalue = [11, 1, 1, 0]\nclass = anger", fillcolor="#e9965a"] ;
43 -> 44 ;
45 [label="lm_319_x <= 0.537\ngini = 0.5\nsamples = 2\nvalue = [0, 1, 1, 0]\nclass = happy", fillcolor="#ffffff"] ;
44 -> 45 ;
46 [label="gini = 0.0\nsamples = 1\nvalue = [0, 1, 0, 0]\nclass = happy", fillcolor="#47e539"] ;
45 -> 46 ;
47 [label="gini = 0.0\nsamples = 1\nvalue = [0, 0, 1, 0]\nclass = neutral", fillcolor="#399de5"] ;
45 -> 47 ;
48 [label="gini = 0.0\nsamples = 9\nvalue = [11, 0, 0, 0]\nclass = anger", fillcolor="#e58139"] ;
44 -> 48 ;
49 [label="lm_363_z <= 0.023\ngini = 0.48\nsamples = 4\nvalue = [0, 0, 3, 2]\nclass = neutral", fillcolor="#bddef6"] ;
43 -> 49 ;
50 [label="gini = 0.0\nsamples = 1\nvalue = [0, 0, 0, 2]\nclass = sad", fillcolor="#d739e5"] ;
49 -> 50 ;
51 [label="gini = 0.0\nsamples = 3\nvalue = [0, 0, 3, 0]\nclass = neutral", fillcolor="#399de5"] ;
49 -> 51 ;
52 [label="lm_415_y <= 0.386\ngini = 0.363\nsamples = 43\nvalue = [2, 1, 11, 49]\nclass = sad", fillcolor="#e26eec"] ;
8 -> 52 ;
53 [label="gini = 0.0\nsamples = 3\nvalue = [0, 0, 5, 0]\nclass = neutral", fillcolor="#399de5"] ;
52 -> 53 ;
54 [label="lm_49_z <= -0.063\ngini = 0.274\nsamples = 40\nvalue = [2, 1, 6, 49]\nclass = sad", fillcolor="#de5bea"] ;
52 -> 54 ;
55 [label="lm_412_x <= 0.654\ngini = 0.228\nsamples = 38\nvalue = [2, 1, 4, 49]\nclass = sad", fillcolor="#dc54e8"] ;
54 -> 55 ;
56 [label="gini = 0.0\nsamples = 2\nvalue = [0, 0, 2, 0]\nclass = neutral", fillcolor="#399de5"] ;
55 -> 56 ;
57 [label="lm_96_y <= 0.723\ngini = 0.174\nsamples = 36\nvalue = [2, 1, 2, 49]\nclass = sad", fillcolor="#db4ce8"] ;
55 -> 57 ;
58 [label="lm_201_z <= -0.024\ngini = 0.143\nsamples = 35\nvalue = [1, 1, 2, 49]\nclass = sad", fillcolor="#da49e7"] ;
57 -> 58 ;
59 [label="lm_39_y <= 0.667\ngini = 0.076\nsamples = 34\nvalue = [1, 1, 0, 49]\nclass = sad", fillcolor="#d941e6"] ;
58 -> 59 ;
60 [label="lm_3_x <= 0.479\ngini = 0.5\nsamples = 2\nvalue = [0, 1, 0, 1]\nclass = happy", fillcolor="#ffffff"] ;
59 -> 60 ;
61 [label="gini = 0.0\nsamples = 1\nvalue = [0, 1, 0, 0]\nclass = happy", fillcolor="#47e539"] ;
60 -> 61 ;
62 [label="gini = 0.0\nsamples = 1\nvalue = [0, 0, 0, 1]\nclass = sad", fillcolor="#d739e5"] ;
60 -> 62 ;
63 [label="lm_202_z <= -0.022\ngini = 0.04\nsamples = 32\nvalue = [1.0, 0.0, 0.0, 48.0]\nclass = sad", fillcolor="#d83de6"] ;
59 -> 63 ;
64 [label="gini = 0.0\nsamples = 30\nvalue = [0, 0, 0, 47]\nclass = sad", fillcolor="#d739e5"] ;
63 -> 64 ;
65 [label="lm_219_y <= 0.548\ngini = 0.5\nsamples = 2\nvalue = [1, 0, 0, 1]\nclass = anger", fillcolor="#ffffff"] ;
63 -> 65 ;
66 [label="gini = 0.0\nsamples = 1\nvalue = [0, 0, 0, 1]\nclass = sad", fillcolor="#d739e5"] ;
65 -> 66 ;
67 [label="gini = 0.0\nsamples = 1\nvalue = [1, 0, 0, 0]\nclass = anger", fillcolor="#e58139"] ;
65 -> 67 ;
68 [label="gini = 0.0\nsamples = 1\nvalue = [0, 0, 2, 0]\nclass = neutral", fillcolor="#399de5"] ;
58 -> 68 ;
69 [label="gini = 0.0\nsamples = 1\nvalue = [1, 0, 0, 0]\nclass = anger", fillcolor="#e58139"] ;
57 -> 69 ;
70 [label="gini = 0.0\nsamples = 2\nvalue = [0, 0, 2, 0]\nclass = neutral", fillcolor="#399de5"] ;
54 -> 70 ;
71 [label="lm_221_y <= 0.543\ngini = 0.514\nsamples = 315\nvalue = [63, 11, 89, 314]\nclass = sad", fillcolor="#e88cf0"] ;
7 -> 71 ;
72 [label="lm_162_y <= 0.397\ngini = 0.593\nsamples = 228\nvalue = [63, 10, 71, 192]\nclass = sad", fillcolor="#eda5f3"] ;
71 -> 72 ;
73 [label="lm_108_y <= 0.326\ngini = 0.648\nsamples = 141\nvalue = [53, 6, 49, 100]\nclass = sad", fillcolor="#f3c3f7"] ;
72 -> 73 ;
74 [label="lm_307_z <= 0.01\ngini = 0.591\nsamples = 108\nvalue = [24, 6, 37, 90]\nclass = sad", fillcolor="#eda8f4"] ;
73 -> 74 ;
75 [label="lm_158_y <= 0.361\ngini = 0.552\nsamples = 105\nvalue = [22, 0, 37, 90]\nclass = sad", fillcolor="#eca1f3"] ;
74 -> 75 ;
76 [label="lm_443_y <= 0.371\ngini = 0.444\nsamples = 9\nvalue = [4, 0, 8, 0]\nclass = neutral", fillcolor="#9ccef2"] ;
75 -> 76 ;
77 [label="gini = 0.0\nsamples = 4\nvalue = [0, 0, 7, 0]\nclass = neutral", fillcolor="#399de5"] ;
76 -> 77 ;
78 [label="lm_120_x <= 0.374\ngini = 0.32\nsamples = 5\nvalue = [4, 0, 1, 0]\nclass = anger", fillcolor="#eca06a"] ;
76 -> 78 ;
79 [label="gini = 0.0\nsamples = 4\nvalue = [4, 0, 0, 0]\nclass = anger", fillcolor="#e58139"] ;
78 -> 79 ;
80 [label="gini = 0.0\nsamples = 1\nvalue = [0, 0, 1, 0]\nclass = neutral", fillcolor="#399de5"] ;
78 -> 80 ;
81 [label="lm_21_y <= 0.532\ngini = 0.506\nsamples = 96\nvalue = [18, 0, 29, 90]\nclass = sad", fillcolor="#e88ff0"] ;
75 -> 81 ;
82 [label="gini = 0.0\nsamples = 5\nvalue = [6, 0, 0, 0]\nclass = anger", fillcolor="#e58139"] ;
81 -> 82 ;
83 [label="lm_385_z <= 0.021\ngini = 0.471\nsamples = 91\nvalue = [12, 0, 29, 90]\nclass = sad", fillcolor="#e789ef"] ;
81 -> 83 ;
84 [label="lm_269_y <= 0.68\ngini = 0.533\nsamples = 18\nvalue = [1, 0, 12, 9]\nclass = neutral", fillcolor="#d1e8f9"] ;
83 -> 84 ;
85 [label="lm_129_x <= 0.437\ngini = 0.403\nsamples = 12\nvalue = [1, 0, 2, 9]\nclass = sad", fillcolor="#e374ed"] ;
84 -> 85 ;
86 [label="lm_21_z <= -0.08\ngini = 0.18\nsamples = 10\nvalue = [0, 0, 1, 9]\nclass = sad", fillcolor="#db4fe8"] ;
85 -> 86 ;
87 [label="gini = 0.0\nsamples = 9\nvalue = [0, 0, 0, 9]\nclass = sad", fillcolor="#d739e5"] ;
86 -> 87 ;
88 [label="gini = 0.0\nsamples = 1\nvalue = [0, 0, 1, 0]\nclass = neutral", fillcolor="#399de5"] ;
86 -> 88 ;
89 [label="lm_445_y <= 0.378\ngini = 0.5\nsamples = 2\nvalue = [1, 0, 1, 0]\nclass = anger", fillcolor="#ffffff"] ;
85 -> 89 ;
90 [label="gini = 0.0\nsamples = 1\nvalue = [0, 0, 1, 0]\nclass = neutral", fillcolor="#399de5"] ;
89 -> 90 ;
91 [label="gini = 0.0\nsamples = 1\nvalue = [1, 0, 0, 0]\nclass = anger", fillcolor="#e58139"] ;
89 -> 91 ;
92 [label="gini = 0.0\nsamples = 6\nvalue = [0, 0, 10, 0]\nclass = neutral", fillcolor="#399de5"] ;
84 -> 92 ;
93 [label="lm_328_z <= -0.044\ngini = 0.413\nsamples = 73\nvalue = [11, 0, 17, 81]\nclass = sad", fillcolor="#e375ed"] ;
83 -> 93 ;
94 [label="lm_462_z <= -0.145\ngini = 0.261\nsamples = 52\nvalue = [6, 0, 6, 70]\nclass = sad", fillcolor="#dd58e9"] ;
93 -> 94 ;
95 [label="lm_460_z <= -0.133\ngini = 0.375\nsamples = 4\nvalue = [3, 0, 1, 0]\nclass = anger", fillcolor="#eeab7b"] ;
94 -> 95 ;
96 [label="gini = 0.0\nsamples = 3\nvalue = [3, 0, 0, 0]\nclass = anger", fillcolor="#e58139"] ;
95 -> 96 ;
97 [label="gini = 0.0\nsamples = 1\nvalue = [0, 0, 1, 0]\nclass = neutral", fillcolor="#399de5"] ;
95 -> 97 ;
98 [label="lm_237_x <= 0.467\ngini = 0.189\nsamples = 48\nvalue = [3, 0, 5, 70]\nclass = sad", fillcolor="#db4fe8"] ;
94 -> 98 ;
99 [label="lm_195_y <= 0.787\ngini = 0.131\nsamples = 42\nvalue = [0, 0, 5, 66]\nclass = sad", fillcolor="#da48e7"] ;
98 -> 99 ;
100 [label="lm_397_x <= 0.431\ngini = 0.108\nsamples = 41\nvalue = [0, 0, 4, 66]\nclass = sad", fillcolor="#d945e7"] ;
99 -> 100 ;
101 [label="lm_139_y <= 0.658\ngini = 0.298\nsamples = 11\nvalue = [0, 0, 4, 18]\nclass = sad", fillcolor="#e065eb"] ;
100 -> 101 ;
102 [label="gini = 0.0\nsamples = 9\nvalue = [0, 0, 0, 18]\nclass = sad", fillcolor="#d739e5"] ;
101 -> 102 ;
103 [label="gini = 0.0\nsamples = 2\nvalue = [0, 0, 4, 0]\nclass = neutral", fillcolor="#399de5"] ;
101 -> 103 ;
104 [label="gini = 0.0\nsamples = 30\nvalue = [0, 0, 0, 48]\nclass = sad", fillcolor="#d739e5"] ;
100 -> 104 ;
105 [label="gini = 0.0\nsamples = 1\nvalue = [0, 0, 1, 0]\nclass = neutral", fillcolor="#399de5"] ;
99 -> 105 ;
106 [label="lm_60_x <= 0.444\ngini = 0.49\nsamples = 6\nvalue = [3, 0, 0, 4]\nclass = sad", fillcolor="#f5cef8"] ;
98 -> 106 ;
107 [label="gini = 0.0\nsamples = 2\nvalue = [3, 0, 0, 0]\nclass = anger", fillcolor="#e58139"] ;
106 -> 107 ;
108 [label="gini = 0.0\nsamples = 4\nvalue = [0, 0, 0, 4]\nclass = sad", fillcolor="#d739e5"] ;
106 -> 108 ;
109 [label="lm_40_y <= 0.67\ngini = 0.634\nsamples = 21\nvalue = [5, 0, 11, 11]\nclass = neutral", fillcolor="#ffffff"] ;
93 -> 109 ;
110 [label="lm_282_y <= 0.5\ngini = 0.5\nsamples = 18\nvalue = [0, 0, 11, 11]\nclass = neutral", fillcolor="#ffffff"] ;
109 -> 110 ;
111 [label="gini = 0.0\nsamples = 6\nvalue = [0, 0, 0, 7]\nclass = sad", fillcolor="#d739e5"] ;
110 -> 111 ;
112 [label="lm_98_x <= 0.45\ngini = 0.391\nsamples = 12\nvalue = [0, 0, 11, 4]\nclass = neutral", fillcolor="#81c1ee"] ;
110 -> 112 ;
113 [label="gini = 0.0\nsamples = 4\nvalue = [0, 0, 0, 4]\nclass = sad", fillcolor="#d739e5"] ;
112 -> 113 ;
114 [label="gini = 0.0\nsamples = 8\nvalue = [0, 0, 11, 0]\nclass = neutral", fillcolor="#399de5"] ;
112 -> 114 ;
115 [label="gini = 0.0\nsamples = 3\nvalue = [5, 0, 0, 0]\nclass = anger", fillcolor="#e58139"] ;
109 -> 115 ;
116 [label="lm_284_x <= 0.708\ngini = 0.375\nsamples = 3\nvalue = [2, 6, 0, 0]\nclass = happy", fillcolor="#84ee7b"] ;
74 -> 116 ;
117 [label="gini = 0.0\nsamples = 1\nvalue = [2, 0, 0, 0]\nclass = anger", fillcolor="#e58139"] ;
116 -> 117 ;
118 [label="gini = 0.0\nsamples = 2\nvalue = [0, 6, 0, 0]\nclass = happy", fillcolor="#47e539"] ;
116 -> 118 ;
119 [label="lm_14_z <= -0.071\ngini = 0.583\nsamples = 33\nvalue = [29, 0, 12, 10]\nclass = anger", fillcolor="#f4c8a9"] ;
73 -> 119 ;
120 [label="lm_335_z <= 0.121\ngini = 0.08\nsamples = 15\nvalue = [23, 0, 0, 1]\nclass = anger", fillcolor="#e68642"] ;
119 -> 120 ;
121 [label="gini = 0.0\nsamples = 14\nvalue = [23, 0, 0, 0]\nclass = anger", fillcolor="#e58139"] ;
120 -> 121 ;
122 [label="gini = 0.0\nsamples = 1\nvalue = [0, 0, 0, 1]\nclass = sad", fillcolor="#d739e5"] ;
120 -> 122 ;
123 [label="lm_325_z <= -0.03\ngini = 0.642\nsamples = 18\nvalue = [6, 0, 12, 9]\nclass = neutral", fillcolor="#deeffb"] ;
119 -> 123 ;
124 [label="lm_116_z <= -0.084\ngini = 0.463\nsamples = 9\nvalue = [4, 0, 0, 7]\nclass = sad", fillcolor="#eeaaf4"] ;
123 -> 124 ;
125 [label="gini = 0.0\nsamples = 4\nvalue = [4, 0, 0, 0]\nclass = anger", fillcolor="#e58139"] ;
124 -> 125 ;
126 [label="gini = 0.0\nsamples = 5\nvalue = [0, 0, 0, 7]\nclass = sad", fillcolor="#d739e5"] ;
124 -> 126 ;
127 [label="lm_139_y <= 0.708\ngini = 0.406\nsamples = 9\nvalue = [2, 0, 12, 2]\nclass = neutral", fillcolor="#72b9ec"] ;
123 -> 127 ;
128 [label="lm_194_y <= 0.4\ngini = 0.245\nsamples = 7\nvalue = [0, 0, 12, 2]\nclass = neutral", fillcolor="#5aade9"] ;
127 -> 128 ;
129 [label="gini = 0.0\nsamples = 1\nvalue = [0, 0, 0, 2]\nclass = sad", fillcolor="#d739e5"] ;
128 -> 129 ;
130 [label="gini = 0.0\nsamples = 6\nvalue = [0, 0, 12, 0]\nclass = neutral", fillcolor="#399de5"] ;
128 -> 130 ;
131 [label="gini = 0.0\nsamples = 2\nvalue = [2, 0, 0, 0]\nclass = anger", fillcolor="#e58139"] ;
127 -> 131 ;
132 [label="lm_275_z <= -0.147\ngini = 0.447\nsamples = 87\nvalue = [10, 4, 22, 92]\nclass = sad", fillcolor="#e57cee"] ;
72 -> 132 ;
133 [label="lm_354_x <= 0.79\ngini = 0.737\nsamples = 20\nvalue = [7, 4, 8, 7]\nclass = neutral", fillcolor="#f5fafe"] ;
132 -> 133 ;
134 [label="lm_397_y <= 0.822\ngini = 0.698\nsamples = 17\nvalue = [2, 4, 8, 7]\nclass = neutral", fillcolor="#f1f8fd"] ;
133 -> 134 ;
135 [label="lm_197_z <= -0.077\ngini = 0.32\nsamples = 7\nvalue = [2, 0, 8, 0]\nclass = neutral", fillcolor="#6ab6ec"] ;
134 -> 135 ;
136 [label="gini = 0.0\nsamples = 2\nvalue = [2, 0, 0, 0]\nclass = anger", fillcolor="#e58139"] ;
135 -> 136 ;
137 [label="gini = 0.0\nsamples = 5\nvalue = [0, 0, 8, 0]\nclass = neutral", fillcolor="#399de5"] ;
135 -> 137 ;
138 [label="lm_136_z <= 0.077\ngini = 0.463\nsamples = 10\nvalue = [0, 4, 0, 7]\nclass = sad", fillcolor="#eeaaf4"] ;
134 -> 138 ;
139 [label="gini = 0.0\nsamples = 6\nvalue = [0, 0, 0, 6]\nclass = sad", fillcolor="#d739e5"] ;
138 -> 139 ;
140 [label="lm_367_x <= 0.837\ngini = 0.32\nsamples = 4\nvalue = [0, 4, 0, 1]\nclass = happy", fillcolor="#75ec6a"] ;
138 -> 140 ;
141 [label="gini = 0.0\nsamples = 3\nvalue = [0, 4, 0, 0]\nclass = happy", fillcolor="#47e539"] ;
140 -> 141 ;
142 [label="gini = 0.0\nsamples = 1\nvalue = [0, 0, 0, 1]\nclass = sad", fillcolor="#d739e5"] ;
140 -> 142 ;
143 [label="gini = 0.0\nsamples = 3\nvalue = [5, 0, 0, 0]\nclass = anger", fillcolor="#e58139"] ;
133 -> 143 ;
144 [label="lm_262_x <= 0.685\ngini = 0.286\nsamples = 67\nvalue = [3.0, 0.0, 14.0, 85.0]\nclass = sad", fillcolor="#df5fea"] ;
132 -> 144 ;
145 [label="lm_199_z <= -0.054\ngini = 0.611\nsamples = 10\nvalue = [2, 0, 6, 4]\nclass = neutral", fillcolor="#cee6f8"] ;
144 -> 145 ;
146 [label="lm_369_y <= 0.397\ngini = 0.245\nsamples = 5\nvalue = [0, 0, 6, 1]\nclass = neutral", fillcolor="#5aade9"] ;
145 -> 146 ;
147 [label="gini = 0.0\nsamples = 4\nvalue = [0, 0, 6, 0]\nclass = neutral", fillcolor="#399de5"] ;
146 -> 147 ;
148 [label="gini = 0.0\nsamples = 1\nvalue = [0, 0, 0, 1]\nclass = sad", fillcolor="#d739e5"] ;
146 -> 148 ;
149 [label="lm_206_x <= 0.346\ngini = 0.48\nsamples = 5\nvalue = [2, 0, 0, 3]\nclass = sad", fillcolor="#f2bdf6"] ;
145 -> 149 ;
150 [label="gini = 0.0\nsamples = 2\nvalue = [2, 0, 0, 0]\nclass = anger", fillcolor="#e58139"] ;
149 -> 150 ;
151 [label="gini = 0.0\nsamples = 3\nvalue = [0, 0, 0, 3]\nclass = sad", fillcolor="#d739e5"] ;
149 -> 151 ;
152 [label="lm_393_z <= -0.069\ngini = 0.182\nsamples = 57\nvalue = [1, 0, 8, 81]\nclass = sad", fillcolor="#db4fe8"] ;
144 -> 152 ;
153 [label="lm_309_y <= 0.653\ngini = 0.058\nsamples = 42\nvalue = [1, 0, 1, 65]\nclass = sad", fillcolor="#d83fe6"] ;
152 -> 153 ;
154 [label="lm_270_x <= 0.582\ngini = 0.5\nsamples = 2\nvalue = [0, 0, 1, 1]\nclass = neutral", fillcolor="#ffffff"] ;
153 -> 154 ;
155 [label="gini = 0.0\nsamples = 1\nvalue = [0, 0, 1, 0]\nclass = neutral", fillcolor="#399de5"] ;
154 -> 155 ;
156 [label="gini = 0.0\nsamples = 1\nvalue = [0, 0, 0, 1]\nclass = sad", fillcolor="#d739e5"] ;
154 -> 156 ;
157 [label="lm_295_z <= -0.08\ngini = 0.03\nsamples = 40\nvalue = [1, 0, 0, 64]\nclass = sad", fillcolor="#d83ce5"] ;
153 -> 157 ;
158 [label="gini = 0.0\nsamples = 1\nvalue = [1, 0, 0, 0]\nclass = anger", fillcolor="#e58139"] ;
157 -> 158 ;
159 [label="gini = 0.0\nsamples = 39\nvalue = [0, 0, 0, 64]\nclass = sad", fillcolor="#d739e5"] ;
157 -> 159 ;
160 [label="lm_206_z <= -0.019\ngini = 0.423\nsamples = 15\nvalue = [0, 0, 7, 16]\nclass = sad", fillcolor="#e890f0"] ;
152 -> 160 ;
161 [label="lm_442_x <= 0.602\ngini = 0.117\nsamples = 11\nvalue = [0, 0, 1, 15]\nclass = sad", fillcolor="#da46e7"] ;
160 -> 161 ;
162 [label="gini = 0.0\nsamples = 10\nvalue = [0, 0, 0, 15]\nclass = sad", fillcolor="#d739e5"] ;
161 -> 162 ;
163 [label="gini = 0.0\nsamples = 1\nvalue = [0, 0, 1, 0]\nclass = neutral", fillcolor="#399de5"] ;
161 -> 163 ;
164 [label="lm_209_y <= 0.81\ngini = 0.245\nsamples = 4\nvalue = [0, 0, 6, 1]\nclass = neutral", fillcolor="#5aade9"] ;
160 -> 164 ;
165 [label="gini = 0.0\nsamples = 3\nvalue = [0, 0, 6, 0]\nclass = neutral", fillcolor="#399de5"] ;
164 -> 165 ;
166 [label="gini = 0.0\nsamples = 1\nvalue = [0, 0, 0, 1]\nclass = sad", fillcolor="#d739e5"] ;
164 -> 166 ;
167 [label="lm_169_z <= -0.021\ngini = 0.235\nsamples = 87\nvalue = [0, 1, 18, 122]\nclass = sad", fillcolor="#dd58e9"] ;
71 -> 167 ;
168 [label="lm_184_y <= 0.712\ngini = 0.175\nsamples = 82\nvalue = [0, 1, 12, 122]\nclass = sad", fillcolor="#db4ee8"] ;
167 -> 168 ;
169 [label="lm_234_x <= 0.409\ngini = 0.141\nsamples = 80\nvalue = [0, 1, 9, 122]\nclass = sad", fillcolor="#da49e7"] ;
168 -> 169 ;
170 [label="gini = 0.0\nsamples = 1\nvalue = [0, 0, 2, 0]\nclass = neutral", fillcolor="#399de5"] ;
169 -> 170 ;
171 [label="lm_260_x <= 0.741\ngini = 0.116\nsamples = 79\nvalue = [0, 1, 7, 122]\nclass = sad", fillcolor="#da46e7"] ;
169 -> 171 ;
172 [label="lm_7_x <= 0.551\ngini = 0.09\nsamples = 77\nvalue = [0, 1, 5, 122]\nclass = sad", fillcolor="#d943e6"] ;
171 -> 172 ;
173 [label="lm_296_z <= -0.04\ngini = 0.076\nsamples = 76\nvalue = [0, 1, 4, 122]\nclass = sad", fillcolor="#d941e6"] ;
172 -> 173 ;
174 [label="gini = 0.0\nsamples = 1\nvalue = [0, 0, 1, 0]\nclass = neutral", fillcolor="#399de5"] ;
173 -> 174 ;
175 [label="lm_477_z <= 0.074\ngini = 0.062\nsamples = 75\nvalue = [0, 1, 3, 122]\nclass = sad", fillcolor="#d83fe6"] ;
173 -> 175 ;
176 [label="lm_140_y <= 0.288\ngini = 0.047\nsamples = 74\nvalue = [0, 1, 2, 122]\nclass = sad", fillcolor="#d83ee6"] ;
175 -> 176 ;
177 [label="lm_246_z <= -0.006\ngini = 0.375\nsamples = 2\nvalue = [0, 0, 1, 3]\nclass = sad", fillcolor="#e47bee"] ;
176 -> 177 ;
178 [label="gini = 0.0\nsamples = 1\nvalue = [0, 0, 1, 0]\nclass = neutral", fillcolor="#399de5"] ;
177 -> 178 ;
179 [label="gini = 0.0\nsamples = 1\nvalue = [0, 0, 0, 3]\nclass = sad", fillcolor="#d739e5"] ;
177 -> 179 ;
180 [label="lm_43_y <= 0.664\ngini = 0.033\nsamples = 72\nvalue = [0, 1, 1, 119]\nclass = sad", fillcolor="#d83ce5"] ;
176 -> 180 ;
181 [label="lm_258_y <= 0.411\ngini = 0.278\nsamples = 4\nvalue = [0, 1, 0, 5]\nclass = sad", fillcolor="#df61ea"] ;
180 -> 181 ;
182 [label="gini = 0.0\nsamples = 1\nvalue = [0, 1, 0, 0]\nclass = happy", fillcolor="#47e539"] ;
181 -> 182 ;
183 [label="gini = 0.0\nsamples = 3\nvalue = [0, 0, 0, 5]\nclass = sad", fillcolor="#d739e5"] ;
181 -> 183 ;
184 [label="lm_145_x <= 0.373\ngini = 0.017\nsamples = 68\nvalue = [0, 0, 1, 114]\nclass = sad", fillcolor="#d73be5"] ;
180 -> 184 ;
185 [label="gini = 0.0\nsamples = 65\nvalue = [0, 0, 0, 111]\nclass = sad", fillcolor="#d739e5"] ;
184 -> 185 ;
186 [label="lm_206_y <= 0.567\ngini = 0.375\nsamples = 3\nvalue = [0, 0, 1, 3]\nclass = sad", fillcolor="#e47bee"] ;
184 -> 186 ;
187 [label="gini = 0.0\nsamples = 1\nvalue = [0, 0, 1, 0]\nclass = neutral", fillcolor="#399de5"] ;
186 -> 187 ;
188 [label="gini = 0.0\nsamples = 2\nvalue = [0, 0, 0, 3]\nclass = sad", fillcolor="#d739e5"] ;
186 -> 188 ;
189 [label="gini = 0.0\nsamples = 1\nvalue = [0, 0, 1, 0]\nclass = neutral", fillcolor="#399de5"] ;
175 -> 189 ;
190 [label="gini = 0.0\nsamples = 1\nvalue = [0, 0, 1, 0]\nclass = neutral", fillcolor="#399de5"] ;
172 -> 190 ;
191 [label="gini = 0.0\nsamples = 2\nvalue = [0, 0, 2, 0]\nclass = neutral", fillcolor="#399de5"] ;
171 -> 191 ;
192 [label="gini = 0.0\nsamples = 2\nvalue = [0, 0, 3, 0]\nclass = neutral", fillcolor="#399de5"] ;
168 -> 192 ;
193 [label="gini = 0.0\nsamples = 5\nvalue = [0, 0, 6, 0]\nclass = neutral", fillcolor="#399de5"] ;
167 -> 193 ;
194 [label="lm_9_y <= 0.354\ngini = 0.659\nsamples = 546\nvalue = [273, 25, 187, 383]\nclass = sad", fillcolor="#f8dafa"] ;
6 -> 194 ;
195 [label="lm_196_x <= 0.519\ngini = 0.619\nsamples = 122\nvalue = [18, 10, 76, 91]\nclass = sad", fillcolor="#fae6fc"] ;
194 -> 195 ;
196 [label="lm_181_y <= 0.745\ngini = 0.594\nsamples = 105\nvalue = [14, 8, 56, 89]\nclass = sad", fillcolor="#f3c4f7"] ;
195 -> 196 ;
197 [label="lm_183_z <= -0.047\ngini = 0.634\nsamples = 75\nvalue = [12, 7, 52, 46]\nclass = neutral", fillcolor="#eef7fd"] ;
196 -> 197 ;
198 [label="lm_159_z <= 0.086\ngini = 0.515\nsamples = 43\nvalue = [3, 1, 21, 40]\nclass = sad", fillcolor="#eeaaf4"] ;
197 -> 198 ;
199 [label="lm_465_y <= 0.393\ngini = 0.463\nsamples = 40\nvalue = [3, 1, 14, 40]\nclass = sad", fillcolor="#e78af0"] ;
198 -> 199 ;
200 [label="gini = 0.0\nsamples = 3\nvalue = [0, 0, 5, 0]\nclass = neutral", fillcolor="#399de5"] ;
199 -> 200 ;
201 [label="lm_336_z <= -0.021\ngini = 0.398\nsamples = 37\nvalue = [3, 1, 9, 40]\nclass = sad", fillcolor="#e374ed"] ;
199 -> 201 ;
202 [label="lm_34_x <= 0.297\ngini = 0.293\nsamples = 33\nvalue = [2, 1, 5, 40]\nclass = sad", fillcolor="#de5eea"] ;
201 -> 202 ;
203 [label="lm_212_y <= 0.793\ngini = 0.116\nsamples = 21\nvalue = [0, 1, 1, 31]\nclass = sad", fillcolor="#da45e7"] ;
202 -> 203 ;
204 [label="gini = 0.0\nsamples = 1\nvalue = [0, 1, 0, 0]\nclass = happy", fillcolor="#47e539"] ;
203 -> 204 ;
205 [label="lm_181_y <= 0.716\ngini = 0.061\nsamples = 20\nvalue = [0, 0, 1, 31]\nclass = sad", fillcolor="#d83fe6"] ;
203 -> 205 ;
206 [label="lm_360_x <= 0.693\ngini = 0.5\nsamples = 2\nvalue = [0, 0, 1, 1]\nclass = neutral", fillcolor="#ffffff"] ;
205 -> 206 ;
207 [label="gini = 0.0\nsamples = 1\nvalue = [0, 0, 0, 1]\nclass = sad", fillcolor="#d739e5"] ;
206 -> 207 ;
208 [label="gini = 0.0\nsamples = 1\nvalue = [0, 0, 1, 0]\nclass = neutral", fillcolor="#399de5"] ;
206 -> 208 ;
209 [label="gini = 0.0\nsamples = 18\nvalue = [0, 0, 0, 30]\nclass = sad", fillcolor="#d739e5"] ;
205 -> 209 ;
210 [label="lm_112_x <= 0.242\ngini = 0.551\nsamples = 12\nvalue = [2, 0, 4, 9]\nclass = sad", fillcolor="#eda5f3"] ;
202 -> 210 ;
211 [label="lm_430_x <= 0.556\ngini = 0.48\nsamples = 4\nvalue = [2, 0, 3, 0]\nclass = neutral", fillcolor="#bddef6"] ;
210 -> 211 ;
212 [label="gini = 0.0\nsamples = 1\nvalue = [2, 0, 0, 0]\nclass = anger", fillcolor="#e58139"] ;
211 -> 212 ;
213 [label="gini = 0.0\nsamples = 3\nvalue = [0, 0, 3, 0]\nclass = neutral", fillcolor="#399de5"] ;
211 -> 213 ;
214 [label="lm_232_z <= 0.047\ngini = 0.18\nsamples = 8\nvalue = [0, 0, 1, 9]\nclass = sad", fillcolor="#db4fe8"] ;
210 -> 214 ;
215 [label="gini = 0.0\nsamples = 7\nvalue = [0, 0, 0, 9]\nclass = sad", fillcolor="#d739e5"] ;
214 -> 215 ;
216 [label="gini = 0.0\nsamples = 1\nvalue = [0, 0, 1, 0]\nclass = neutral", fillcolor="#399de5"] ;
214 -> 216 ;
217 [label="lm_83_z <= -0.078\ngini = 0.32\nsamples = 4\nvalue = [1, 0, 4, 0]\nclass = neutral", fillcolor="#6ab6ec"] ;
201 -> 217 ;
218 [label="gini = 0.0\nsamples = 1\nvalue = [1, 0, 0, 0]\nclass = anger", fillcolor="#e58139"] ;
217 -> 218 ;
219 [label="gini = 0.0\nsamples = 3\nvalue = [0, 0, 4, 0]\nclass = neutral", fillcolor="#399de5"] ;
217 -> 219 ;
220 [label="gini = 0.0\nsamples = 3\nvalue = [0, 0, 7, 0]\nclass = neutral", fillcolor="#399de5"] ;
198 -> 220 ;
221 [label="lm_197_z <= -0.081\ngini = 0.588\nsamples = 32\nvalue = [9, 6, 31, 6]\nclass = neutral", fillcolor="#9acdf2"] ;
197 -> 221 ;
222 [label="lm_109_y <= 0.247\ngini = 0.716\nsamples = 11\nvalue = [6, 6, 2, 4]\nclass = anger", fillcolor="#ffffff"] ;
221 -> 222 ;
223 [label="lm_275_y <= 0.566\ngini = 0.611\nsamples = 8\nvalue = [0, 6, 2, 4]\nclass = happy", fillcolor="#d1f8ce"] ;
222 -> 223 ;
224 [label="lm_44_y <= 0.743\ngini = 0.444\nsamples = 5\nvalue = [0, 0, 2, 4]\nclass = sad", fillcolor="#eb9cf2"] ;
223 -> 224 ;
225 [label="gini = 0.0\nsamples = 4\nvalue = [0, 0, 0, 4]\nclass = sad", fillcolor="#d739e5"] ;
224 -> 225 ;
226 [label="gini = 0.0\nsamples = 1\nvalue = [0, 0, 2, 0]\nclass = neutral", fillcolor="#399de5"] ;
224 -> 226 ;
227 [label="gini = 0.0\nsamples = 3\nvalue = [0, 6, 0, 0]\nclass = happy", fillcolor="#47e539"] ;
223 -> 227 ;
228 [label="gini = 0.0\nsamples = 3\nvalue = [6, 0, 0, 0]\nclass = anger", fillcolor="#e58139"] ;
222 -> 228 ;
229 [label="lm_73_z <= -0.078\ngini = 0.261\nsamples = 21\nvalue = [3, 0, 29, 2]\nclass = neutral", fillcolor="#59ade9"] ;
221 -> 229 ;
230 [label="lm_386_y <= 0.357\ngini = 0.067\nsamples = 16\nvalue = [1, 0, 28, 0]\nclass = neutral", fillcolor="#40a0e6"] ;
229 -> 230 ;
231 [label="lm_283_y <= 0.232\ngini = 0.444\nsamples = 2\nvalue = [1, 0, 2, 0]\nclass = neutral", fillcolor="#9ccef2"] ;
230 -> 231 ;
232 [label="gini = 0.0\nsamples = 1\nvalue = [0, 0, 2, 0]\nclass = neutral", fillcolor="#399de5"] ;
231 -> 232 ;
233 [label="gini = 0.0\nsamples = 1\nvalue = [1, 0, 0, 0]\nclass = anger", fillcolor="#e58139"] ;
231 -> 233 ;
234 [label="gini = 0.0\nsamples = 14\nvalue = [0, 0, 26, 0]\nclass = neutral", fillcolor="#399de5"] ;
230 -> 234 ;
235 [label="lm_400_x <= 0.532\ngini = 0.64\nsamples = 5\nvalue = [2, 0, 1, 2]\nclass = anger", fillcolor="#ffffff"] ;
229 -> 235 ;
236 [label="lm_103_y <= 0.551\ngini = 0.444\nsamples = 3\nvalue = [0, 0, 1, 2]\nclass = sad", fillcolor="#eb9cf2"] ;
235 -> 236 ;
237 [label="gini = 0.0\nsamples = 1\nvalue = [0, 0, 1, 0]\nclass = neutral", fillcolor="#399de5"] ;
236 -> 237 ;
238 [label="gini = 0.0\nsamples = 2\nvalue = [0, 0, 0, 2]\nclass = sad", fillcolor="#d739e5"] ;
236 -> 238 ;
239 [label="gini = 0.0\nsamples = 2\nvalue = [2, 0, 0, 0]\nclass = anger", fillcolor="#e58139"] ;
235 -> 239 ;
240 [label="lm_176_y <= 0.928\ngini = 0.252\nsamples = 30\nvalue = [2, 1, 4, 43]\nclass = sad", fillcolor="#dd57e9"] ;
196 -> 240 ;
241 [label="lm_115_z <= -0.033\ngini = 0.044\nsamples = 25\nvalue = [0, 1, 0, 43]\nclass = sad", fillcolor="#d83ee6"] ;
240 -> 241 ;
242 [label="gini = 0.0\nsamples = 1\nvalue = [0, 1, 0, 0]\nclass = happy", fillcolor="#47e539"] ;
241 -> 242 ;
243 [label="gini = 0.0\nsamples = 24\nvalue = [0, 0, 0, 43]\nclass = sad", fillcolor="#d739e5"] ;
241 -> 243 ;
244 [label="lm_28_z <= 0.008\ngini = 0.444\nsamples = 5\nvalue = [2, 0, 4, 0]\nclass = neutral", fillcolor="#9ccef2"] ;
240 -> 244 ;
245 [label="gini = 0.0\nsamples = 3\nvalue = [0, 0, 4, 0]\nclass = neutral", fillcolor="#399de5"] ;
244 -> 245 ;
246 [label="gini = 0.0\nsamples = 2\nvalue = [2, 0, 0, 0]\nclass = anger", fillcolor="#e58139"] ;
244 -> 246 ;
247 [label="lm_94_x <= 0.139\ngini = 0.459\nsamples = 17\nvalue = [4, 2, 20, 2]\nclass = neutral", fillcolor="#7bbeee"] ;
195 -> 247 ;
248 [label="lm_60_z <= -0.084\ngini = 0.72\nsamples = 6\nvalue = [4, 2, 2, 2]\nclass = anger", fillcolor="#f8e0ce"] ;
247 -> 248 ;
249 [label="gini = 0.0\nsamples = 3\nvalue = [4, 0, 0, 0]\nclass = anger", fillcolor="#e58139"] ;
248 -> 249 ;
250 [label="lm_390_y <= 0.314\ngini = 0.667\nsamples = 3\nvalue = [0, 2, 2, 2]\nclass = happy", fillcolor="#ffffff"] ;
248 -> 250 ;
251 [label="gini = 0.0\nsamples = 1\nvalue = [0, 0, 0, 2]\nclass = sad", fillcolor="#d739e5"] ;
250 -> 251 ;
252 [label="lm_136_x <= 0.228\ngini = 0.5\nsamples = 2\nvalue = [0, 2, 2, 0]\nclass = happy", fillcolor="#ffffff"] ;
250 -> 252 ;
253 [label="gini = 0.0\nsamples = 1\nvalue = [0, 0, 2, 0]\nclass = neutral", fillcolor="#399de5"] ;
252 -> 253 ;
254 [label="gini = 0.0\nsamples = 1\nvalue = [0, 2, 0, 0]\nclass = happy", fillcolor="#47e539"] ;
252 -> 254 ;
255 [label="gini = 0.0\nsamples = 11\nvalue = [0, 0, 18, 0]\nclass = neutral", fillcolor="#399de5"] ;
247 -> 255 ;
256 [label="lm_337_z <= 0.036\ngini = 0.64\nsamples = 424\nvalue = [255, 15, 111, 292]\nclass = sad", fillcolor="#fbedfd"] ;
194 -> 256 ;
257 [label="lm_400_y <= 0.498\ngini = 0.647\nsamples = 402\nvalue = [253.0, 15.0, 111.0, 258.0]\nclass = sad", fillcolor="#fefcff"] ;
256 -> 257 ;
258 [label="lm_152_y <= 0.273\ngini = 0.644\nsamples = 332\nvalue = [232.0, 14.0, 89.0, 186.0]\nclass = anger", fillcolor="#fbeee4"] ;
257 -> 258 ;
259 [label="lm_477_y <= 0.405\ngini = 0.594\nsamples = 203\nvalue = [143, 10, 24, 141]\nclass = anger", fillcolor="#fffefd"] ;
258 -> 259 ;
260 [label="lm_307_x <= 0.619\ngini = 0.499\nsamples = 53\nvalue = [58, 4, 4, 22]\nclass = anger", fillcolor="#f1ba93"] ;
259 -> 260 ;
261 [label="lm_163_z <= 0.325\ngini = 0.087\nsamples = 24\nvalue = [42, 0, 2, 0]\nclass = anger", fillcolor="#e68742"] ;
260 -> 261 ;
262 [label="lm_350_x <= 0.582\ngini = 0.045\nsamples = 23\nvalue = [42, 0, 1, 0]\nclass = anger", fillcolor="#e6843e"] ;
261 -> 262 ;
263 [label="gini = 0.0\nsamples = 1\nvalue = [0, 0, 1, 0]\nclass = neutral", fillcolor="#399de5"] ;
262 -> 263 ;
264 [label="gini = 0.0\nsamples = 22\nvalue = [42, 0, 0, 0]\nclass = anger", fillcolor="#e58139"] ;
262 -> 264 ;
265 [label="gini = 0.0\nsamples = 1\nvalue = [0, 0, 1, 0]\nclass = neutral", fillcolor="#399de5"] ;
261 -> 265 ;
266 [label="lm_91_y <= 0.728\ngini = 0.607\nsamples = 29\nvalue = [16, 4, 2, 22]\nclass = sad", fillcolor="#f6d5f9"] ;
260 -> 266 ;
267 [label="lm_45_y <= 0.579\ngini = 0.602\nsamples = 20\nvalue = [16, 4, 2, 6]\nclass = anger", fillcolor="#f3c6a5"] ;
266 -> 267 ;
268 [label="lm_442_x <= 0.535\ngini = 0.345\nsamples = 13\nvalue = [16, 1, 1, 2]\nclass = anger", fillcolor="#eb9d65"] ;
267 -> 268 ;
269 [label="gini = 0.0\nsamples = 1\nvalue = [0, 0, 0, 2]\nclass = sad", fillcolor="#d739e5"] ;
268 -> 269 ;
270 [label="lm_79_y <= 0.702\ngini = 0.204\nsamples = 12\nvalue = [16, 1, 1, 0]\nclass = anger", fillcolor="#e89050"] ;
268 -> 270 ;
271 [label="lm_390_x <= 0.767\ngini = 0.5\nsamples = 2\nvalue = [0, 1, 1, 0]\nclass = happy", fillcolor="#ffffff"] ;
270 -> 271 ;
272 [label="gini = 0.0\nsamples = 1\nvalue = [0, 0, 1, 0]\nclass = neutral", fillcolor="#399de5"] ;
271 -> 272 ;
273 [label="gini = 0.0\nsamples = 1\nvalue = [0, 1, 0, 0]\nclass = happy", fillcolor="#47e539"] ;
271 -> 273 ;
274 [label="gini = 0.0\nsamples = 10\nvalue = [16, 0, 0, 0]\nclass = anger", fillcolor="#e58139"] ;
270 -> 274 ;
275 [label="lm_279_y <= 0.566\ngini = 0.594\nsamples = 7\nvalue = [0, 3, 1, 4]\nclass = sad", fillcolor="#f7d7fa"] ;
267 -> 275 ;
276 [label="gini = 0.0\nsamples = 4\nvalue = [0, 0, 0, 4]\nclass = sad", fillcolor="#d739e5"] ;
275 -> 276 ;
277 [label="lm_116_x <= 0.427\ngini = 0.375\nsamples = 3\nvalue = [0, 3, 1, 0]\nclass = happy", fillcolor="#84ee7b"] ;
275 -> 277 ;
278 [label="gini = 0.0\nsamples = 2\nvalue = [0, 3, 0, 0]\nclass = happy", fillcolor="#47e539"] ;
277 -> 278 ;
279 [label="gini = 0.0\nsamples = 1\nvalue = [0, 0, 1, 0]\nclass = neutral", fillcolor="#399de5"] ;
277 -> 279 ;
280 [label="gini = 0.0\nsamples = 9\nvalue = [0, 0, 0, 16]\nclass = sad", fillcolor="#d739e5"] ;
266 -> 280 ;
281 [label="lm_183_y <= 0.769\ngini = 0.587\nsamples = 150\nvalue = [85, 6, 20, 119]\nclass = sad", fillcolor="#f6d1f9"] ;
259 -> 281 ;
282 [label="lm_309_y <= 0.722\ngini = 0.551\nsamples = 53\nvalue = [51, 4, 4, 29]\nclass = anger", fillcolor="#f5d0b5"] ;
281 -> 282 ;
283 [label="lm_286_y <= 0.363\ngini = 0.624\nsamples = 31\nvalue = [19, 4, 4, 25]\nclass = sad", fillcolor="#f8dbfa"] ;
282 -> 283 ;
284 [label="lm_165_z <= -0.085\ngini = 0.105\nsamples = 12\nvalue = [0, 1, 0, 17]\nclass = sad", fillcolor="#d945e7"] ;
283 -> 284 ;
285 [label="gini = 0.0\nsamples = 1\nvalue = [0, 1, 0, 0]\nclass = happy", fillcolor="#47e539"] ;
284 -> 285 ;
286 [label="gini = 0.0\nsamples = 11\nvalue = [0, 0, 0, 17]\nclass = sad", fillcolor="#d739e5"] ;
284 -> 286 ;
287 [label="lm_327_z <= -0.067\ngini = 0.611\nsamples = 19\nvalue = [19, 3, 4, 8]\nclass = anger", fillcolor="#f4caab"] ;
283 -> 287 ;
288 [label="lm_338_z <= -0.009\ngini = 0.53\nsamples = 16\nvalue = [19, 3, 4, 3]\nclass = anger", fillcolor="#efb388"] ;
287 -> 288 ;
289 [label="gini = 0.0\nsamples = 7\nvalue = [14, 0, 0, 0]\nclass = anger", fillcolor="#e58139"] ;
288 -> 289 ;
290 [label="lm_244_y <= 0.422\ngini = 0.738\nsamples = 9\nvalue = [5, 3, 4, 3]\nclass = anger", fillcolor="#fdf4ed"] ;
288 -> 290 ;
291 [label="lm_238_y <= 0.561\ngini = 0.469\nsamples = 5\nvalue = [5, 0, 0, 3]\nclass = anger", fillcolor="#f5cdb0"] ;
290 -> 291 ;
292 [label="gini = 0.0\nsamples = 4\nvalue = [5, 0, 0, 0]\nclass = anger", fillcolor="#e58139"] ;
291 -> 292 ;
293 [label="gini = 0.0\nsamples = 1\nvalue = [0, 0, 0, 3]\nclass = sad", fillcolor="#d739e5"] ;
291 -> 293 ;
294 [label="lm_451_y <= 0.473\ngini = 0.49\nsamples = 4\nvalue = [0, 3, 4, 0]\nclass = neutral", fillcolor="#cee6f8"] ;
290 -> 294 ;
295 [label="gini = 0.0\nsamples = 2\nvalue = [0, 3, 0, 0]\nclass = happy", fillcolor="#47e539"] ;
294 -> 295 ;
296 [label="gini = 0.0\nsamples = 2\nvalue = [0, 0, 4, 0]\nclass = neutral", fillcolor="#399de5"] ;
294 -> 296 ;
297 [label="gini = 0.0\nsamples = 3\nvalue = [0, 0, 0, 5]\nclass = sad", fillcolor="#d739e5"] ;
287 -> 297 ;
298 [label="lm_54_x <= 0.32\ngini = 0.198\nsamples = 22\nvalue = [32, 0, 0, 4]\nclass = anger", fillcolor="#e89152"] ;
282 -> 298 ;
299 [label="gini = 0.0\nsamples = 17\nvalue = [30, 0, 0, 0]\nclass = anger", fillcolor="#e58139"] ;
298 -> 299 ;
300 [label="lm_84_y <= 0.782\ngini = 0.444\nsamples = 5\nvalue = [2, 0, 0, 4]\nclass = sad", fillcolor="#eb9cf2"] ;
298 -> 300 ;
301 [label="gini = 0.0\nsamples = 4\nvalue = [0, 0, 0, 4]\nclass = sad", fillcolor="#d739e5"] ;
300 -> 301 ;
302 [label="gini = 0.0\nsamples = 1\nvalue = [2, 0, 0, 0]\nclass = anger", fillcolor="#e58139"] ;
300 -> 302 ;
303 [label="lm_380_z <= 0.087\ngini = 0.528\nsamples = 97\nvalue = [34, 2, 16, 90]\nclass = sad", fillcolor="#ea98f2"] ;
281 -> 303 ;
304 [label="lm_165_z <= -0.101\ngini = 0.327\nsamples = 44\nvalue = [10, 2, 1, 54]\nclass = sad", fillcolor="#e066eb"] ;
303 -> 304 ;
305 [label="gini = 0.0\nsamples = 1\nvalue = [0, 2, 0, 0]\nclass = happy", fillcolor="#47e539"] ;
304 -> 305 ;
306 [label="lm_15_y <= 0.722\ngini = 0.286\nsamples = 43\nvalue = [10, 0, 1, 54]\nclass = sad", fillcolor="#df61ea"] ;
304 -> 306 ;
307 [label="lm_413_y <= 0.464\ngini = 0.456\nsamples = 24\nvalue = [9, 0, 1, 21]\nclass = sad", fillcolor="#e993f1"] ;
306 -> 307 ;
308 [label="lm_12_y <= 0.701\ngini = 0.322\nsamples = 21\nvalue = [4, 0, 1, 21]\nclass = sad", fillcolor="#e066eb"] ;
307 -> 308 ;
309 [label="lm_430_y <= 0.523\ngini = 0.159\nsamples = 18\nvalue = [2, 0, 0, 21]\nclass = sad", fillcolor="#db4ce7"] ;
308 -> 309 ;
310 [label="gini = 0.0\nsamples = 1\nvalue = [1, 0, 0, 0]\nclass = anger", fillcolor="#e58139"] ;
309 -> 310 ;
311 [label="lm_59_y <= 0.778\ngini = 0.087\nsamples = 17\nvalue = [1, 0, 0, 21]\nclass = sad", fillcolor="#d942e6"] ;
309 -> 311 ;
312 [label="gini = 0.0\nsamples = 16\nvalue = [0, 0, 0, 21]\nclass = sad", fillcolor="#d739e5"] ;
311 -> 312 ;
313 [label="gini = 0.0\nsamples = 1\nvalue = [1, 0, 0, 0]\nclass = anger", fillcolor="#e58139"] ;
311 -> 313 ;
314 [label="lm_409_y <= 0.718\ngini = 0.444\nsamples = 3\nvalue = [2, 0, 1, 0]\nclass = anger", fillcolor="#f2c09c"] ;
308 -> 314 ;
315 [label="gini = 0.0\nsamples = 2\nvalue = [2, 0, 0, 0]\nclass = anger", fillcolor="#e58139"] ;
314 -> 315 ;
316 [label="gini = 0.0\nsamples = 1\nvalue = [0, 0, 1, 0]\nclass = neutral", fillcolor="#399de5"] ;
314 -> 316 ;
317 [label="gini = 0.0\nsamples = 3\nvalue = [5, 0, 0, 0]\nclass = anger", fillcolor="#e58139"] ;
307 -> 317 ;
318 [label="lm_74_x <= 0.447\ngini = 0.057\nsamples = 19\nvalue = [1, 0, 0, 33]\nclass = sad", fillcolor="#d83fe6"] ;
306 -> 318 ;
319 [label="gini = 0.0\nsamples = 18\nvalue = [0, 0, 0, 33]\nclass = sad", fillcolor="#d739e5"] ;
318 -> 319 ;
320 [label="gini = 0.0\nsamples = 1\nvalue = [1, 0, 0, 0]\nclass = anger", fillcolor="#e58139"] ;
318 -> 320 ;
321 [label="lm_373_y <= 0.435\ngini = 0.627\nsamples = 53\nvalue = [24, 0, 15, 36]\nclass = sad", fillcolor="#f6d0f9"] ;
303 -> 321 ;
322 [label="lm_10_y <= 0.339\ngini = 0.254\nsamples = 12\nvalue = [2, 0, 1, 18]\nclass = sad", fillcolor="#dd58e9"] ;
321 -> 322 ;
323 [label="lm_306_y <= 0.599\ngini = 0.1\nsamples = 11\nvalue = [0, 0, 1, 18]\nclass = sad", fillcolor="#d944e6"] ;
322 -> 323 ;
324 [label="gini = 0.0\nsamples = 10\nvalue = [0, 0, 0, 18]\nclass = sad", fillcolor="#d739e5"] ;
323 -> 324 ;
325 [label="gini = 0.0\nsamples = 1\nvalue = [0, 0, 1, 0]\nclass = neutral", fillcolor="#399de5"] ;
323 -> 325 ;
326 [label="gini = 0.0\nsamples = 1\nvalue = [2, 0, 0, 0]\nclass = anger", fillcolor="#e58139"] ;
322 -> 326 ;
327 [label="lm_234_x <= 0.435\ngini = 0.656\nsamples = 41\nvalue = [22, 0, 14, 18]\nclass = anger", fillcolor="#fcf1e9"] ;
321 -> 327 ;
328 [label="lm_33_y <= 0.847\ngini = 0.498\nsamples = 22\nvalue = [20, 0, 6, 4]\nclass = anger", fillcolor="#f0b68c"] ;
327 -> 328 ;
329 [label="lm_95_y <= 0.613\ngini = 0.379\nsamples = 20\nvalue = [20, 0, 2, 4]\nclass = anger", fillcolor="#eca36f"] ;
328 -> 329 ;
330 [label="lm_211_y <= 0.758\ngini = 0.172\nsamples = 15\nvalue = [19, 0, 0, 2]\nclass = anger", fillcolor="#e88e4e"] ;
329 -> 330 ;
331 [label="gini = 0.0\nsamples = 1\nvalue = [0, 0, 0, 1]\nclass = sad", fillcolor="#d739e5"] ;
330 -> 331 ;
332 [label="lm_23_y <= 0.451\ngini = 0.095\nsamples = 14\nvalue = [19, 0, 0, 1]\nclass = anger", fillcolor="#e68843"] ;
330 -> 332 ;
333 [label="gini = 0.0\nsamples = 13\nvalue = [19, 0, 0, 0]\nclass = anger", fillcolor="#e58139"] ;
332 -> 333 ;
334 [label="gini = 0.0\nsamples = 1\nvalue = [0, 0, 0, 1]\nclass = sad", fillcolor="#d739e5"] ;
332 -> 334 ;
335 [label="lm_175_y <= 0.481\ngini = 0.64\nsamples = 5\nvalue = [1, 0, 2, 2]\nclass = neutral", fillcolor="#ffffff"] ;
329 -> 335 ;
336 [label="gini = 0.0\nsamples = 2\nvalue = [0, 0, 0, 2]\nclass = sad", fillcolor="#d739e5"] ;
335 -> 336 ;
337 [label="lm_308_z <= -0.019\ngini = 0.444\nsamples = 3\nvalue = [1, 0, 2, 0]\nclass = neutral", fillcolor="#9ccef2"] ;
335 -> 337 ;
338 [label="gini = 0.0\nsamples = 2\nvalue = [0, 0, 2, 0]\nclass = neutral", fillcolor="#399de5"] ;
337 -> 338 ;
339 [label="gini = 0.0\nsamples = 1\nvalue = [1, 0, 0, 0]\nclass = anger", fillcolor="#e58139"] ;
337 -> 339 ;
340 [label="gini = 0.0\nsamples = 2\nvalue = [0, 0, 4, 0]\nclass = neutral", fillcolor="#399de5"] ;
328 -> 340 ;
341 [label="lm_27_z <= 0.016\ngini = 0.542\nsamples = 19\nvalue = [2, 0, 8, 14]\nclass = sad", fillcolor="#f0b5f5"] ;
327 -> 341 ;
342 [label="lm_346_x <= 0.745\ngini = 0.41\nsamples = 15\nvalue = [1, 0, 4, 14]\nclass = sad", fillcolor="#e47bee"] ;
341 -> 342 ;
343 [label="lm_366_z <= 0.142\ngini = 0.444\nsamples = 3\nvalue = [1, 0, 2, 0]\nclass = neutral", fillcolor="#9ccef2"] ;
342 -> 343 ;
344 [label="gini = 0.0\nsamples = 1\nvalue = [1, 0, 0, 0]\nclass = anger", fillcolor="#e58139"] ;
343 -> 344 ;
345 [label="gini = 0.0\nsamples = 2\nvalue = [0, 0, 2, 0]\nclass = neutral", fillcolor="#399de5"] ;
343 -> 345 ;
346 [label="lm_108_z <= -0.062\ngini = 0.219\nsamples = 12\nvalue = [0, 0, 2, 14]\nclass = sad", fillcolor="#dd55e9"] ;
342 -> 346 ;
347 [label="gini = 0.0\nsamples = 1\nvalue = [0, 0, 1, 0]\nclass = neutral", fillcolor="#399de5"] ;
346 -> 347 ;
348 [label="lm_323_z <= -0.015\ngini = 0.124\nsamples = 11\nvalue = [0, 0, 1, 14]\nclass = sad", fillcolor="#da47e7"] ;
346 -> 348 ;
349 [label="gini = 0.0\nsamples = 10\nvalue = [0, 0, 0, 14]\nclass = sad", fillcolor="#d739e5"] ;
348 -> 349 ;
350 [label="gini = 0.0\nsamples = 1\nvalue = [0, 0, 1, 0]\nclass = neutral", fillcolor="#399de5"] ;
348 -> 350 ;
351 [label="lm_51_z <= 0.023\ngini = 0.32\nsamples = 4\nvalue = [1, 0, 4, 0]\nclass = neutral", fillcolor="#6ab6ec"] ;
341 -> 351 ;
352 [label="gini = 0.0\nsamples = 3\nvalue = [0, 0, 4, 0]\nclass = neutral", fillcolor="#399de5"] ;
351 -> 352 ;
353 [label="gini = 0.0\nsamples = 1\nvalue = [1, 0, 0, 0]\nclass = anger", fillcolor="#e58139"] ;
351 -> 353 ;
354 [label="lm_169_y <= 0.409\ngini = 0.656\nsamples = 129\nvalue = [89, 4, 65, 45]\nclass = anger", fillcolor="#fae9dd"] ;
258 -> 354 ;
355 [label="lm_49_y <= 0.565\ngini = 0.597\nsamples = 55\nvalue = [29, 4, 44, 7]\nclass = neutral", fillcolor="#c9e4f8"] ;
354 -> 355 ;
356 [label="lm_351_y <= 0.475\ngini = 0.636\nsamples = 33\nvalue = [23, 3, 14, 6]\nclass = anger", fillcolor="#f8dcc7"] ;
355 -> 356 ;
357 [label="lm_243_z <= -0.093\ngini = 0.391\nsamples = 20\nvalue = [20, 2, 2, 2]\nclass = anger", fillcolor="#eca06b"] ;
356 -> 357 ;
358 [label="lm_9_y <= 0.365\ngini = 0.234\nsamples = 17\nvalue = [20, 2, 0, 1]\nclass = anger", fillcolor="#e99355"] ;
357 -> 358 ;
359 [label="lm_35_y <= 0.519\ngini = 0.444\nsamples = 3\nvalue = [0, 2, 0, 1]\nclass = happy", fillcolor="#a3f29c"] ;
358 -> 359 ;
360 [label="gini = 0.0\nsamples = 2\nvalue = [0, 2, 0, 0]\nclass = happy", fillcolor="#47e539"] ;
359 -> 360 ;
361 [label="gini = 0.0\nsamples = 1\nvalue = [0, 0, 0, 1]\nclass = sad", fillcolor="#d739e5"] ;
359 -> 361 ;
362 [label="gini = 0.0\nsamples = 14\nvalue = [20, 0, 0, 0]\nclass = anger", fillcolor="#e58139"] ;
358 -> 362 ;
363 [label="lm_328_x <= 0.571\ngini = 0.444\nsamples = 3\nvalue = [0, 0, 2, 1]\nclass = neutral", fillcolor="#9ccef2"] ;
357 -> 363 ;
364 [label="gini = 0.0\nsamples = 2\nvalue = [0, 0, 2, 0]\nclass = neutral", fillcolor="#399de5"] ;
363 -> 364 ;
365 [label="gini = 0.0\nsamples = 1\nvalue = [0, 0, 0, 1]\nclass = sad", fillcolor="#d739e5"] ;
363 -> 365 ;
366 [label="lm_238_z <= -0.129\ngini = 0.575\nsamples = 13\nvalue = [3, 1, 12, 4]\nclass = neutral", fillcolor="#9ccef2"] ;
356 -> 366 ;
367 [label="lm_123_x <= 0.485\ngini = 0.142\nsamples = 8\nvalue = [0, 1, 12, 0]\nclass = neutral", fillcolor="#49a5e7"] ;
366 -> 367 ;
368 [label="gini = 0.0\nsamples = 7\nvalue = [0, 0, 12, 0]\nclass = neutral", fillcolor="#399de5"] ;
367 -> 368 ;
369 [label="gini = 0.0\nsamples = 1\nvalue = [0, 1, 0, 0]\nclass = happy", fillcolor="#47e539"] ;
367 -> 369 ;
370 [label="lm_94_z <= 0.274\ngini = 0.49\nsamples = 5\nvalue = [3, 0, 0, 4]\nclass = sad", fillcolor="#f5cef8"] ;
366 -> 370 ;
371 [label="gini = 0.0\nsamples = 2\nvalue = [3, 0, 0, 0]\nclass = anger", fillcolor="#e58139"] ;
370 -> 371 ;
372 [label="gini = 0.0\nsamples = 3\nvalue = [0, 0, 0, 4]\nclass = sad", fillcolor="#d739e5"] ;
370 -> 372 ;
373 [label="lm_135_z <= -0.104\ngini = 0.35\nsamples = 22\nvalue = [6, 1, 30, 1]\nclass = neutral", fillcolor="#6ab6ec"] ;
355 -> 373 ;
374 [label="lm_67_x <= 0.376\ngini = 0.263\nsamples = 19\nvalue = [3, 1, 29, 1]\nclass = neutral", fillcolor="#59ade9"] ;
373 -> 374 ;
375 [label="lm_118_x <= 0.256\ngini = 0.174\nsamples = 17\nvalue = [2, 1, 29, 0]\nclass = neutral", fillcolor="#4da7e8"] ;
374 -> 375 ;
376 [label="gini = 0.0\nsamples = 1\nvalue = [2, 0, 0, 0]\nclass = anger", fillcolor="#e58139"] ;
375 -> 376 ;
377 [label="lm_26_y <= 0.439\ngini = 0.064\nsamples = 16\nvalue = [0, 1, 29, 0]\nclass = neutral", fillcolor="#40a0e6"] ;
375 -> 377 ;
378 [label="gini = 0.0\nsamples = 1\nvalue = [0, 1, 0, 0]\nclass = happy", fillcolor="#47e539"] ;
377 -> 378 ;
379 [label="gini = 0.0\nsamples = 15\nvalue = [0, 0, 29, 0]\nclass = neutral", fillcolor="#399de5"] ;
377 -> 379 ;
380 [label="lm_329_y <= 0.606\ngini = 0.5\nsamples = 2\nvalue = [1, 0, 0, 1]\nclass = anger", fillcolor="#ffffff"] ;
374 -> 380 ;
381 [label="gini = 0.0\nsamples = 1\nvalue = [0, 0, 0, 1]\nclass = sad", fillcolor="#d739e5"] ;
380 -> 381 ;
382 [label="gini = 0.0\nsamples = 1\nvalue = [1, 0, 0, 0]\nclass = anger", fillcolor="#e58139"] ;
380 -> 382 ;
383 [label="lm_321_x <= 0.582\ngini = 0.375\nsamples = 3\nvalue = [3, 0, 1, 0]\nclass = anger", fillcolor="#eeab7b"] ;
373 -> 383 ;
384 [label="gini = 0.0\nsamples = 1\nvalue = [0, 0, 1, 0]\nclass = neutral", fillcolor="#399de5"] ;
383 -> 384 ;
385 [label="gini = 0.0\nsamples = 2\nvalue = [3, 0, 0, 0]\nclass = anger", fillcolor="#e58139"] ;
383 -> 385 ;
386 [label="lm_475_x <= 0.67\ngini = 0.613\nsamples = 74\nvalue = [60, 0, 21, 38]\nclass = anger", fillcolor="#f8ddc9"] ;
354 -> 386 ;
387 [label="lm_319_z <= -0.027\ngini = 0.656\nsamples = 52\nvalue = [28.0, 0.0, 21.0, 33.0]\nclass = sad", fillcolor="#fbedfd"] ;
386 -> 387 ;
388 [label="lm_6_y <= 0.503\ngini = 0.62\nsamples = 40\nvalue = [14, 0, 17, 32]\nclass = sad", fillcolor="#f2bef7"] ;
387 -> 388 ;
389 [label="lm_476_z <= 0.03\ngini = 0.111\nsamples = 9\nvalue = [1, 0, 0, 16]\nclass = sad", fillcolor="#da45e7"] ;
388 -> 389 ;
390 [label="gini = 0.0\nsamples = 1\nvalue = [1, 0, 0, 0]\nclass = anger", fillcolor="#e58139"] ;
389 -> 390 ;
391 [label="gini = 0.0\nsamples = 8\nvalue = [0, 0, 0, 16]\nclass = sad", fillcolor="#d739e5"] ;
389 -> 391 ;
392 [label="lm_163_z <= 0.252\ngini = 0.663\nsamples = 31\nvalue = [13.0, 0.0, 17.0, 16.0]\nclass = neutral", fillcolor="#f8fcfe"] ;
388 -> 392 ;
393 [label="lm_476_x <= 0.626\ngini = 0.595\nsamples = 20\nvalue = [6, 0, 7, 16]\nclass = sad", fillcolor="#efaef4"] ;
392 -> 393 ;
394 [label="lm_111_y <= 0.485\ngini = 0.245\nsamples = 9\nvalue = [0, 0, 2, 12]\nclass = sad", fillcolor="#de5ae9"] ;
393 -> 394 ;
395 [label="gini = 0.0\nsamples = 8\nvalue = [0, 0, 0, 12]\nclass = sad", fillcolor="#d739e5"] ;
394 -> 395 ;
396 [label="gini = 0.0\nsamples = 1\nvalue = [0, 0, 2, 0]\nclass = neutral", fillcolor="#399de5"] ;
394 -> 396 ;
397 [label="lm_433_x <= 0.633\ngini = 0.658\nsamples = 11\nvalue = [6, 0, 5, 4]\nclass = anger", fillcolor="#fcf2eb"] ;
393 -> 397 ;
398 [label="gini = 0.0\nsamples = 2\nvalue = [0, 0, 0, 3]\nclass = sad", fillcolor="#d739e5"] ;
397 -> 398 ;
399 [label="lm_141_y <= 0.864\ngini = 0.569\nsamples = 9\nvalue = [6, 0, 5, 1]\nclass = anger", fillcolor="#fbede3"] ;
397 -> 399 ;
400 [label="lm_311_x <= 0.567\ngini = 0.449\nsamples = 6\nvalue = [1, 0, 5, 1]\nclass = neutral", fillcolor="#7bbeee"] ;
399 -> 400 ;
401 [label="gini = 0.0\nsamples = 4\nvalue = [0, 0, 5, 0]\nclass = neutral", fillcolor="#399de5"] ;
400 -> 401 ;
402 [label="lm_192_z <= -0.033\ngini = 0.5\nsamples = 2\nvalue = [1, 0, 0, 1]\nclass = anger", fillcolor="#ffffff"] ;
400 -> 402 ;
403 [label="gini = 0.0\nsamples = 1\nvalue = [0, 0, 0, 1]\nclass = sad", fillcolor="#d739e5"] ;
402 -> 403 ;
404 [label="gini = 0.0\nsamples = 1\nvalue = [1, 0, 0, 0]\nclass = anger", fillcolor="#e58139"] ;
402 -> 404 ;
405 [label="gini = 0.0\nsamples = 3\nvalue = [5, 0, 0, 0]\nclass = anger", fillcolor="#e58139"] ;
399 -> 405 ;
406 [label="lm_97_z <= -0.026\ngini = 0.484\nsamples = 11\nvalue = [7, 0, 10, 0]\nclass = neutral", fillcolor="#c4e2f7"] ;
392 -> 406 ;
407 [label="gini = 0.0\nsamples = 5\nvalue = [0, 0, 9, 0]\nclass = neutral", fillcolor="#399de5"] ;
406 -> 407 ;
408 [label="lm_318_z <= -0.054\ngini = 0.219\nsamples = 6\nvalue = [7, 0, 1, 0]\nclass = anger", fillcolor="#e99355"] ;
406 -> 408 ;
409 [label="gini = 0.0\nsamples = 5\nvalue = [7, 0, 0, 0]\nclass = anger", fillcolor="#e58139"] ;
408 -> 409 ;
410 [label="gini = 0.0\nsamples = 1\nvalue = [0, 0, 1, 0]\nclass = neutral", fillcolor="#399de5"] ;
408 -> 410 ;
411 [label="lm_231_z <= -0.002\ngini = 0.41\nsamples = 12\nvalue = [14, 0, 4, 1]\nclass = anger", fillcolor="#eeab7b"] ;
387 -> 411 ;
412 [label="lm_309_y <= 0.715\ngini = 0.5\nsamples = 5\nvalue = [1, 0, 4, 1]\nclass = neutral", fillcolor="#88c4ef"] ;
411 -> 412 ;
413 [label="gini = 0.0\nsamples = 3\nvalue = [0, 0, 4, 0]\nclass = neutral", fillcolor="#399de5"] ;
412 -> 413 ;
414 [label="lm_416_z <= 0.005\ngini = 0.5\nsamples = 2\nvalue = [1, 0, 0, 1]\nclass = anger", fillcolor="#ffffff"] ;
412 -> 414 ;
415 [label="gini = 0.0\nsamples = 1\nvalue = [1, 0, 0, 0]\nclass = anger", fillcolor="#e58139"] ;
414 -> 415 ;
416 [label="gini = 0.0\nsamples = 1\nvalue = [0, 0, 0, 1]\nclass = sad", fillcolor="#d739e5"] ;
414 -> 416 ;
417 [label="gini = 0.0\nsamples = 7\nvalue = [13, 0, 0, 0]\nclass = anger", fillcolor="#e58139"] ;
411 -> 417 ;
418 [label="lm_245_z <= 0.03\ngini = 0.234\nsamples = 22\nvalue = [32, 0, 0, 5]\nclass = anger", fillcolor="#e99558"] ;
386 -> 418 ;
419 [label="lm_444_x <= 0.665\ngini = 0.064\nsamples = 17\nvalue = [29, 0, 0, 1]\nclass = anger", fillcolor="#e68540"] ;
418 -> 419 ;
420 [label="gini = 0.0\nsamples = 1\nvalue = [0, 0, 0, 1]\nclass = sad", fillcolor="#d739e5"] ;
419 -> 420 ;
421 [label="gini = 0.0\nsamples = 16\nvalue = [29, 0, 0, 0]\nclass = anger", fillcolor="#e58139"] ;
419 -> 421 ;
422 [label="lm_30_x <= 0.334\ngini = 0.49\nsamples = 5\nvalue = [3, 0, 0, 4]\nclass = sad", fillcolor="#f5cef8"] ;
418 -> 422 ;
423 [label="gini = 0.0\nsamples = 3\nvalue = [0, 0, 0, 4]\nclass = sad", fillcolor="#d739e5"] ;
422 -> 423 ;
424 [label="gini = 0.0\nsamples = 2\nvalue = [3, 0, 0, 0]\nclass = anger", fillcolor="#e58139"] ;
422 -> 424 ;
425 [label="lm_74_z <= -0.072\ngini = 0.546\nsamples = 70\nvalue = [21, 1, 22, 72]\nclass = sad", fillcolor="#ea96f1"] ;
257 -> 425 ;
426 [label="lm_393_x <= 0.555\ngini = 0.616\nsamples = 24\nvalue = [7, 0, 16, 8]\nclass = neutral", fillcolor="#baddf6"] ;
425 -> 426 ;
427 [label="lm_464_x <= 0.595\ngini = 0.381\nsamples = 16\nvalue = [4, 0, 16, 1]\nclass = neutral", fillcolor="#73baed"] ;
426 -> 427 ;
428 [label="lm_134_x <= 0.447\ngini = 0.215\nsamples = 12\nvalue = [1, 0, 15, 1]\nclass = neutral", fillcolor="#52a9e8"] ;
427 -> 428 ;
429 [label="lm_477_z <= 0.051\ngini = 0.117\nsamples = 11\nvalue = [0, 0, 15, 1]\nclass = neutral", fillcolor="#46a4e7"] ;
428 -> 429 ;
430 [label="gini = 0.0\nsamples = 8\nvalue = [0, 0, 12, 0]\nclass = neutral", fillcolor="#399de5"] ;
429 -> 430 ;
431 [label="lm_37_x <= 0.342\ngini = 0.375\nsamples = 3\nvalue = [0, 0, 3, 1]\nclass = neutral", fillcolor="#7bbeee"] ;
429 -> 431 ;
432 [label="gini = 0.0\nsamples = 2\nvalue = [0, 0, 3, 0]\nclass = neutral", fillcolor="#399de5"] ;
431 -> 432 ;
433 [label="gini = 0.0\nsamples = 1\nvalue = [0, 0, 0, 1]\nclass = sad", fillcolor="#d739e5"] ;
431 -> 433 ;
434 [label="gini = 0.0\nsamples = 1\nvalue = [1, 0, 0, 0]\nclass = anger", fillcolor="#e58139"] ;
428 -> 434 ;
435 [label="lm_271_z <= -0.089\ngini = 0.375\nsamples = 4\nvalue = [3, 0, 1, 0]\nclass = anger", fillcolor="#eeab7b"] ;
427 -> 435 ;
436 [label="gini = 0.0\nsamples = 1\nvalue = [0, 0, 1, 0]\nclass = neutral", fillcolor="#399de5"] ;
435 -> 436 ;
437 [label="gini = 0.0\nsamples = 3\nvalue = [3, 0, 0, 0]\nclass = anger", fillcolor="#e58139"] ;
435 -> 437 ;
438 [label="lm_10_y <= 0.36\ngini = 0.42\nsamples = 8\nvalue = [3, 0, 0, 7]\nclass = sad", fillcolor="#e88ef0"] ;
426 -> 438 ;
439 [label="gini = 0.0\nsamples = 5\nvalue = [0, 0, 0, 7]\nclass = sad", fillcolor="#d739e5"] ;
438 -> 439 ;
440 [label="gini = 0.0\nsamples = 3\nvalue = [3, 0, 0, 0]\nclass = anger", fillcolor="#e58139"] ;
438 -> 440 ;
441 [label="lm_380_z <= 0.142\ngini = 0.401\nsamples = 46\nvalue = [14, 1, 6, 64]\nclass = sad", fillcolor="#e374ed"] ;
425 -> 441 ;
442 [label="lm_415_z <= 0.023\ngini = 0.342\nsamples = 44\nvalue = [9, 1, 6, 64]\nclass = sad", fillcolor="#e066eb"] ;
441 -> 442 ;
443 [label="lm_299_x <= 0.742\ngini = 0.078\nsamples = 22\nvalue = [0.0, 0.0, 2.0, 47.0]\nclass = sad", fillcolor="#d941e6"] ;
442 -> 443 ;
444 [label="gini = 0.0\nsamples = 1\nvalue = [0, 0, 1, 0]\nclass = neutral", fillcolor="#399de5"] ;
443 -> 444 ;
445 [label="lm_172_z <= 0.005\ngini = 0.041\nsamples = 21\nvalue = [0, 0, 1, 47]\nclass = sad", fillcolor="#d83de6"] ;
443 -> 445 ;
446 [label="gini = 0.0\nsamples = 20\nvalue = [0, 0, 0, 47]\nclass = sad", fillcolor="#d739e5"] ;
445 -> 446 ;
447 [label="gini = 0.0\nsamples = 1\nvalue = [0, 0, 1, 0]\nclass = neutral", fillcolor="#399de5"] ;
445 -> 447 ;
448 [label="lm_252_z <= 0.183\ngini = 0.597\nsamples = 22\nvalue = [9, 1, 4, 17]\nclass = sad", fillcolor="#f0b7f6"] ;
442 -> 448 ;
449 [label="lm_237_z <= -0.084\ngini = 0.568\nsamples = 9\nvalue = [8, 1, 2, 2]\nclass = anger", fillcolor="#f1ba93"] ;
448 -> 449 ;
450 [label="lm_297_y <= 0.367\ngini = 0.625\nsamples = 3\nvalue = [0, 1, 2, 1]\nclass = neutral", fillcolor="#bddef6"] ;
449 -> 450 ;
451 [label="lm_30_y <= 0.346\ngini = 0.5\nsamples = 2\nvalue = [0, 1, 0, 1]\nclass = happy", fillcolor="#ffffff"] ;
450 -> 451 ;
452 [label="gini = 0.0\nsamples = 1\nvalue = [0, 0, 0, 1]\nclass = sad", fillcolor="#d739e5"] ;
451 -> 452 ;
453 [label="gini = 0.0\nsamples = 1\nvalue = [0, 1, 0, 0]\nclass = happy", fillcolor="#47e539"] ;
451 -> 453 ;
454 [label="gini = 0.0\nsamples = 1\nvalue = [0, 0, 2, 0]\nclass = neutral", fillcolor="#399de5"] ;
450 -> 454 ;
455 [label="lm_216_x <= 0.24\ngini = 0.198\nsamples = 6\nvalue = [8, 0, 0, 1]\nclass = anger", fillcolor="#e89152"] ;
449 -> 455 ;
456 [label="gini = 0.0\nsamples = 5\nvalue = [8, 0, 0, 0]\nclass = anger", fillcolor="#e58139"] ;
455 -> 456 ;
457 [label="gini = 0.0\nsamples = 1\nvalue = [0, 0, 0, 1]\nclass = sad", fillcolor="#d739e5"] ;
455 -> 457 ;
458 [label="lm_316_y <= 0.784\ngini = 0.29\nsamples = 13\nvalue = [1, 0, 2, 15]\nclass = sad", fillcolor="#de5eea"] ;
448 -> 458 ;
459 [label="lm_265_y <= 0.509\ngini = 0.117\nsamples = 12\nvalue = [1, 0, 0, 15]\nclass = sad", fillcolor="#da46e7"] ;
458 -> 459 ;
460 [label="lm_119_y <= 0.488\ngini = 0.5\nsamples = 2\nvalue = [1, 0, 0, 1]\nclass = anger", fillcolor="#ffffff"] ;
459 -> 460 ;
461 [label="gini = 0.0\nsamples = 1\nvalue = [1, 0, 0, 0]\nclass = anger", fillcolor="#e58139"] ;
460 -> 461 ;
462 [label="gini = 0.0\nsamples = 1\nvalue = [0, 0, 0, 1]\nclass = sad", fillcolor="#d739e5"] ;
460 -> 462 ;
463 [label="gini = 0.0\nsamples = 10\nvalue = [0, 0, 0, 14]\nclass = sad", fillcolor="#d739e5"] ;
459 -> 463 ;
464 [label="gini = 0.0\nsamples = 1\nvalue = [0, 0, 2, 0]\nclass = neutral", fillcolor="#399de5"] ;
458 -> 464 ;
465 [label="gini = 0.0\nsamples = 2\nvalue = [5, 0, 0, 0]\nclass = anger", fillcolor="#e58139"] ;
441 -> 465 ;
466 [label="lm_399_z <= 0.092\ngini = 0.105\nsamples = 22\nvalue = [2, 0, 0, 34]\nclass = sad", fillcolor="#d945e7"] ;
256 -> 466 ;
467 [label="gini = 0.0\nsamples = 20\nvalue = [0, 0, 0, 34]\nclass = sad", fillcolor="#d739e5"] ;
466 -> 467 ;
468 [label="gini = 0.0\nsamples = 2\nvalue = [2, 0, 0, 0]\nclass = anger", fillcolor="#e58139"] ;
466 -> 468 ;
469 [label="lm_391_z <= 0.039\ngini = 0.366\nsamples = 241\nvalue = [31.0, 0.0, 53.0, 297.0]\nclass = sad", fillcolor="#e16cec"] ;
5 -> 469 ;
470 [label="lm_376_y <= 0.78\ngini = 0.494\nsamples = 144\nvalue = [28, 0, 44, 146]\nclass = sad", fillcolor="#e88bf0"] ;
469 -> 470 ;
471 [label="lm_464_x <= 0.553\ngini = 0.466\nsamples = 139\nvalue = [28, 0, 35, 146]\nclass = sad", fillcolor="#e581ee"] ;
470 -> 471 ;
472 [label="lm_225_x <= 0.281\ngini = 0.656\nsamples = 34\nvalue = [16, 0, 15, 22]\nclass = sad", fillcolor="#f9dffb"] ;
471 -> 472 ;
473 [label="lm_134_y <= 0.425\ngini = 0.359\nsamples = 16\nvalue = [1, 0, 5, 21]\nclass = sad", fillcolor="#e26fec"] ;
472 -> 473 ;
474 [label="gini = 0.0\nsamples = 1\nvalue = [0, 0, 3, 0]\nclass = neutral", fillcolor="#399de5"] ;
473 -> 474 ;
475 [label="lm_325_x <= 0.54\ngini = 0.226\nsamples = 15\nvalue = [1, 0, 2, 21]\nclass = sad", fillcolor="#dc54e9"] ;
473 -> 475 ;
476 [label="gini = 0.0\nsamples = 1\nvalue = [0, 0, 2, 0]\nclass = neutral", fillcolor="#399de5"] ;
475 -> 476 ;
477 [label="lm_270_x <= 0.604\ngini = 0.087\nsamples = 14\nvalue = [1, 0, 0, 21]\nclass = sad", fillcolor="#d942e6"] ;
475 -> 477 ;
478 [label="gini = 0.0\nsamples = 13\nvalue = [0, 0, 0, 21]\nclass = sad", fillcolor="#d739e5"] ;
477 -> 478 ;
479 [label="gini = 0.0\nsamples = 1\nvalue = [1, 0, 0, 0]\nclass = anger", fillcolor="#e58139"] ;
477 -> 479 ;
480 [label="lm_286_z <= -0.04\ngini = 0.518\nsamples = 18\nvalue = [15.0, 0.0, 10.0, 1.0]\nclass = anger", fillcolor="#f7d8c1"] ;
472 -> 480 ;
481 [label="gini = 0.0\nsamples = 6\nvalue = [12, 0, 0, 0]\nclass = anger", fillcolor="#e58139"] ;
480 -> 481 ;
482 [label="lm_31_x <= 0.292\ngini = 0.439\nsamples = 12\nvalue = [3, 0, 10, 1]\nclass = neutral", fillcolor="#81c1ee"] ;
480 -> 482 ;
483 [label="lm_353_z <= 0.056\ngini = 0.56\nsamples = 5\nvalue = [3, 0, 1, 1]\nclass = anger", fillcolor="#f2c09c"] ;
482 -> 483 ;
484 [label="gini = 0.0\nsamples = 3\nvalue = [3, 0, 0, 0]\nclass = anger", fillcolor="#e58139"] ;
483 -> 484 ;
485 [label="lm_444_z <= -0.001\ngini = 0.5\nsamples = 2\nvalue = [0, 0, 1, 1]\nclass = neutral", fillcolor="#ffffff"] ;
483 -> 485 ;
486 [label="gini = 0.0\nsamples = 1\nvalue = [0, 0, 1, 0]\nclass = neutral", fillcolor="#399de5"] ;
485 -> 486 ;
487 [label="gini = 0.0\nsamples = 1\nvalue = [0, 0, 0, 1]\nclass = sad", fillcolor="#d739e5"] ;
485 -> 487 ;
488 [label="gini = 0.0\nsamples = 7\nvalue = [0, 0, 9, 0]\nclass = neutral", fillcolor="#399de5"] ;
482 -> 488 ;
489 [label="lm_445_z <= 0.017\ngini = 0.346\nsamples = 105\nvalue = [12.0, 0.0, 20.0, 124.0]\nclass = sad", fillcolor="#e068eb"] ;
471 -> 489 ;
490 [label="lm_288_z <= 0.017\ngini = 0.301\nsamples = 102\nvalue = [10, 0, 16, 124]\nclass = sad", fillcolor="#df5fea"] ;
489 -> 490 ;
491 [label="lm_165_y <= 0.642\ngini = 0.255\nsamples = 101\nvalue = [5, 0, 16, 124]\nclass = sad", fillcolor="#de59e9"] ;
490 -> 491 ;
492 [label="lm_471_x <= 0.355\ngini = 0.517\nsamples = 14\nvalue = [1, 0, 8, 13]\nclass = sad", fillcolor="#f1b8f6"] ;
491 -> 492 ;
493 [label="lm_474_x <= 0.643\ngini = 0.486\nsamples = 9\nvalue = [1, 0, 8, 3]\nclass = neutral", fillcolor="#91c9f1"] ;
492 -> 493 ;
494 [label="gini = 0.0\nsamples = 5\nvalue = [0, 0, 8, 0]\nclass = neutral", fillcolor="#399de5"] ;
493 -> 494 ;
495 [label="lm_384_y <= 0.34\ngini = 0.375\nsamples = 4\nvalue = [1, 0, 0, 3]\nclass = sad", fillcolor="#e47bee"] ;
493 -> 495 ;
496 [label="gini = 0.0\nsamples = 3\nvalue = [0, 0, 0, 3]\nclass = sad", fillcolor="#d739e5"] ;
495 -> 496 ;
497 [label="gini = 0.0\nsamples = 1\nvalue = [1, 0, 0, 0]\nclass = anger", fillcolor="#e58139"] ;
495 -> 497 ;
498 [label="gini = 0.0\nsamples = 5\nvalue = [0, 0, 0, 10]\nclass = sad", fillcolor="#d739e5"] ;
492 -> 498 ;
499 [label="lm_281_z <= 0.026\ngini = 0.18\nsamples = 87\nvalue = [4, 0, 8, 111]\nclass = sad", fillcolor="#db4ee8"] ;
491 -> 499 ;
500 [label="lm_5_x <= 0.455\ngini = 0.155\nsamples = 85\nvalue = [4, 0, 6, 111]\nclass = sad", fillcolor="#da4ae7"] ;
499 -> 500 ;
501 [label="lm_36_y <= 0.391\ngini = 0.48\nsamples = 3\nvalue = [3, 0, 0, 2]\nclass = anger", fillcolor="#f6d5bd"] ;
500 -> 501 ;
502 [label="gini = 0.0\nsamples = 1\nvalue = [0, 0, 0, 2]\nclass = sad", fillcolor="#d739e5"] ;
501 -> 502 ;
503 [label="gini = 0.0\nsamples = 2\nvalue = [3, 0, 0, 0]\nclass = anger", fillcolor="#e58139"] ;
501 -> 503 ;
504 [label="lm_384_y <= 0.402\ngini = 0.114\nsamples = 82\nvalue = [1, 0, 6, 109]\nclass = sad", fillcolor="#da46e7"] ;
500 -> 504 ;
505 [label="lm_369_y <= 0.384\ngini = 0.234\nsamples = 41\nvalue = [1, 0, 6, 46]\nclass = sad", fillcolor="#dd56e9"] ;
504 -> 505 ;
506 [label="lm_446_y <= 0.386\ngini = 0.09\nsamples = 33\nvalue = [1, 0, 1, 41]\nclass = sad", fillcolor="#d942e6"] ;
505 -> 506 ;
507 [label="lm_358_x <= 0.548\ngini = 0.046\nsamples = 32\nvalue = [0, 0, 1, 41]\nclass = sad", fillcolor="#d83ee6"] ;
506 -> 507 ;
508 [label="lm_88_x <= 0.494\ngini = 0.444\nsamples = 3\nvalue = [0, 0, 1, 2]\nclass = sad", fillcolor="#eb9cf2"] ;
507 -> 508 ;
509 [label="gini = 0.0\nsamples = 2\nvalue = [0, 0, 0, 2]\nclass = sad", fillcolor="#d739e5"] ;
508 -> 509 ;
510 [label="gini = 0.0\nsamples = 1\nvalue = [0, 0, 1, 0]\nclass = neutral", fillcolor="#399de5"] ;
508 -> 510 ;
511 [label="gini = 0.0\nsamples = 29\nvalue = [0, 0, 0, 39]\nclass = sad", fillcolor="#d739e5"] ;
507 -> 511 ;
512 [label="gini = 0.0\nsamples = 1\nvalue = [1, 0, 0, 0]\nclass = anger", fillcolor="#e58139"] ;
506 -> 512 ;
513 [label="lm_442_z <= -0.006\ngini = 0.5\nsamples = 8\nvalue = [0, 0, 5, 5]\nclass = neutral", fillcolor="#ffffff"] ;
505 -> 513 ;
514 [label="gini = 0.0\nsamples = 3\nvalue = [0, 0, 4, 0]\nclass = neutral", fillcolor="#399de5"] ;
513 -> 514 ;
515 [label="lm_17_y <= 0.757\ngini = 0.278\nsamples = 5\nvalue = [0, 0, 1, 5]\nclass = sad", fillcolor="#df61ea"] ;
513 -> 515 ;
516 [label="gini = 0.0\nsamples = 4\nvalue = [0, 0, 0, 5]\nclass = sad", fillcolor="#d739e5"] ;
515 -> 516 ;
517 [label="gini = 0.0\nsamples = 1\nvalue = [0, 0, 1, 0]\nclass = neutral", fillcolor="#399de5"] ;
515 -> 517 ;
518 [label="gini = 0.0\nsamples = 41\nvalue = [0, 0, 0, 63]\nclass = sad", fillcolor="#d739e5"] ;
504 -> 518 ;
519 [label="gini = 0.0\nsamples = 2\nvalue = [0, 0, 2, 0]\nclass = neutral", fillcolor="#399de5"] ;
499 -> 519 ;
520 [label="gini = 0.0\nsamples = 1\nvalue = [5, 0, 0, 0]\nclass = anger", fillcolor="#e58139"] ;
490 -> 520 ;
521 [label="lm_67_x <= 0.369\ngini = 0.444\nsamples = 3\nvalue = [2, 0, 4, 0]\nclass = neutral", fillcolor="#9ccef2"] ;
489 -> 521 ;
522 [label="gini = 0.0\nsamples = 1\nvalue = [2, 0, 0, 0]\nclass = anger", fillcolor="#e58139"] ;
521 -> 522 ;
523 [label="gini = 0.0\nsamples = 2\nvalue = [0, 0, 4, 0]\nclass = neutral", fillcolor="#399de5"] ;
521 -> 523 ;
524 [label="gini = 0.0\nsamples = 5\nvalue = [0, 0, 9, 0]\nclass = neutral", fillcolor="#399de5"] ;
470 -> 524 ;
525 [label="lm_169_z <= -0.057\ngini = 0.138\nsamples = 97\nvalue = [3, 0, 9, 151]\nclass = sad", fillcolor="#da48e7"] ;
469 -> 525 ;
526 [label="lm_191_z <= 0.012\ngini = 0.444\nsamples = 3\nvalue = [0, 0, 4, 2]\nclass = neutral", fillcolor="#9ccef2"] ;
525 -> 526 ;
527 [label="gini = 0.0\nsamples = 2\nvalue = [0, 0, 4, 0]\nclass = neutral", fillcolor="#399de5"] ;
526 -> 527 ;
528 [label="gini = 0.0\nsamples = 1\nvalue = [0, 0, 0, 2]\nclass = sad", fillcolor="#d739e5"] ;
526 -> 528 ;
529 [label="lm_397_z <= 0.002\ngini = 0.098\nsamples = 94\nvalue = [3, 0, 5, 149]\nclass = sad", fillcolor="#d943e6"] ;
525 -> 529 ;
530 [label="lm_143_x <= 0.443\ngini = 0.064\nsamples = 90\nvalue = [1, 0, 4, 147]\nclass = sad", fillcolor="#d840e6"] ;
529 -> 530 ;
531 [label="lm_443_x <= 0.665\ngini = 0.052\nsamples = 89\nvalue = [1, 0, 3, 147]\nclass = sad", fillcolor="#d83ee6"] ;
530 -> 531 ;
532 [label="lm_11_y <= 0.246\ngini = 0.039\nsamples = 88\nvalue = [1, 0, 2, 147]\nclass = sad", fillcolor="#d83de6"] ;
531 -> 532 ;
533 [label="lm_314_z <= -0.024\ngini = 0.027\nsamples = 86\nvalue = [1, 0, 1, 146]\nclass = sad", fillcolor="#d83ce5"] ;
532 -> 533 ;
534 [label="lm_90_z <= -0.034\ngini = 0.014\nsamples = 84\nvalue = [0, 0, 1, 144]\nclass = sad", fillcolor="#d73ae5"] ;
533 -> 534 ;
535 [label="gini = 0.0\nsamples = 81\nvalue = [0, 0, 0, 141]\nclass = sad", fillcolor="#d739e5"] ;
534 -> 535 ;
536 [label="lm_179_x <= 0.445\ngini = 0.375\nsamples = 3\nvalue = [0, 0, 1, 3]\nclass = sad", fillcolor="#e47bee"] ;
534 -> 536 ;
537 [label="gini = 0.0\nsamples = 1\nvalue = [0, 0, 1, 0]\nclass = neutral", fillcolor="#399de5"] ;
536 -> 537 ;
538 [label="gini = 0.0\nsamples = 2\nvalue = [0, 0, 0, 3]\nclass = sad", fillcolor="#d739e5"] ;
536 -> 538 ;
539 [label="lm_186_z <= -0.039\ngini = 0.444\nsamples = 2\nvalue = [1, 0, 0, 2]\nclass = sad", fillcolor="#eb9cf2"] ;
533 -> 539 ;
540 [label="gini = 0.0\nsamples = 1\nvalue = [1, 0, 0, 0]\nclass = anger", fillcolor="#e58139"] ;
539 -> 540 ;
541 [label="gini = 0.0\nsamples = 1\nvalue = [0, 0, 0, 2]\nclass = sad", fillcolor="#d739e5"] ;
539 -> 541 ;
542 [label="lm_102_y <= 0.531\ngini = 0.5\nsamples = 2\nvalue = [0, 0, 1, 1]\nclass = neutral", fillcolor="#ffffff"] ;
532 -> 542 ;
543 [label="gini = 0.0\nsamples = 1\nvalue = [0, 0, 0, 1]\nclass = sad", fillcolor="#d739e5"] ;
542 -> 543 ;
544 [label="gini = 0.0\nsamples = 1\nvalue = [0, 0, 1, 0]\nclass = neutral", fillcolor="#399de5"] ;
542 -> 544 ;
545 [label="gini = 0.0\nsamples = 1\nvalue = [0, 0, 1, 0]\nclass = neutral", fillcolor="#399de5"] ;
531 -> 545 ;
546 [label="gini = 0.0\nsamples = 1\nvalue = [0, 0, 1, 0]\nclass = neutral", fillcolor="#399de5"] ;
530 -> 546 ;
547 [label="lm_25_x <= 0.342\ngini = 0.64\nsamples = 4\nvalue = [2, 0, 1, 2]\nclass = anger", fillcolor="#ffffff"] ;
529 -> 547 ;
548 [label="lm_452_y <= 0.465\ngini = 0.444\nsamples = 3\nvalue = [0, 0, 1, 2]\nclass = sad", fillcolor="#eb9cf2"] ;
547 -> 548 ;
549 [label="gini = 0.0\nsamples = 1\nvalue = [0, 0, 1, 0]\nclass = neutral", fillcolor="#399de5"] ;
548 -> 549 ;
550 [label="gini = 0.0\nsamples = 2\nvalue = [0, 0, 0, 2]\nclass = sad", fillcolor="#d739e5"] ;
548 -> 550 ;
551 [label="gini = 0.0\nsamples = 1\nvalue = [2, 0, 0, 0]\nclass = anger", fillcolor="#e58139"] ;
547 -> 551 ;
552 [label="lm_328_y <= 0.621\ngini = 0.658\nsamples = 1483\nvalue = [813, 73, 437, 975]\nclass = sad", fillcolor="#fbe9fc"] ;
4 -> 552 ;
553 [label="lm_39_y <= 0.703\ngini = 0.645\nsamples = 754\nvalue = [502.0, 57.0, 158.0, 451.0]\nclass = anger", fillcolor="#fdf6f1"] ;
552 -> 553 ;
554 [label="lm_154_x <= 0.353\ngini = 0.567\nsamples = 270\nvalue = [251.0, 35.0, 22.0, 119.0]\nclass = anger", fillcolor="#f4c9aa"] ;
553 -> 554 ;
555 [label="lm_446_y <= 0.35\ngini = 0.606\nsamples = 43\nvalue = [12, 9, 7, 38]\nclass = sad", fillcolor="#eca0f2"] ;
554 -> 555 ;
556 [label="lm_66_x <= 0.32\ngini = 0.718\nsamples = 21\nvalue = [11, 9, 6, 4]\nclass = anger", fillcolor="#fdf3ec"] ;
555 -> 556 ;
557 [label="lm_150_y <= 0.935\ngini = 0.586\nsamples = 10\nvalue = [0, 9, 3, 4]\nclass = happy", fillcolor="#b2f4ac"] ;
556 -> 557 ;
558 [label="lm_127_x <= 0.41\ngini = 0.49\nsamples = 7\nvalue = [0, 0, 3, 4]\nclass = sad", fillcolor="#f5cef8"] ;
557 -> 558 ;
559 [label="gini = 0.0\nsamples = 3\nvalue = [0, 0, 3, 0]\nclass = neutral", fillcolor="#399de5"] ;
558 -> 559 ;
560 [label="gini = 0.0\nsamples = 4\nvalue = [0, 0, 0, 4]\nclass = sad", fillcolor="#d739e5"] ;
558 -> 560 ;
561 [label="gini = 0.0\nsamples = 3\nvalue = [0, 9, 0, 0]\nclass = happy", fillcolor="#47e539"] ;
557 -> 561 ;
562 [label="lm_173_x <= 0.223\ngini = 0.337\nsamples = 11\nvalue = [11, 0, 3, 0]\nclass = anger", fillcolor="#eca36f"] ;
556 -> 562 ;
563 [label="gini = 0.0\nsamples = 3\nvalue = [0, 0, 3, 0]\nclass = neutral", fillcolor="#399de5"] ;
562 -> 563 ;
564 [label="gini = 0.0\nsamples = 8\nvalue = [11, 0, 0, 0]\nclass = anger", fillcolor="#e58139"] ;
562 -> 564 ;
565 [label="lm_458_x <= 0.529\ngini = 0.106\nsamples = 22\nvalue = [1, 0, 1, 34]\nclass = sad", fillcolor="#d944e6"] ;
555 -> 565 ;
566 [label="gini = 0.0\nsamples = 1\nvalue = [1, 0, 0, 0]\nclass = anger", fillcolor="#e58139"] ;
565 -> 566 ;
567 [label="lm_195_y <= 0.81\ngini = 0.056\nsamples = 21\nvalue = [0, 0, 1, 34]\nclass = sad", fillcolor="#d83fe6"] ;
565 -> 567 ;
568 [label="gini = 0.0\nsamples = 1\nvalue = [0, 0, 1, 0]\nclass = neutral", fillcolor="#399de5"] ;
567 -> 568 ;
569 [label="gini = 0.0\nsamples = 20\nvalue = [0, 0, 0, 34]\nclass = sad", fillcolor="#d739e5"] ;
567 -> 569 ;
570 [label="lm_95_x <= 0.56\ngini = 0.504\nsamples = 227\nvalue = [239.0, 26.0, 15.0, 81.0]\nclass = anger", fillcolor="#f0b88f"] ;
554 -> 570 ;
571 [label="lm_280_z <= -0.09\ngini = 0.485\nsamples = 220\nvalue = [239.0, 26.0, 15.0, 69.0]\nclass = anger", fillcolor="#efb287"] ;
570 -> 571 ;
572 [label="lm_326_y <= 0.798\ngini = 0.637\nsamples = 19\nvalue = [9, 10, 0, 17]\nclass = sad", fillcolor="#f4caf8"] ;
571 -> 572 ;
573 [label="lm_419_y <= 0.821\ngini = 0.503\nsamples = 15\nvalue = [1, 10, 0, 17]\nclass = sad", fillcolor="#efb2f5"] ;
572 -> 573 ;
574 [label="gini = 0.0\nsamples = 3\nvalue = [0, 8, 0, 0]\nclass = happy", fillcolor="#47e539"] ;
573 -> 574 ;
575 [label="lm_3_z <= -0.102\ngini = 0.265\nsamples = 12\nvalue = [1, 2, 0, 17]\nclass = sad", fillcolor="#de5ae9"] ;
573 -> 575 ;
576 [label="gini = 0.0\nsamples = 10\nvalue = [0, 0, 0, 17]\nclass = sad", fillcolor="#d739e5"] ;
575 -> 576 ;
577 [label="lm_106_x <= 0.29\ngini = 0.444\nsamples = 2\nvalue = [1, 2, 0, 0]\nclass = happy", fillcolor="#a3f29c"] ;
575 -> 577 ;
578 [label="gini = 0.0\nsamples = 1\nvalue = [1, 0, 0, 0]\nclass = anger", fillcolor="#e58139"] ;
577 -> 578 ;
579 [label="gini = 0.0\nsamples = 1\nvalue = [0, 2, 0, 0]\nclass = happy", fillcolor="#47e539"] ;
577 -> 579 ;
580 [label="gini = 0.0\nsamples = 4\nvalue = [8, 0, 0, 0]\nclass = anger", fillcolor="#e58139"] ;
572 -> 580 ;
581 [label="lm_201_y <= 0.842\ngini = 0.428\nsamples = 201\nvalue = [230, 16, 15, 52]\nclass = anger", fillcolor="#eda978"] ;
571 -> 581 ;
582 [label="lm_147_z <= -0.069\ngini = 0.551\nsamples = 80\nvalue = [76, 1, 13, 39]\nclass = anger", fillcolor="#f4cbae"] ;
581 -> 582 ;
583 [label="lm_342_x <= 0.586\ngini = 0.381\nsamples = 14\nvalue = [4, 0, 1, 16]\nclass = sad", fillcolor="#e373ed"] ;
582 -> 583 ;
584 [label="gini = 0.0\nsamples = 8\nvalue = [0, 0, 0, 13]\nclass = sad", fillcolor="#d739e5"] ;
583 -> 584 ;
585 [label="lm_31_x <= 0.276\ngini = 0.594\nsamples = 6\nvalue = [4, 0, 1, 3]\nclass = anger", fillcolor="#fae6d7"] ;
583 -> 585 ;
586 [label="gini = 0.0\nsamples = 3\nvalue = [4, 0, 0, 0]\nclass = anger", fillcolor="#e58139"] ;
585 -> 586 ;
587 [label="lm_333_x <= 0.76\ngini = 0.375\nsamples = 3\nvalue = [0, 0, 1, 3]\nclass = sad", fillcolor="#e47bee"] ;
585 -> 587 ;
588 [label="gini = 0.0\nsamples = 2\nvalue = [0, 0, 0, 3]\nclass = sad", fillcolor="#d739e5"] ;
587 -> 588 ;
589 [label="gini = 0.0\nsamples = 1\nvalue = [0, 0, 1, 0]\nclass = neutral", fillcolor="#399de5"] ;
587 -> 589 ;
590 [label="lm_469_x <= 0.348\ngini = 0.498\nsamples = 66\nvalue = [72, 1, 12, 23]\nclass = anger", fillcolor="#f0b68d"] ;
582 -> 590 ;
591 [label="lm_477_y <= 0.416\ngini = 0.285\nsamples = 38\nvalue = [56, 0, 8, 3]\nclass = anger", fillcolor="#ea985e"] ;
590 -> 591 ;
592 [label="lm_471_x <= 0.319\ngini = 0.038\nsamples = 26\nvalue = [50, 0, 0, 1]\nclass = anger", fillcolor="#e6843d"] ;
591 -> 592 ;
593 [label="gini = 0.0\nsamples = 1\nvalue = [0, 0, 0, 1]\nclass = sad", fillcolor="#d739e5"] ;
592 -> 593 ;
594 [label="gini = 0.0\nsamples = 25\nvalue = [50, 0, 0, 0]\nclass = anger", fillcolor="#e58139"] ;
592 -> 594 ;
595 [label="lm_396_z <= 0.016\ngini = 0.594\nsamples = 12\nvalue = [6, 0, 8, 2]\nclass = neutral", fillcolor="#d7ebfa"] ;
591 -> 595 ;
596 [label="lm_52_z <= -0.122\ngini = 0.56\nsamples = 8\nvalue = [6, 0, 2, 2]\nclass = anger", fillcolor="#f2c09c"] ;
595 -> 596 ;
597 [label="lm_400_y <= 0.476\ngini = 0.375\nsamples = 6\nvalue = [6, 0, 2, 0]\nclass = anger", fillcolor="#eeab7b"] ;
596 -> 597 ;
598 [label="gini = 0.0\nsamples = 1\nvalue = [0, 0, 2, 0]\nclass = neutral", fillcolor="#399de5"] ;
597 -> 598 ;
599 [label="gini = 0.0\nsamples = 5\nvalue = [6, 0, 0, 0]\nclass = anger", fillcolor="#e58139"] ;
597 -> 599 ;
600 [label="gini = 0.0\nsamples = 2\nvalue = [0, 0, 0, 2]\nclass = sad", fillcolor="#d739e5"] ;
596 -> 600 ;
601 [label="gini = 0.0\nsamples = 4\nvalue = [0, 0, 6, 0]\nclass = neutral", fillcolor="#399de5"] ;
595 -> 601 ;
602 [label="lm_235_x <= 0.18\ngini = 0.6\nsamples = 28\nvalue = [16, 1, 4, 20]\nclass = sad", fillcolor="#f9dffb"] ;
590 -> 602 ;
603 [label="lm_115_y <= 0.468\ngini = 0.542\nsamples = 8\nvalue = [7, 1, 4, 0]\nclass = anger", fillcolor="#f5d0b5"] ;
602 -> 603 ;
604 [label="gini = 0.0\nsamples = 2\nvalue = [0, 0, 4, 0]\nclass = neutral", fillcolor="#399de5"] ;
603 -> 604 ;
605 [label="lm_383_y <= 0.449\ngini = 0.219\nsamples = 6\nvalue = [7, 1, 0, 0]\nclass = anger", fillcolor="#e99355"] ;
603 -> 605 ;
606 [label="gini = 0.0\nsamples = 5\nvalue = [7, 0, 0, 0]\nclass = anger", fillcolor="#e58139"] ;
605 -> 606 ;
607 [label="gini = 0.0\nsamples = 1\nvalue = [0, 1, 0, 0]\nclass = happy", fillcolor="#47e539"] ;
605 -> 607 ;
608 [label="lm_375_z <= 0.024\ngini = 0.428\nsamples = 20\nvalue = [9, 0, 0, 20]\nclass = sad", fillcolor="#e992f1"] ;
602 -> 608 ;
609 [label="lm_271_z <= -0.057\ngini = 0.375\nsamples = 6\nvalue = [6, 0, 0, 2]\nclass = anger", fillcolor="#eeab7b"] ;
608 -> 609 ;
610 [label="gini = 0.0\nsamples = 4\nvalue = [6, 0, 0, 0]\nclass = anger", fillcolor="#e58139"] ;
609 -> 610 ;
611 [label="gini = 0.0\nsamples = 2\nvalue = [0, 0, 0, 2]\nclass = sad", fillcolor="#d739e5"] ;
609 -> 611 ;
612 [label="lm_5_x <= 0.471\ngini = 0.245\nsamples = 14\nvalue = [3, 0, 0, 18]\nclass = sad", fillcolor="#de5ae9"] ;
608 -> 612 ;
613 [label="gini = 0.0\nsamples = 1\nvalue = [1, 0, 0, 0]\nclass = anger", fillcolor="#e58139"] ;
612 -> 613 ;
614 [label="lm_15_y <= 0.704\ngini = 0.18\nsamples = 13\nvalue = [2, 0, 0, 18]\nclass = sad", fillcolor="#db4fe8"] ;
612 -> 614 ;
615 [label="gini = 0.0\nsamples = 1\nvalue = [1, 0, 0, 0]\nclass = anger", fillcolor="#e58139"] ;
614 -> 615 ;
616 [label="lm_121_x <= 0.403\ngini = 0.1\nsamples = 12\nvalue = [1, 0, 0, 18]\nclass = sad", fillcolor="#d944e6"] ;
614 -> 616 ;
617 [label="gini = 0.0\nsamples = 11\nvalue = [0, 0, 0, 18]\nclass = sad", fillcolor="#d739e5"] ;
616 -> 617 ;
618 [label="gini = 0.0\nsamples = 1\nvalue = [1, 0, 0, 0]\nclass = anger", fillcolor="#e58139"] ;
616 -> 618 ;
619 [label="lm_48_z <= -0.021\ngini = 0.288\nsamples = 121\nvalue = [154.0, 15.0, 2.0, 13.0]\nclass = anger", fillcolor="#ea975c"] ;
581 -> 619 ;
620 [label="lm_235_x <= 0.114\ngini = 0.66\nsamples = 18\nvalue = [9, 10, 0, 7]\nclass = happy", fillcolor="#f4fdf3"] ;
619 -> 620 ;
621 [label="gini = 0.0\nsamples = 3\nvalue = [6, 0, 0, 0]\nclass = anger", fillcolor="#e58139"] ;
620 -> 621 ;
622 [label="lm_216_z <= 0.119\ngini = 0.605\nsamples = 15\nvalue = [3, 10, 0, 7]\nclass = happy", fillcolor="#d5f9d1"] ;
620 -> 622 ;
623 [label="lm_115_y <= 0.458\ngini = 0.245\nsamples = 5\nvalue = [0, 1, 0, 6]\nclass = sad", fillcolor="#de5ae9"] ;
622 -> 623 ;
624 [label="gini = 0.0\nsamples = 1\nvalue = [0, 1, 0, 0]\nclass = happy", fillcolor="#47e539"] ;
623 -> 624 ;
625 [label="gini = 0.0\nsamples = 4\nvalue = [0, 0, 0, 6]\nclass = sad", fillcolor="#d739e5"] ;
623 -> 625 ;
626 [label="lm_63_x <= 0.404\ngini = 0.462\nsamples = 10\nvalue = [3, 9, 0, 1]\nclass = happy", fillcolor="#91ef88"] ;
622 -> 626 ;
627 [label="lm_398_z <= 0.183\ngini = 0.18\nsamples = 7\nvalue = [0, 9, 0, 1]\nclass = happy", fillcolor="#5be84f"] ;
626 -> 627 ;
628 [label="gini = 0.0\nsamples = 1\nvalue = [0, 0, 0, 1]\nclass = sad", fillcolor="#d739e5"] ;
627 -> 628 ;
629 [label="gini = 0.0\nsamples = 6\nvalue = [0, 9, 0, 0]\nclass = happy", fillcolor="#47e539"] ;
627 -> 629 ;
630 [label="gini = 0.0\nsamples = 3\nvalue = [3, 0, 0, 0]\nclass = anger", fillcolor="#e58139"] ;
626 -> 630 ;
631 [label="lm_361_z <= -0.105\ngini = 0.155\nsamples = 103\nvalue = [145, 5, 2, 6]\nclass = anger", fillcolor="#e78c4a"] ;
619 -> 631 ;
632 [label="lm_14_y <= 0.695\ngini = 0.558\nsamples = 18\nvalue = [13, 3, 1, 4]\nclass = anger", fillcolor="#f1bc96"] ;
631 -> 632 ;
633 [label="lm_306_z <= -0.081\ngini = 0.153\nsamples = 9\nvalue = [11, 0, 0, 1]\nclass = anger", fillcolor="#e78c4b"] ;
632 -> 633 ;
634 [label="gini = 0.0\nsamples = 8\nvalue = [11, 0, 0, 0]\nclass = anger", fillcolor="#e58139"] ;
633 -> 634 ;
635 [label="gini = 0.0\nsamples = 1\nvalue = [0, 0, 0, 1]\nclass = sad", fillcolor="#d739e5"] ;
633 -> 635 ;
636 [label="lm_460_z <= -0.137\ngini = 0.716\nsamples = 9\nvalue = [2, 3, 1, 3]\nclass = happy", fillcolor="#ffffff"] ;
632 -> 636 ;
637 [label="gini = 0.0\nsamples = 3\nvalue = [0, 3, 0, 0]\nclass = happy", fillcolor="#47e539"] ;
636 -> 637 ;
638 [label="lm_385_y <= 0.413\ngini = 0.611\nsamples = 6\nvalue = [2, 0, 1, 3]\nclass = sad", fillcolor="#f5cef8"] ;
636 -> 638 ;
639 [label="lm_44_y <= 0.781\ngini = 0.444\nsamples = 3\nvalue = [2, 0, 1, 0]\nclass = anger", fillcolor="#f2c09c"] ;
638 -> 639 ;
640 [label="gini = 0.0\nsamples = 2\nvalue = [2, 0, 0, 0]\nclass = anger", fillcolor="#e58139"] ;
639 -> 640 ;
641 [label="gini = 0.0\nsamples = 1\nvalue = [0, 0, 1, 0]\nclass = neutral", fillcolor="#399de5"] ;
639 -> 641 ;
642 [label="gini = 0.0\nsamples = 3\nvalue = [0, 0, 0, 3]\nclass = sad", fillcolor="#d739e5"] ;
638 -> 642 ;
643 [label="lm_454_x <= 0.59\ngini = 0.071\nsamples = 85\nvalue = [132, 2, 1, 2]\nclass = anger", fillcolor="#e68640"] ;
631 -> 643 ;
644 [label="lm_360_x <= 0.686\ngini = 0.044\nsamples = 83\nvalue = [132, 2, 1, 0]\nclass = anger", fillcolor="#e6843d"] ;
643 -> 644 ;
645 [label="gini = 0.0\nsamples = 1\nvalue = [0, 0, 1, 0]\nclass = neutral", fillcolor="#399de5"] ;
644 -> 645 ;
646 [label="lm_310_y <= 0.586\ngini = 0.029\nsamples = 82\nvalue = [132, 2, 0, 0]\nclass = anger", fillcolor="#e5833c"] ;
644 -> 646 ;
647 [label="gini = 0.0\nsamples = 76\nvalue = [125, 0, 0, 0]\nclass = anger", fillcolor="#e58139"] ;
646 -> 647 ;
648 [label="lm_134_x <= 0.414\ngini = 0.346\nsamples = 6\nvalue = [7, 2, 0, 0]\nclass = anger", fillcolor="#eca572"] ;
646 -> 648 ;
649 [label="gini = 0.0\nsamples = 5\nvalue = [7, 0, 0, 0]\nclass = anger", fillcolor="#e58139"] ;
648 -> 649 ;
650 [label="gini = 0.0\nsamples = 1\nvalue = [0, 2, 0, 0]\nclass = happy", fillcolor="#47e539"] ;
648 -> 650 ;
651 [label="gini = 0.0\nsamples = 2\nvalue = [0, 0, 0, 2]\nclass = sad", fillcolor="#d739e5"] ;
643 -> 651 ;
652 [label="gini = 0.0\nsamples = 7\nvalue = [0, 0, 0, 12]\nclass = sad", fillcolor="#d739e5"] ;
570 -> 652 ;
653 [label="lm_443_y <= 0.346\ngini = 0.65\nsamples = 484\nvalue = [251.0, 22.0, 136.0, 332.0]\nclass = sad", fillcolor="#f8defb"] ;
553 -> 653 ;
654 [label="lm_142_y <= 0.595\ngini = 0.595\nsamples = 231\nvalue = [77, 4, 74, 196]\nclass = sad", fillcolor="#eea9f4"] ;
653 -> 654 ;
655 [label="lm_244_y <= 0.398\ngini = 0.448\nsamples = 18\nvalue = [2, 0, 17, 5]\nclass = neutral", fillcolor="#82c1ef"] ;
654 -> 655 ;
656 [label="gini = 0.0\nsamples = 2\nvalue = [0, 0, 0, 3]\nclass = sad", fillcolor="#d739e5"] ;
655 -> 656 ;
657 [label="lm_296_x <= 0.605\ngini = 0.327\nsamples = 16\nvalue = [2, 0, 17, 2]\nclass = neutral", fillcolor="#63b2ea"] ;
655 -> 657 ;
658 [label="lm_137_z <= 0.109\ngini = 0.444\nsamples = 3\nvalue = [1, 0, 0, 2]\nclass = sad", fillcolor="#eb9cf2"] ;
657 -> 658 ;
659 [label="gini = 0.0\nsamples = 1\nvalue = [1, 0, 0, 0]\nclass = anger", fillcolor="#e58139"] ;
658 -> 659 ;
660 [label="gini = 0.0\nsamples = 2\nvalue = [0, 0, 0, 2]\nclass = sad", fillcolor="#d739e5"] ;
658 -> 660 ;
661 [label="lm_153_z <= -0.126\ngini = 0.105\nsamples = 13\nvalue = [1, 0, 17, 0]\nclass = neutral", fillcolor="#45a3e7"] ;
657 -> 661 ;
662 [label="gini = 0.0\nsamples = 1\nvalue = [1, 0, 0, 0]\nclass = anger", fillcolor="#e58139"] ;
661 -> 662 ;
663 [label="gini = 0.0\nsamples = 12\nvalue = [0, 0, 17, 0]\nclass = neutral", fillcolor="#399de5"] ;
661 -> 663 ;
664 [label="lm_263_x <= 0.611\ngini = 0.576\nsamples = 213\nvalue = [75, 4, 57, 191]\nclass = sad", fillcolor="#eda4f3"] ;
654 -> 664 ;
665 [label="lm_109_y <= 0.212\ngini = 0.108\nsamples = 20\nvalue = [0, 0, 2, 33]\nclass = sad", fillcolor="#d945e7"] ;
664 -> 665 ;
666 [label="lm_317_y <= 0.763\ngini = 0.48\nsamples = 3\nvalue = [0, 0, 2, 3]\nclass = sad", fillcolor="#f2bdf6"] ;
665 -> 666 ;
667 [label="gini = 0.0\nsamples = 2\nvalue = [0, 0, 2, 0]\nclass = neutral", fillcolor="#399de5"] ;
666 -> 667 ;
668 [label="gini = 0.0\nsamples = 1\nvalue = [0, 0, 0, 3]\nclass = sad", fillcolor="#d739e5"] ;
666 -> 668 ;
669 [label="gini = 0.0\nsamples = 17\nvalue = [0, 0, 0, 30]\nclass = sad", fillcolor="#d739e5"] ;
665 -> 669 ;
670 [label="lm_319_x <= 0.63\ngini = 0.606\nsamples = 193\nvalue = [75.0, 4.0, 55.0, 158.0]\nclass = sad", fillcolor="#f0b3f5"] ;
664 -> 670 ;
671 [label="lm_364_z <= -0.108\ngini = 0.666\nsamples = 116\nvalue = [58, 4, 41, 71]\nclass = sad", fillcolor="#fbe9fc"] ;
670 -> 671 ;
672 [label="lm_276_z <= -0.167\ngini = 0.66\nsamples = 110\nvalue = [43, 4, 41, 71]\nclass = sad", fillcolor="#f5cff9"] ;
671 -> 672 ;
673 [label="lm_349_y <= 0.472\ngini = 0.648\nsamples = 33\nvalue = [21, 3, 18, 6]\nclass = anger", fillcolor="#fcf2eb"] ;
672 -> 673 ;
674 [label="lm_364_z <= -0.141\ngini = 0.461\nsamples = 13\nvalue = [11, 1, 0, 4]\nclass = anger", fillcolor="#f0b68c"] ;
673 -> 674 ;
675 [label="lm_363_z <= 0.04\ngini = 0.571\nsamples = 7\nvalue = [2, 1, 0, 4]\nclass = sad", fillcolor="#efb0f5"] ;
674 -> 675 ;
676 [label="gini = 0.0\nsamples = 3\nvalue = [0, 0, 0, 3]\nclass = sad", fillcolor="#d739e5"] ;
675 -> 676 ;
677 [label="lm_83_x <= 0.467\ngini = 0.625\nsamples = 4\nvalue = [2, 1, 0, 1]\nclass = anger", fillcolor="#f6d5bd"] ;
675 -> 677 ;
678 [label="lm_208_z <= -0.01\ngini = 0.5\nsamples = 2\nvalue = [0, 1, 0, 1]\nclass = happy", fillcolor="#ffffff"] ;
677 -> 678 ;
679 [label="gini = 0.0\nsamples = 1\nvalue = [0, 1, 0, 0]\nclass = happy", fillcolor="#47e539"] ;
678 -> 679 ;
680 [label="gini = 0.0\nsamples = 1\nvalue = [0, 0, 0, 1]\nclass = sad", fillcolor="#d739e5"] ;
678 -> 680 ;
681 [label="gini = 0.0\nsamples = 2\nvalue = [2, 0, 0, 0]\nclass = anger", fillcolor="#e58139"] ;
677 -> 681 ;
682 [label="gini = 0.0\nsamples = 6\nvalue = [9, 0, 0, 0]\nclass = anger", fillcolor="#e58139"] ;
674 -> 682 ;
683 [label="lm_254_x <= 0.67\ngini = 0.578\nsamples = 20\nvalue = [10, 2, 18, 2]\nclass = neutral", fillcolor="#b7dbf6"] ;
673 -> 683 ;
684 [label="lm_141_y <= 0.896\ngini = 0.392\nsamples = 14\nvalue = [5, 1, 18, 0]\nclass = neutral", fillcolor="#78bced"] ;
683 -> 684 ;
685 [label="gini = 0.0\nsamples = 1\nvalue = [3, 0, 0, 0]\nclass = anger", fillcolor="#e58139"] ;
684 -> 685 ;
686 [label="lm_270_y <= 0.716\ngini = 0.254\nsamples = 13\nvalue = [2, 1, 18, 0]\nclass = neutral", fillcolor="#58ace9"] ;
684 -> 686 ;
687 [label="lm_345_y <= 0.577\ngini = 0.1\nsamples = 11\nvalue = [0, 1, 18, 0]\nclass = neutral", fillcolor="#44a2e6"] ;
686 -> 687 ;
688 [label="gini = 0.0\nsamples = 10\nvalue = [0, 0, 18, 0]\nclass = neutral", fillcolor="#399de5"] ;
687 -> 688 ;
689 [label="gini = 0.0\nsamples = 1\nvalue = [0, 1, 0, 0]\nclass = happy", fillcolor="#47e539"] ;
687 -> 689 ;
690 [label="gini = 0.0\nsamples = 2\nvalue = [2, 0, 0, 0]\nclass = anger", fillcolor="#e58139"] ;
686 -> 690 ;
691 [label="lm_232_y <= 0.478\ngini = 0.531\nsamples = 6\nvalue = [5, 1, 0, 2]\nclass = anger", fillcolor="#f2c09c"] ;
683 -> 691 ;
692 [label="gini = 0.0\nsamples = 4\nvalue = [5, 0, 0, 0]\nclass = anger", fillcolor="#e58139"] ;
691 -> 692 ;
693 [label="lm_161_y <= 0.425\ngini = 0.444\nsamples = 2\nvalue = [0, 1, 0, 2]\nclass = sad", fillcolor="#eb9cf2"] ;
691 -> 693 ;
694 [label="gini = 0.0\nsamples = 1\nvalue = [0, 0, 0, 2]\nclass = sad", fillcolor="#d739e5"] ;
693 -> 694 ;
695 [label="gini = 0.0\nsamples = 1\nvalue = [0, 1, 0, 0]\nclass = happy", fillcolor="#47e539"] ;
693 -> 695 ;
696 [label="lm_405_z <= -0.055\ngini = 0.575\nsamples = 77\nvalue = [22, 1, 23, 65]\nclass = sad", fillcolor="#eca0f3"] ;
672 -> 696 ;
697 [label="lm_457_y <= 0.499\ngini = 0.638\nsamples = 53\nvalue = [18, 0, 23, 36]\nclass = sad", fillcolor="#f5cff9"] ;
696 -> 697 ;
698 [label="lm_315_y <= 0.735\ngini = 0.383\nsamples = 21\nvalue = [8, 0, 0, 23]\nclass = sad", fillcolor="#e57eee"] ;
697 -> 698 ;
699 [label="gini = 0.0\nsamples = 2\nvalue = [3, 0, 0, 0]\nclass = anger", fillcolor="#e58139"] ;
698 -> 699 ;
700 [label="lm_90_x <= 0.428\ngini = 0.293\nsamples = 19\nvalue = [5, 0, 0, 23]\nclass = sad", fillcolor="#e064eb"] ;
698 -> 700 ;
701 [label="lm_63_x <= 0.39\ngini = 0.375\nsamples = 2\nvalue = [3, 0, 0, 1]\nclass = anger", fillcolor="#eeab7b"] ;
700 -> 701 ;
702 [label="gini = 0.0\nsamples = 1\nvalue = [3, 0, 0, 0]\nclass = anger", fillcolor="#e58139"] ;
701 -> 702 ;
703 [label="gini = 0.0\nsamples = 1\nvalue = [0, 0, 0, 1]\nclass = sad", fillcolor="#d739e5"] ;
701 -> 703 ;
704 [label="lm_14_z <= -0.065\ngini = 0.153\nsamples = 17\nvalue = [2, 0, 0, 22]\nclass = sad", fillcolor="#db4be7"] ;
700 -> 704 ;
705 [label="gini = 0.0\nsamples = 14\nvalue = [0, 0, 0, 21]\nclass = sad", fillcolor="#d739e5"] ;
704 -> 705 ;
706 [label="lm_131_y <= 0.475\ngini = 0.444\nsamples = 3\nvalue = [2, 0, 0, 1]\nclass = anger", fillcolor="#f2c09c"] ;
704 -> 706 ;
707 [label="gini = 0.0\nsamples = 2\nvalue = [2, 0, 0, 0]\nclass = anger", fillcolor="#e58139"] ;
706 -> 707 ;
708 [label="gini = 0.0\nsamples = 1\nvalue = [0, 0, 0, 1]\nclass = sad", fillcolor="#d739e5"] ;
706 -> 708 ;
709 [label="lm_391_y <= 0.416\ngini = 0.623\nsamples = 32\nvalue = [10.0, 0.0, 23.0, 13.0]\nclass = neutral", fillcolor="#c3e1f7"] ;
697 -> 709 ;
710 [label="lm_441_y <= 0.562\ngini = 0.553\nsamples = 26\nvalue = [9, 0, 23, 6]\nclass = neutral", fillcolor="#9fd0f2"] ;
709 -> 710 ;
711 [label="lm_22_x <= 0.141\ngini = 0.439\nsamples = 21\nvalue = [3, 0, 23, 6]\nclass = neutral", fillcolor="#7ebfee"] ;
710 -> 711 ;
712 [label="gini = 0.0\nsamples = 3\nvalue = [0, 0, 0, 4]\nclass = sad", fillcolor="#d739e5"] ;
711 -> 712 ;
713 [label="lm_339_x <= 0.561\ngini = 0.309\nsamples = 18\nvalue = [3, 0, 23, 2]\nclass = neutral", fillcolor="#61b1ea"] ;
711 -> 713 ;
714 [label="lm_283_y <= 0.316\ngini = 0.204\nsamples = 16\nvalue = [3, 0, 23, 0]\nclass = neutral", fillcolor="#53aae8"] ;
713 -> 714 ;
715 [label="lm_18_y <= 0.793\ngini = 0.08\nsamples = 14\nvalue = [1, 0, 23, 0]\nclass = neutral", fillcolor="#42a1e6"] ;
714 -> 715 ;
716 [label="gini = 0.0\nsamples = 10\nvalue = [0, 0, 19, 0]\nclass = neutral", fillcolor="#399de5"] ;
715 -> 716 ;
717 [label="lm_344_x <= 0.556\ngini = 0.32\nsamples = 4\nvalue = [1, 0, 4, 0]\nclass = neutral", fillcolor="#6ab6ec"] ;
715 -> 717 ;
718 [label="gini = 0.0\nsamples = 3\nvalue = [0, 0, 4, 0]\nclass = neutral", fillcolor="#399de5"] ;
717 -> 718 ;
719 [label="gini = 0.0\nsamples = 1\nvalue = [1, 0, 0, 0]\nclass = anger", fillcolor="#e58139"] ;
717 -> 719 ;
720 [label="gini = 0.0\nsamples = 2\nvalue = [2, 0, 0, 0]\nclass = anger", fillcolor="#e58139"] ;
714 -> 720 ;
721 [label="gini = 0.0\nsamples = 2\nvalue = [0, 0, 0, 2]\nclass = sad", fillcolor="#d739e5"] ;
713 -> 721 ;
722 [label="gini = 0.0\nsamples = 5\nvalue = [6, 0, 0, 0]\nclass = anger", fillcolor="#e58139"] ;
710 -> 722 ;
723 [label="lm_385_z <= 0.045\ngini = 0.219\nsamples = 6\nvalue = [1, 0, 0, 7]\nclass = sad", fillcolor="#dd55e9"] ;
709 -> 723 ;
724 [label="gini = 0.0\nsamples = 5\nvalue = [0, 0, 0, 7]\nclass = sad", fillcolor="#d739e5"] ;
723 -> 724 ;
725 [label="gini = 0.0\nsamples = 1\nvalue = [1, 0, 0, 0]\nclass = anger", fillcolor="#e58139"] ;
723 -> 725 ;
726 [label="lm_297_y <= 0.297\ngini = 0.258\nsamples = 24\nvalue = [4, 1, 0, 29]\nclass = sad", fillcolor="#de5ae9"] ;
696 -> 726 ;
727 [label="lm_126_y <= 0.592\ngini = 0.069\nsamples = 19\nvalue = [0, 1, 0, 27]\nclass = sad", fillcolor="#d840e6"] ;
726 -> 727 ;
728 [label="gini = 0.0\nsamples = 1\nvalue = [0, 1, 0, 0]\nclass = happy", fillcolor="#47e539"] ;
727 -> 728 ;
729 [label="gini = 0.0\nsamples = 18\nvalue = [0, 0, 0, 27]\nclass = sad", fillcolor="#d739e5"] ;
727 -> 729 ;
730 [label="lm_57_z <= 0.013\ngini = 0.444\nsamples = 5\nvalue = [4, 0, 0, 2]\nclass = anger", fillcolor="#f2c09c"] ;
726 -> 730 ;
731 [label="gini = 0.0\nsamples = 3\nvalue = [4, 0, 0, 0]\nclass = anger", fillcolor="#e58139"] ;
730 -> 731 ;
732 [label="gini = 0.0\nsamples = 2\nvalue = [0, 0, 0, 2]\nclass = sad", fillcolor="#d739e5"] ;
730 -> 732 ;
733 [label="gini = 0.0\nsamples = 6\nvalue = [15, 0, 0, 0]\nclass = anger", fillcolor="#e58139"] ;
671 -> 733 ;
734 [label="lm_201_y <= 0.919\ngini = 0.422\nsamples = 77\nvalue = [17, 0, 14, 87]\nclass = sad", fillcolor="#e376ed"] ;
670 -> 734 ;
735 [label="lm_62_y <= 0.804\ngini = 0.362\nsamples = 72\nvalue = [10.0, 0.0, 14.0, 87.0]\nclass = sad", fillcolor="#e16aeb"] ;
734 -> 735 ;
736 [label="lm_115_x <= 0.456\ngini = 0.281\nsamples = 63\nvalue = [4, 0, 12, 83]\nclass = sad", fillcolor="#de5dea"] ;
735 -> 736 ;
737 [label="lm_248_x <= 0.22\ngini = 0.23\nsamples = 59\nvalue = [4, 0, 8, 82]\nclass = sad", fillcolor="#dd55e9"] ;
736 -> 737 ;
738 [label="lm_135_z <= -0.136\ngini = 0.562\nsamples = 7\nvalue = [1, 0, 4, 6]\nclass = sad", fillcolor="#f4c6f8"] ;
737 -> 738 ;
739 [label="gini = 0.0\nsamples = 4\nvalue = [0, 0, 0, 6]\nclass = sad", fillcolor="#d739e5"] ;
738 -> 739 ;
740 [label="lm_80_x <= 0.462\ngini = 0.32\nsamples = 3\nvalue = [1, 0, 4, 0]\nclass = neutral", fillcolor="#6ab6ec"] ;
738 -> 740 ;
741 [label="gini = 0.0\nsamples = 1\nvalue = [1, 0, 0, 0]\nclass = anger", fillcolor="#e58139"] ;
740 -> 741 ;
742 [label="gini = 0.0\nsamples = 2\nvalue = [0, 0, 4, 0]\nclass = neutral", fillcolor="#399de5"] ;
740 -> 742 ;
743 [label="lm_172_z <= -0.103\ngini = 0.158\nsamples = 52\nvalue = [3, 0, 4, 76]\nclass = sad", fillcolor="#db4be7"] ;
737 -> 743 ;
744 [label="gini = 0.0\nsamples = 1\nvalue = [1, 0, 0, 0]\nclass = anger", fillcolor="#e58139"] ;
743 -> 744 ;
745 [label="lm_252_x <= 0.777\ngini = 0.138\nsamples = 51\nvalue = [2, 0, 4, 76]\nclass = sad", fillcolor="#da48e7"] ;
743 -> 745 ;
746 [label="lm_86_y <= 0.733\ngini = 0.032\nsamples = 34\nvalue = [0, 0, 1, 60]\nclass = sad", fillcolor="#d83ce5"] ;
745 -> 746 ;
747 [label="gini = 0.0\nsamples = 1\nvalue = [0, 0, 1, 0]\nclass = neutral", fillcolor="#399de5"] ;
746 -> 747 ;
748 [label="gini = 0.0\nsamples = 33\nvalue = [0, 0, 0, 60]\nclass = sad", fillcolor="#d739e5"] ;
746 -> 748 ;
749 [label="lm_191_y <= 0.434\ngini = 0.39\nsamples = 17\nvalue = [2, 0, 3, 16]\nclass = sad", fillcolor="#e270ec"] ;
745 -> 749 ;
750 [label="lm_179_y <= 0.796\ngini = 0.198\nsamples = 14\nvalue = [2, 0, 0, 16]\nclass = sad", fillcolor="#dc52e8"] ;
749 -> 750 ;
751 [label="lm_229_x <= 0.303\ngini = 0.111\nsamples = 13\nvalue = [1, 0, 0, 16]\nclass = sad", fillcolor="#da45e7"] ;
750 -> 751 ;
752 [label="gini = 0.0\nsamples = 12\nvalue = [0, 0, 0, 16]\nclass = sad", fillcolor="#d739e5"] ;
751 -> 752 ;
753 [label="gini = 0.0\nsamples = 1\nvalue = [1, 0, 0, 0]\nclass = anger", fillcolor="#e58139"] ;
751 -> 753 ;
754 [label="gini = 0.0\nsamples = 1\nvalue = [1, 0, 0, 0]\nclass = anger", fillcolor="#e58139"] ;
750 -> 754 ;
755 [label="gini = 0.0\nsamples = 3\nvalue = [0, 0, 3, 0]\nclass = neutral", fillcolor="#399de5"] ;
749 -> 755 ;
756 [label="lm_312_y <= 0.714\ngini = 0.32\nsamples = 4\nvalue = [0, 0, 4, 1]\nclass = neutral", fillcolor="#6ab6ec"] ;
736 -> 756 ;
757 [label="gini = 0.0\nsamples = 1\nvalue = [0, 0, 0, 1]\nclass = sad", fillcolor="#d739e5"] ;
756 -> 757 ;
758 [label="gini = 0.0\nsamples = 3\nvalue = [0, 0, 4, 0]\nclass = neutral", fillcolor="#399de5"] ;
756 -> 758 ;
759 [label="lm_36_x <= 0.116\ngini = 0.611\nsamples = 9\nvalue = [6, 0, 2, 4]\nclass = anger", fillcolor="#f8e0ce"] ;
735 -> 759 ;
760 [label="gini = 0.0\nsamples = 3\nvalue = [0, 0, 0, 4]\nclass = sad", fillcolor="#d739e5"] ;
759 -> 760 ;
761 [label="lm_34_z <= 0.08\ngini = 0.375\nsamples = 6\nvalue = [6, 0, 2, 0]\nclass = anger", fillcolor="#eeab7b"] ;
759 -> 761 ;
762 [label="gini = 0.0\nsamples = 3\nvalue = [5, 0, 0, 0]\nclass = anger", fillcolor="#e58139"] ;
761 -> 762 ;
763 [label="lm_445_x <= 0.72\ngini = 0.444\nsamples = 3\nvalue = [1, 0, 2, 0]\nclass = neutral", fillcolor="#9ccef2"] ;
761 -> 763 ;
764 [label="gini = 0.0\nsamples = 2\nvalue = [0, 0, 2, 0]\nclass = neutral", fillcolor="#399de5"] ;
763 -> 764 ;
765 [label="gini = 0.0\nsamples = 1\nvalue = [1, 0, 0, 0]\nclass = anger", fillcolor="#e58139"] ;
763 -> 765 ;
766 [label="gini = 0.0\nsamples = 5\nvalue = [7, 0, 0, 0]\nclass = anger", fillcolor="#e58139"] ;
734 -> 766 ;
767 [label="lm_65_z <= -0.08\ngini = 0.652\nsamples = 253\nvalue = [174.0, 18.0, 62.0, 136.0]\nclass = anger", fillcolor="#fbece1"] ;
653 -> 767 ;
768 [label="lm_39_y <= 0.724\ngini = 0.47\nsamples = 38\nvalue = [6, 1, 8, 35]\nclass = sad", fillcolor="#e580ee"] ;
767 -> 768 ;
769 [label="lm_377_y <= 0.665\ngini = 0.234\nsamples = 28\nvalue = [1, 0, 4, 33]\nclass = sad", fillcolor="#dd56e9"] ;
768 -> 769 ;
770 [label="lm_469_y <= 0.415\ngini = 0.108\nsamples = 26\nvalue = [0, 0, 2, 33]\nclass = sad", fillcolor="#d945e7"] ;
769 -> 770 ;
771 [label="lm_22_x <= 0.159\ngini = 0.444\nsamples = 5\nvalue = [0, 0, 2, 4]\nclass = sad", fillcolor="#eb9cf2"] ;
770 -> 771 ;
772 [label="gini = 0.0\nsamples = 3\nvalue = [0, 0, 0, 4]\nclass = sad", fillcolor="#d739e5"] ;
771 -> 772 ;
773 [label="gini = 0.0\nsamples = 2\nvalue = [0, 0, 2, 0]\nclass = neutral", fillcolor="#399de5"] ;
771 -> 773 ;
774 [label="gini = 0.0\nsamples = 21\nvalue = [0, 0, 0, 29]\nclass = sad", fillcolor="#d739e5"] ;
770 -> 774 ;
775 [label="lm_454_y <= 0.456\ngini = 0.444\nsamples = 2\nvalue = [1, 0, 2, 0]\nclass = neutral", fillcolor="#9ccef2"] ;
769 -> 775 ;
776 [label="gini = 0.0\nsamples = 1\nvalue = [1, 0, 0, 0]\nclass = anger", fillcolor="#e58139"] ;
775 -> 776 ;
777 [label="gini = 0.0\nsamples = 1\nvalue = [0, 0, 2, 0]\nclass = neutral", fillcolor="#399de5"] ;
775 -> 777 ;
778 [label="lm_117_z <= 0.059\ngini = 0.681\nsamples = 10\nvalue = [5, 1, 4, 2]\nclass = anger", fillcolor="#fcefe6"] ;
768 -> 778 ;
779 [label="gini = 0.0\nsamples = 4\nvalue = [4, 0, 0, 0]\nclass = anger", fillcolor="#e58139"] ;
778 -> 779 ;
780 [label="lm_291_y <= 0.615\ngini = 0.656\nsamples = 6\nvalue = [1, 1, 4, 2]\nclass = neutral", fillcolor="#bddef6"] ;
778 -> 780 ;
781 [label="gini = 0.0\nsamples = 2\nvalue = [0, 0, 4, 0]\nclass = neutral", fillcolor="#399de5"] ;
780 -> 781 ;
782 [label="lm_328_y <= 0.618\ngini = 0.625\nsamples = 4\nvalue = [1, 1, 0, 2]\nclass = sad", fillcolor="#f2bdf6"] ;
780 -> 782 ;
783 [label="gini = 0.0\nsamples = 2\nvalue = [0, 0, 0, 2]\nclass = sad", fillcolor="#d739e5"] ;
782 -> 783 ;
784 [label="lm_149_y <= 1.073\ngini = 0.5\nsamples = 2\nvalue = [1, 1, 0, 0]\nclass = anger", fillcolor="#ffffff"] ;
782 -> 784 ;
785 [label="gini = 0.0\nsamples = 1\nvalue = [0, 1, 0, 0]\nclass = happy", fillcolor="#47e539"] ;
784 -> 785 ;
786 [label="gini = 0.0\nsamples = 1\nvalue = [1, 0, 0, 0]\nclass = anger", fillcolor="#e58139"] ;
784 -> 786 ;
787 [label="lm_68_y <= 0.213\ngini = 0.64\nsamples = 215\nvalue = [168, 17, 54, 101]\nclass = anger", fillcolor="#f8dcc7"] ;
767 -> 787 ;
788 [label="lm_462_y <= 0.61\ngini = 0.536\nsamples = 47\nvalue = [48, 10, 14, 3]\nclass = anger", fillcolor="#f1b991"] ;
787 -> 788 ;
789 [label="lm_224_y <= 0.35\ngini = 0.438\nsamples = 38\nvalue = [45, 1, 14, 3]\nclass = anger", fillcolor="#efaf82"] ;
788 -> 789 ;
790 [label="lm_182_y <= 0.76\ngini = 0.444\nsamples = 9\nvalue = [4, 0, 8, 0]\nclass = neutral", fillcolor="#9ccef2"] ;
789 -> 790 ;
791 [label="gini = 0.0\nsamples = 3\nvalue = [4, 0, 0, 0]\nclass = anger", fillcolor="#e58139"] ;
790 -> 791 ;
792 [label="gini = 0.0\nsamples = 6\nvalue = [0, 0, 8, 0]\nclass = neutral", fillcolor="#399de5"] ;
790 -> 792 ;
793 [label="lm_129_y <= 0.464\ngini = 0.336\nsamples = 29\nvalue = [41, 1, 6, 3]\nclass = anger", fillcolor="#eb9d65"] ;
789 -> 793 ;
794 [label="lm_56_y <= 0.352\ngini = 0.242\nsamples = 24\nvalue = [39, 1, 2, 3]\nclass = anger", fillcolor="#e99355"] ;
793 -> 794 ;
795 [label="gini = 0.0\nsamples = 2\nvalue = [0, 0, 0, 3]\nclass = sad", fillcolor="#d739e5"] ;
794 -> 795 ;
796 [label="lm_198_z <= -0.102\ngini = 0.135\nsamples = 22\nvalue = [39, 1, 2, 0]\nclass = anger", fillcolor="#e78a48"] ;
794 -> 796 ;
797 [label="gini = 0.0\nsamples = 1\nvalue = [0, 1, 0, 0]\nclass = happy", fillcolor="#47e539"] ;
796 -> 797 ;
798 [label="lm_15_y <= 0.716\ngini = 0.093\nsamples = 21\nvalue = [39, 0, 2, 0]\nclass = anger", fillcolor="#e68743"] ;
796 -> 798 ;
799 [label="gini = 0.0\nsamples = 1\nvalue = [0, 0, 1, 0]\nclass = neutral", fillcolor="#399de5"] ;
798 -> 799 ;
800 [label="lm_214_x <= 0.245\ngini = 0.049\nsamples = 20\nvalue = [39, 0, 1, 0]\nclass = anger", fillcolor="#e6843e"] ;
798 -> 800 ;
801 [label="gini = 0.0\nsamples = 18\nvalue = [38, 0, 0, 0]\nclass = anger", fillcolor="#e58139"] ;
800 -> 801 ;
802 [label="lm_225_x <= 0.294\ngini = 0.5\nsamples = 2\nvalue = [1, 0, 1, 0]\nclass = anger", fillcolor="#ffffff"] ;
800 -> 802 ;
803 [label="gini = 0.0\nsamples = 1\nvalue = [1, 0, 0, 0]\nclass = anger", fillcolor="#e58139"] ;
802 -> 803 ;
804 [label="gini = 0.0\nsamples = 1\nvalue = [0, 0, 1, 0]\nclass = neutral", fillcolor="#399de5"] ;
802 -> 804 ;
805 [label="lm_380_x <= 0.727\ngini = 0.444\nsamples = 5\nvalue = [2, 0, 4, 0]\nclass = neutral", fillcolor="#9ccef2"] ;
793 -> 805 ;
806 [label="gini = 0.0\nsamples = 3\nvalue = [0, 0, 4, 0]\nclass = neutral", fillcolor="#399de5"] ;
805 -> 806 ;
807 [label="gini = 0.0\nsamples = 2\nvalue = [2, 0, 0, 0]\nclass = anger", fillcolor="#e58139"] ;
805 -> 807 ;
808 [label="lm_189_x <= 0.451\ngini = 0.375\nsamples = 9\nvalue = [3, 9, 0, 0]\nclass = happy", fillcolor="#84ee7b"] ;
788 -> 808 ;
809 [label="gini = 0.0\nsamples = 6\nvalue = [0, 9, 0, 0]\nclass = happy", fillcolor="#47e539"] ;
808 -> 809 ;
810 [label="gini = 0.0\nsamples = 3\nvalue = [3, 0, 0, 0]\nclass = anger", fillcolor="#e58139"] ;
808 -> 810 ;
811 [label="lm_53_x <= 0.318\ngini = 0.635\nsamples = 168\nvalue = [120, 7, 40, 98]\nclass = anger", fillcolor="#fceee5"] ;
787 -> 811 ;
812 [label="lm_454_y <= 0.45\ngini = 0.638\nsamples = 124\nvalue = [98.0, 7.0, 39.0, 51.0]\nclass = anger", fillcolor="#f7d6be"] ;
811 -> 812 ;
813 [label="lm_265_x <= 0.749\ngini = 0.496\nsamples = 55\nvalue = [59.0, 5.0, 7.0, 16.0]\nclass = anger", fillcolor="#efb387"] ;
812 -> 813 ;
814 [label="gini = 0.0\nsamples = 3\nvalue = [0, 0, 0, 4]\nclass = sad", fillcolor="#d739e5"] ;
813 -> 814 ;
815 [label="lm_53_y <= 0.357\ngini = 0.463\nsamples = 52\nvalue = [59.0, 5.0, 7.0, 12.0]\nclass = anger", fillcolor="#eeac7c"] ;
813 -> 815 ;
