digraph Tree {
node [shape=box, style="filled, rounded", color="black", fontname="helvetica"] ;
edge [fontname="helvetica"] ;
0 [label=<landmark_190_y &le; 0.445<br/>entropy = 2.0<br/>samples = 10772<br/>value = [2693, 2693, 2693, 2693]<br/>class = angry>, fillcolor="#ffffff"] ;
1 [label=<landmark_89_z &le; 0.009<br/>entropy = 1.665<br/>samples = 5440<br/>value = [2261, 276, 739, 2164]<br/>class = angry>, fillcolor="#fefbf9"] ;
0 -> 1 [labeldistance=2.5, labelangle=45, headlabel="True"] ;
2 [label=<landmark_108_y &le; 0.324<br/>entropy = 1.646<br/>samples = 3867<br/>value = [1404, 133, 631, 1699]<br/>class = neutral>, fillcolor="#fae7fc"] ;
1 -> 2 ;
3 [label=<landmark_245_y &le; 0.44<br/>entropy = 1.578<br/>samples = 1414<br/>value = [316, 53, 257, 788]<br/>class = neutral>, fillcolor="#eeaaf4"] ;
2 -> 3 ;
4 [label=<landmark_314_y &le; 0.851<br/>entropy = 1.645<br/>samples = 1129<br/>value = [294, 49, 207, 579]<br/>class = neutral>, fillcolor="#f1bbf6"] ;
3 -> 4 ;
5 [label=<landmark_478_y &le; 0.405<br/>entropy = 1.603<br/>samples = 817<br/>value = [167, 35, 165, 450]<br/>class = neutral>, fillcolor="#eea9f4"] ;
4 -> 5 ;
6 [label=<entropy = 1.539<br/>samples = 98<br/>value = [43, 0, 23, 32]<br/>class = angry>, fillcolor="#fbeade"] ;
5 -> 6 ;
7 [label=<entropy = 1.567<br/>samples = 719<br/>value = [124, 35, 142, 418]<br/>class = neutral>, fillcolor="#eca0f3"] ;
5 -> 7 ;
8 [label=<landmark_323_y &le; 0.692<br/>entropy = 1.645<br/>samples = 312<br/>value = [127, 14, 42, 129]<br/>class = neutral>, fillcolor="#fffdff"] ;
4 -> 8 ;
9 [label=<entropy = 1.355<br/>samples = 58<br/>value = [38, 10, 1, 9]<br/>class = angry>, fillcolor="#f0b68c"] ;
8 -> 9 ;
10 [label=<entropy = 1.56<br/>samples = 254<br/>value = [89, 4, 41, 120]<br/>class = neutral>, fillcolor="#f7dafa"] ;
8 -> 10 ;
11 [label=<landmark_323_y &le; 0.682<br/>entropy = 1.14<br/>samples = 285<br/>value = [22, 4, 50, 209]<br/>class = neutral>, fillcolor="#e479ed"] ;
3 -> 11 ;
12 [label=<landmark_448_y &le; 0.453<br/>entropy = 0.758<br/>samples = 90<br/>value = [0, 4, 10, 76]<br/>class = neutral>, fillcolor="#de5cea"] ;
11 -> 12 ;
13 [label=<entropy = 0.959<br/>samples = 21<br/>value = [0, 0, 8, 13]<br/>class = neutral>, fillcolor="#f0b3f5"] ;
12 -> 13 ;
14 [label=<entropy = 0.506<br/>samples = 69<br/>value = [0, 4, 2, 63]<br/>class = neutral>, fillcolor="#db4be7"] ;
12 -> 14 ;
15 [label=<landmark_231_x &le; 0.349<br/>entropy = 1.2<br/>samples = 195<br/>value = [22, 0, 40, 133]<br/>class = neutral>, fillcolor="#e788ef"] ;
11 -> 15 ;
16 [label=<entropy = 1.286<br/>samples = 143<br/>value = [15, 0, 40, 88]<br/>class = neutral>, fillcolor="#eca3f3"] ;
15 -> 16 ;
17 [label=<entropy = 0.57<br/>samples = 52<br/>value = [7, 0, 0, 45]<br/>class = neutral>, fillcolor="#dd58e9"] ;
15 -> 17 ;
18 [label=<landmark_234_y &le; 0.454<br/>entropy = 1.626<br/>samples = 2453<br/>value = [1088, 80, 374, 911]<br/>class = angry>, fillcolor="#fcf1e8"] ;
2 -> 18 ;
19 [label=<landmark_401_y &le; 0.923<br/>entropy = 1.458<br/>samples = 1031<br/>value = [606, 25, 125, 275]<br/>class = angry>, fillcolor="#f4c8a8"] ;
18 -> 19 ;
20 [label=<landmark_56_y &le; 0.376<br/>entropy = 1.499<br/>samples = 747<br/>value = [396, 10, 110, 231]<br/>class = angry>, fillcolor="#f7d7c0"] ;
19 -> 20 ;
21 [label=<entropy = 1.588<br/>samples = 453<br/>value = [198, 6, 85, 164]<br/>class = angry>, fillcolor="#fcf0e8"] ;
20 -> 21 ;
22 [label=<entropy = 1.257<br/>samples = 294<br/>value = [198, 4, 25, 67]<br/>class = angry>, fillcolor="#f0b68d"] ;
20 -> 22 ;
23 [label=<landmark_308_y &le; 0.743<br/>entropy = 1.187<br/>samples = 284<br/>value = [210, 15, 15, 44]<br/>class = angry>, fillcolor="#eda876"] ;
19 -> 23 ;
24 [label=<entropy = 1.731<br/>samples = 49<br/>value = [23, 15, 4, 7]<br/>class = angry>, fillcolor="#f9e1d0"] ;
23 -> 24 ;
25 [label=<entropy = 0.889<br/>samples = 235<br/>value = [187, 0, 11, 37]<br/>class = angry>, fillcolor="#eba069"] ;
23 -> 25 ;
26 [label=<landmark_44_y &le; 0.771<br/>entropy = 1.67<br/>samples = 1422<br/>value = [482, 55, 249, 636]<br/>class = neutral>, fillcolor="#f8dffb"] ;
18 -> 26 ;
27 [label=<landmark_122_y &le; 0.499<br/>entropy = 1.692<br/>samples = 800<br/>value = [196, 49, 149, 406]<br/>class = neutral>, fillcolor="#f1baf6"] ;
26 -> 27 ;
28 [label=<entropy = 1.666<br/>samples = 698<br/>value = [193, 39, 112, 354]<br/>class = neutral>, fillcolor="#f2c0f7"] ;
27 -> 28 ;
29 [label=<entropy = 1.504<br/>samples = 102<br/>value = [3, 10, 37, 52]<br/>class = neutral>, fillcolor="#f6d1f9"] ;
27 -> 29 ;
30 [label=<landmark_127_y &le; 0.541<br/>entropy = 1.535<br/>samples = 622<br/>value = [286, 6, 100, 230]<br/>class = angry>, fillcolor="#fbede3"] ;
26 -> 30 ;
31 [label=<entropy = 1.167<br/>samples = 171<br/>value = [116, 1, 10, 44]<br/>class = angry>, fillcolor="#f0b88f"] ;
30 -> 31 ;
32 [label=<entropy = 1.594<br/>samples = 451<br/>value = [170, 5, 90, 186]<br/>class = neutral>, fillcolor="#fdf4fe"] ;
30 -> 32 ;
33 [label=<landmark_63_y &le; 0.721<br/>entropy = 1.577<br/>samples = 1573<br/>value = [857, 143, 108, 465]<br/>class = angry>, fillcolor="#f6d2b9"] ;
1 -> 33 ;
34 [label=<landmark_387_y &le; 0.399<br/>entropy = 1.733<br/>samples = 624<br/>value = [301, 114, 44, 165]<br/>class = angry>, fillcolor="#f7dac4"] ;
33 -> 34 ;
35 [label=<landmark_292_x &le; 0.632<br/>entropy = 1.659<br/>samples = 349<br/>value = [194, 76, 35, 44]<br/>class = angry>, fillcolor="#f4c9a9"] ;
34 -> 35 ;
36 [label=<landmark_187_x &le; 0.37<br/>entropy = 1.569<br/>samples = 237<br/>value = [145, 23, 32, 37]<br/>class = angry>, fillcolor="#f1bb94"] ;
35 -> 36 ;
37 [label=<entropy = 1.365<br/>samples = 133<br/>value = [91, 22, 10, 10]<br/>class = angry>, fillcolor="#efb184"] ;
36 -> 37 ;
38 [label=<entropy = 1.535<br/>samples = 104<br/>value = [54, 1, 22, 27]<br/>class = angry>, fillcolor="#f6d3ba"] ;
36 -> 38 ;
39 [label=<landmark_176_z &le; 0.126<br/>entropy = 1.422<br/>samples = 112<br/>value = [49, 53, 3, 7]<br/>class = happy>, fillcolor="#f3fdf2"] ;
35 -> 39 ;
40 [label=<entropy = 1.156<br/>samples = 73<br/>value = [19, 49, 0, 5]<br/>class = happy>, fillcolor="#99f191"] ;
39 -> 40 ;
41 [label=<entropy = 1.133<br/>samples = 39<br/>value = [30, 4, 3, 2]<br/>class = angry>, fillcolor="#eca16c"] ;
39 -> 41 ;
42 [label=<landmark_261_y &le; 0.386<br/>entropy = 1.607<br/>samples = 275<br/>value = [107, 38, 9, 121]<br/>class = neutral>, fillcolor="#fceefd"] ;
34 -> 42 ;
43 [label=<landmark_83_x &le; 0.457<br/>entropy = 0.61<br/>samples = 57<br/>value = [6, 1, 0, 50]<br/>class = neutral>, fillcolor="#dc54e9"] ;
42 -> 43 ;
44 [label=<entropy = 0.918<br/>samples = 3<br/>value = [2, 1, 0, 0]<br/>class = angry>, fillcolor="#f2c09c"] ;
43 -> 44 ;
45 [label=<entropy = 0.381<br/>samples = 54<br/>value = [4, 0, 0, 50]<br/>class = neutral>, fillcolor="#da49e7"] ;
43 -> 45 ;
46 [label=<landmark_126_z &le; -0.121<br/>entropy = 1.665<br/>samples = 218<br/>value = [101, 37, 9, 71]<br/>class = angry>, fillcolor="#fae5d7"] ;
42 -> 46 ;
47 [label=<entropy = 1.58<br/>samples = 98<br/>value = [34, 29, 0, 35]<br/>class = neutral>, fillcolor="#fefcff"] ;
46 -> 47 ;
48 [label=<entropy = 1.531<br/>samples = 120<br/>value = [67, 8, 9, 36]<br/>class = angry>, fillcolor="#f5d0b6"] ;
46 -> 48 ;
49 [label=<landmark_337_y &le; 0.329<br/>entropy = 1.393<br/>samples = 949<br/>value = [556, 29, 64, 300]<br/>class = angry>, fillcolor="#f5cdb1"] ;
33 -> 49 ;
50 [label=<landmark_464_y &le; 0.417<br/>entropy = 1.657<br/>samples = 299<br/>value = [121, 19, 33, 126]<br/>class = neutral>, fillcolor="#fef9fe"] ;
49 -> 50 ;
51 [label=<landmark_89_z &le; 0.019<br/>entropy = 1.437<br/>samples = 174<br/>value = [98, 9, 9, 58]<br/>class = angry>, fillcolor="#f6d4bb"] ;
50 -> 51 ;
52 [label=<entropy = 1.684<br/>samples = 52<br/>value = [16, 3, 8, 25]<br/>class = neutral>, fillcolor="#f5cef8"] ;
51 -> 52 ;
53 [label=<entropy = 1.166<br/>samples = 122<br/>value = [82, 6, 1, 33]<br/>class = angry>, fillcolor="#f1ba92"] ;
51 -> 53 ;
54 [label=<landmark_76_z &le; -0.064<br/>entropy = 1.676<br/>samples = 125<br/>value = [23, 10, 24, 68]<br/>class = neutral>, fillcolor="#eea9f4"] ;
50 -> 54 ;
55 [label=<entropy = 1.122<br/>samples = 16<br/>value = [11, 4, 0, 1]<br/>class = angry>, fillcolor="#f0b68c"] ;
54 -> 55 ;
56 [label=<entropy = 1.493<br/>samples = 109<br/>value = [12, 6, 24, 67]<br/>class = neutral>, fillcolor="#eb9bf2"] ;
54 -> 56 ;
57 [label=<landmark_385_y &le; 0.426<br/>entropy = 1.199<br/>samples = 650<br/>value = [435, 10, 31, 174]<br/>class = angry>, fillcolor="#f1ba92"] ;
49 -> 57 ;
58 [label=<landmark_406_y &le; 0.821<br/>entropy = 1.113<br/>samples = 588<br/>value = [421, 8, 26, 133]<br/>class = angry>, fillcolor="#efaf82"] ;
57 -> 58 ;
59 [label=<entropy = 1.306<br/>samples = 367<br/>value = [224, 5, 25, 113]<br/>class = angry>, fillcolor="#f4c8a8"] ;
58 -> 59 ;
60 [label=<entropy = 0.581<br/>samples = 221<br/>value = [197, 3, 1, 20]<br/>class = angry>, fillcolor="#e89051"] ;
58 -> 60 ;
61 [label=<landmark_150_y &le; 0.893<br/>entropy = 1.332<br/>samples = 62<br/>value = [14, 2, 5, 41]<br/>class = neutral>, fillcolor="#e890f0"] ;
57 -> 61 ;
62 [label=<entropy = 1.0<br/>samples = 44<br/>value = [5, 0, 5, 34]<br/>class = neutral>, fillcolor="#e16cec"] ;
61 -> 62 ;
63 [label=<entropy = 1.382<br/>samples = 18<br/>value = [9, 2, 0, 7]<br/>class = angry>, fillcolor="#fae8db"] ;
61 -> 63 ;
64 [label=<landmark_416_x &le; 0.583<br/>entropy = 1.673<br/>samples = 5332<br/>value = [432, 2417, 1954, 529]<br/>class = happy>, fillcolor="#e6fbe4"] ;
0 -> 64 [labeldistance=2.5, labelangle=-45, headlabel="False"] ;
65 [label=<landmark_192_x &le; 0.421<br/>entropy = 1.589<br/>samples = 3048<br/>value = [376, 365, 1846, 461]<br/>class = sad>, fillcolor="#95cbf1"] ;
64 -> 65 ;
66 [label=<landmark_292_y &le; 0.729<br/>entropy = 1.66<br/>samples = 976<br/>value = [95, 286, 503, 92]<br/>class = sad>, fillcolor="#c1e0f7"] ;
65 -> 66 ;
67 [label=<landmark_244_y &le; 0.482<br/>entropy = 1.524<br/>samples = 473<br/>value = [24, 234, 181, 34]<br/>class = happy>, fillcolor="#defadb"] ;
66 -> 67 ;
68 [label=<landmark_411_x &le; 0.613<br/>entropy = 1.593<br/>samples = 274<br/>value = [20, 85, 145, 24]<br/>class = sad>, fillcolor="#c0e0f7"] ;
67 -> 68 ;
69 [label=<entropy = 1.374<br/>samples = 114<br/>value = [12, 10, 79, 13]<br/>class = sad>, fillcolor="#7ebfee"] ;
68 -> 69 ;
70 [label=<entropy = 1.521<br/>samples = 160<br/>value = [8, 75, 66, 11]<br/>class = happy>, fillcolor="#edfdec"] ;
68 -> 70 ;
71 [label=<landmark_159_x &le; 0.393<br/>entropy = 1.089<br/>samples = 199<br/>value = [4, 149, 36, 10]<br/>class = happy>, fillcolor="#7fed76"] ;
67 -> 71 ;
72 [label=<entropy = 0.842<br/>samples = 176<br/>value = [4, 144, 26, 2]<br/>class = happy>, fillcolor="#6eeb63"] ;
71 -> 72 ;
73 [label=<entropy = 1.531<br/>samples = 23<br/>value = [0, 5, 10, 8]<br/>class = sad>, fillcolor="#e5f2fc"] ;
71 -> 73 ;
74 [label=<landmark_88_y &le; 0.769<br/>entropy = 1.508<br/>samples = 503<br/>value = [71, 52, 322, 58]<br/>class = sad>, fillcolor="#8cc6f0"] ;
66 -> 74 ;
75 [label=<landmark_217_x &le; 0.352<br/>entropy = 1.331<br/>samples = 428<br/>value = [51, 30, 302, 45]<br/>class = sad>, fillcolor="#7bbeee"] ;
74 -> 75 ;
76 [label=<entropy = 1.448<br/>samples = 213<br/>value = [17, 27, 141, 28]<br/>class = sad>, fillcolor="#86c3ef"] ;
75 -> 76 ;
77 [label=<entropy = 1.109<br/>samples = 215<br/>value = [34, 3, 161, 17]<br/>class = sad>, fillcolor="#74baed"] ;
75 -> 77 ;
78 [label=<landmark_370_y &le; 0.88<br/>entropy = 1.974<br/>samples = 75<br/>value = [20, 22, 20, 13]<br/>class = happy>, fillcolor="#f8fef8"] ;
74 -> 78 ;
79 [label=<entropy = 1.56<br/>samples = 28<br/>value = [1, 3, 11, 13]<br/>class = neutral>, fillcolor="#fae8fc"] ;
78 -> 79 ;
80 [label=<entropy = 1.513<br/>samples = 47<br/>value = [19, 19, 9, 0]<br/>class = angry>, fillcolor="#ffffff"] ;
78 -> 80 ;
81 [label=<landmark_337_y &le; 0.397<br/>entropy = 1.419<br/>samples = 2072<br/>value = [281, 79, 1343, 369]<br/>class = sad>, fillcolor="#8ec7f0"] ;
65 -> 81 ;
82 [label=<landmark_314_x &le; 0.536<br/>entropy = 1.239<br/>samples = 1113<br/>value = [70, 35, 778, 230]<br/>class = sad>, fillcolor="#84c2ef"] ;
81 -> 82 ;
83 [label=<landmark_325_x &le; 0.564<br/>entropy = 1.171<br/>samples = 849<br/>value = [27, 30, 598, 194]<br/>class = sad>, fillcolor="#85c3ef"] ;
82 -> 83 ;
84 [label=<entropy = 1.104<br/>samples = 423<br/>value = [19, 1, 290, 113]<br/>class = sad>, fillcolor="#8ec7f0"] ;
83 -> 84 ;
85 [label=<entropy = 1.165<br/>samples = 426<br/>value = [8, 29, 308, 81]<br/>class = sad>, fillcolor="#7dbfee"] ;
83 -> 85 ;
86 [label=<landmark_209_x &le; 0.463<br/>entropy = 1.304<br/>samples = 264<br/>value = [43, 5, 180, 36]<br/>class = sad>, fillcolor="#84c2ef"] ;
82 -> 86 ;
87 [label=<entropy = 1.224<br/>samples = 153<br/>value = [36, 4, 105, 8]<br/>class = sad>, fillcolor="#8ac5f0"] ;
86 -> 87 ;
88 [label=<entropy = 1.196<br/>samples = 111<br/>value = [7, 1, 75, 28]<br/>class = sad>, fillcolor="#8fc8f0"] ;
86 -> 88 ;
89 [label=<landmark_170_y &le; 0.778<br/>entropy = 1.538<br/>samples = 959<br/>value = [211, 44, 565, 139]<br/>class = sad>, fillcolor="#a1d1f3"] ;
81 -> 89 ;
90 [label=<landmark_465_y &le; 0.494<br/>entropy = 1.642<br/>samples = 249<br/>value = [21, 25, 130, 73]<br/>class = sad>, fillcolor="#bfdff7"] ;
89 -> 90 ;
91 [label=<entropy = 1.426<br/>samples = 186<br/>value = [13, 6, 104, 63]<br/>class = sad>, fillcolor="#bddef6"] ;
90 -> 91 ;
92 [label=<entropy = 1.848<br/>samples = 63<br/>value = [8, 19, 26, 10]<br/>class = sad>, fillcolor="#e0effb"] ;
90 -> 92 ;
93 [label=<landmark_416_x &le; 0.577<br/>entropy = 1.4<br/>samples = 710<br/>value = [190, 19, 435, 66]<br/>class = sad>, fillcolor="#a2d1f3"] ;
89 -> 93 ;
94 [label=<entropy = 1.323<br/>samples = 615<br/>value = [162, 5, 385, 63]<br/>class = sad>, fillcolor="#9ecff2"] ;
93 -> 94 ;
95 [label=<entropy = 1.571<br/>samples = 95<br/>value = [28, 14, 50, 3]<br/>class = sad>, fillcolor="#bedff6"] ;
93 -> 95 ;
96 [label=<landmark_192_x &le; 0.416<br/>entropy = 0.629<br/>samples = 2284<br/>value = [56, 2052, 108, 68]<br/>class = happy>, fillcolor="#5be84e"] ;
64 -> 96 ;
97 [label=<landmark_416_x &le; 0.592<br/>entropy = 0.31<br/>samples = 2048<br/>value = [18, 1964, 34, 32]<br/>class = happy>, fillcolor="#4fe641"] ;
96 -> 97 ;
98 [label=<landmark_423_x &le; 0.641<br/>entropy = 0.804<br/>samples = 451<br/>value = [16, 387, 31, 17]<br/>class = happy>, fillcolor="#63e957"] ;
97 -> 98 ;
99 [label=<landmark_424_x &le; 0.612<br/>entropy = 0.475<br/>samples = 373<br/>value = [8, 347, 10, 8]<br/>class = happy>, fillcolor="#54e747"] ;
98 -> 99 ;
100 [label=<entropy = 0.387<br/>samples = 332<br/>value = [8, 313, 10, 1]<br/>class = happy>, fillcolor="#52e745"] ;
99 -> 100 ;
101 [label=<entropy = 0.659<br/>samples = 41<br/>value = [0, 34, 0, 7]<br/>class = happy>, fillcolor="#6dea62"] ;
99 -> 101 ;
102 [label=<landmark_276_z &le; -0.139<br/>entropy = 1.7<br/>samples = 78<br/>value = [8, 40, 21, 9]<br/>class = happy>, fillcolor="#c2f6bd"] ;
98 -> 102 ;
103 [label=<entropy = 0.229<br/>samples = 27<br/>value = [0, 26, 0, 1]<br/>class = happy>, fillcolor="#4ee641"] ;
102 -> 103 ;
104 [label=<entropy = 1.877<br/>samples = 51<br/>value = [8, 14, 21, 8]<br/>class = sad>, fillcolor="#daecfa"] ;
102 -> 104 ;
105 [label=<landmark_232_y &le; 0.5<br/>entropy = 0.11<br/>samples = 1597<br/>value = [2, 1577, 3, 15]<br/>class = happy>, fillcolor="#49e53c"] ;
97 -> 105 ;
106 [label=<landmark_105_x &le; 0.314<br/>entropy = 1.252<br/>samples = 18<br/>value = [1, 8, 0, 9]<br/>class = neutral>, fillcolor="#fbebfc"] ;
105 -> 106 ;
107 [label=<entropy = 0.503<br/>samples = 9<br/>value = [1, 0, 0, 8]<br/>class = neutral>, fillcolor="#dc52e8"] ;
106 -> 107 ;
108 [label=<entropy = 0.503<br/>samples = 9<br/>value = [0, 8, 0, 1]<br/>class = happy>, fillcolor="#5ee852"] ;
106 -> 108 ;
109 [label=<landmark_107_x &le; 0.404<br/>entropy = 0.064<br/>samples = 1579<br/>value = [1, 1569, 3, 6]<br/>class = happy>, fillcolor="#48e53a"] ;
105 -> 109 ;
110 [label=<entropy = 0.017<br/>samples = 1440<br/>value = [1, 1438, 1, 0]<br/>class = happy>, fillcolor="#47e539"] ;
109 -> 110 ;
111 [label=<entropy = 0.364<br/>samples = 139<br/>value = [0, 131, 2, 6]<br/>class = happy>, fillcolor="#52e745"] ;
109 -> 111 ;
112 [label=<landmark_464_y &le; 0.481<br/>entropy = 1.893<br/>samples = 236<br/>value = [38, 88, 74, 36]<br/>class = happy>, fillcolor="#effdee"] ;
96 -> 112 ;
113 [label=<landmark_468_y &le; 0.443<br/>entropy = 1.968<br/>samples = 157<br/>value = [35, 34, 54, 34]<br/>class = sad>, fillcolor="#e0f0fb"] ;
112 -> 113 ;
114 [label=<landmark_212_z &le; 0.074<br/>entropy = 1.576<br/>samples = 35<br/>value = [13, 2, 3, 17]<br/>class = neutral>, fillcolor="#f8dbfa"] ;
113 -> 114 ;
115 [label=<entropy = 0.994<br/>samples = 22<br/>value = [3, 0, 2, 17]<br/>class = neutral>, fillcolor="#e26dec"] ;
114 -> 115 ;
116 [label=<entropy = 0.991<br/>samples = 13<br/>value = [10, 2, 1, 0]<br/>class = angry>, fillcolor="#eca36f"] ;
114 -> 116 ;
117 [label=<landmark_299_y &le; 0.372<br/>entropy = 1.874<br/>samples = 122<br/>value = [22, 32, 51, 17]<br/>class = sad>, fillcolor="#d5eafa"] ;
113 -> 117 ;
118 [label=<entropy = 1.578<br/>samples = 70<br/>value = [1, 23, 33, 13]<br/>class = sad>, fillcolor="#d5eaf9"] ;
117 -> 118 ;
119 [label=<entropy = 1.781<br/>samples = 52<br/>value = [21, 9, 18, 4]<br/>class = angry>, fillcolor="#fdf4ee"] ;
117 -> 119 ;
120 [label=<landmark_282_z &le; -0.118<br/>entropy = 1.19<br/>samples = 79<br/>value = [3, 54, 20, 2]<br/>class = happy>, fillcolor="#95f08d"] ;
112 -> 120 ;
121 [label=<landmark_48_z &le; -0.03<br/>entropy = 0.612<br/>samples = 51<br/>value = [2, 46, 1, 2]<br/>class = happy>, fillcolor="#5ae84d"] ;
120 -> 121 ;
122 [label=<entropy = 1.198<br/>samples = 13<br/>value = [2, 9, 0, 2]<br/>class = happy>, fillcolor="#8aee81"] ;
121 -> 122 ;
123 [label=<entropy = 0.176<br/>samples = 38<br/>value = [0, 37, 1, 0]<br/>class = happy>, fillcolor="#4ce63e"] ;
121 -> 123 ;
124 [label=<landmark_428_y &le; 0.662<br/>entropy = 1.068<br/>samples = 28<br/>value = [1, 8, 19, 0]<br/>class = sad>, fillcolor="#92c9f1"] ;
120 -> 124 ;
125 [label=<entropy = 0.0<br/>samples = 6<br/>value = [0, 6, 0, 0]<br/>class = happy>, fillcolor="#47e539"] ;
124 -> 125 ;
126 [label=<entropy = 0.7<br/>samples = 22<br/>value = [1, 2, 19, 0]<br/>class = sad>, fillcolor="#57ace9"] ;
124 -> 126 ;
}