digraph Tree {
node [shape=box, style="filled, rounded", color="black", fontname="helvetica"] ;
edge [fontname="helvetica"] ;
0 [label="lm_245_y <= 0.473\ngini = 0.742\nsamples = 6701\nvalue = [2727, 1853, 3015, 2969]\nclass = neutral", fillcolor="#fefeff"] ;
1 [label="lm_107_z <= 0.036\ngini = 0.668\nsamples = 3797\nvalue = [2286, 214, 1234, 2291]\nclass = sad", fillcolor="#ffffff"] ;
0 -> 1 [labeldistance=2.5, labelangle=45, headlabel="True"] ;
2 [label="lm_296_y <= 0.338\ngini = 0.665\nsamples = 2706\nvalue = [1372, 116, 987, 1807]\nclass = sad", fillcolor="#f9e1fb"] ;
1 -> 2 ;
3 [label="lm_330_y <= 0.505\ngini = 0.651\nsamples = 1059\nvalue = [387.0, 39.0, 468.0, 778.0]\nclass = sad", fillcolor="#f5ccf8"] ;
2 -> 3 ;
4 [label="lm_477_z <= 0.016\ngini = 0.68\nsamples = 414\nvalue = [226.0, 27.0, 154.0, 249.0]\nclass = sad", fillcolor="#fdf4fe"] ;
3 -> 4 ;
5 [label="lm_211_y <= 0.779\ngini = 0.639\nsamples = 176\nvalue = [54, 12, 71, 140]\nclass = sad", fillcolor="#f2bdf6"] ;
4 -> 5 ;
6 [label="lm_106_y <= 0.294\ngini = 0.635\nsamples = 76\nvalue = [13, 6, 50, 47]\nclass = neutral", fillcolor="#f6fbfe"] ;
5 -> 6 ;
7 [label="lm_110_y <= 0.162\ngini = 0.43\nsamples = 25\nvalue = [5, 2, 31, 4]\nclass = neutral", fillcolor="#74baed"] ;
6 -> 7 ;
8 [label="lm_329_z <= -0.073\ngini = 0.245\nsamples = 22\nvalue = [1, 0, 31, 4]\nclass = neutral", fillcolor="#58ace9"] ;
7 -> 8 ;
9 [label="lm_1_y <= 0.661\ngini = 0.571\nsamples = 6\nvalue = [1, 0, 2, 4]\nclass = sad", fillcolor="#efb0f5"] ;
8 -> 9 ;
10 [label="lm_232_x <= 0.354\ngini = 0.444\nsamples = 3\nvalue = [1, 0, 2, 0]\nclass = neutral", fillcolor="#9ccef2"] ;
9 -> 10 ;
11 [label="gini = 0.0\nsamples = 2\nvalue = [0, 0, 2, 0]\nclass = neutral", fillcolor="#399de5"] ;
10 -> 11 ;
12 [label="gini = 0.0\nsamples = 1\nvalue = [1, 0, 0, 0]\nclass = anger", fillcolor="#e58139"] ;
10 -> 12 ;
13 [label="gini = 0.0\nsamples = 3\nvalue = [0, 0, 0, 4]\nclass = sad", fillcolor="#d739e5"] ;
9 -> 13 ;
14 [label="gini = 0.0\nsamples = 16\nvalue = [0, 0, 29, 0]\nclass = neutral", fillcolor="#399de5"] ;
8 -> 14 ;
15 [label="lm_370_x <= 0.591\ngini = 0.444\nsamples = 3\nvalue = [4, 2, 0, 0]\nclass = anger", fillcolor="#f2c09c"] ;
7 -> 15 ;
16 [label="gini = 0.0\nsamples = 1\nvalue = [0, 2, 0, 0]\nclass = happy", fillcolor="#47e539"] ;
15 -> 16 ;
17 [label="gini = 0.0\nsamples = 2\nvalue = [4, 0, 0, 0]\nclass = anger", fillcolor="#e58139"] ;
15 -> 17 ;
18 [label="lm_413_x <= 0.509\ngini = 0.582\nsamples = 51\nvalue = [8.0, 4.0, 19.0, 43.0]\nclass = sad", fillcolor="#eea9f4"] ;
6 -> 18 ;
19 [label="gini = 0.0\nsamples = 7\nvalue = [0, 0, 10, 0]\nclass = neutral", fillcolor="#399de5"] ;
18 -> 19 ;
20 [label="lm_127_y <= 0.52\ngini = 0.509\nsamples = 44\nvalue = [8, 4, 9, 43]\nclass = sad", fillcolor="#e685ef"] ;
18 -> 20 ;
21 [label="lm_300_z <= -0.029\ngini = 0.709\nsamples = 27\nvalue = [7, 4, 8, 13]\nclass = sad", fillcolor="#f7d6fa"] ;
20 -> 21 ;
22 [label="lm_198_x <= 0.494\ngini = 0.681\nsamples = 17\nvalue = [7, 4, 7, 1]\nclass = anger", fillcolor="#ffffff"] ;
21 -> 22 ;
23 [label="lm_105_y <= 0.287\ngini = 0.375\nsamples = 6\nvalue = [0, 2, 6, 0]\nclass = neutral", fillcolor="#7bbeee"] ;
22 -> 23 ;
24 [label="gini = 0.0\nsamples = 4\nvalue = [0, 0, 6, 0]\nclass = neutral", fillcolor="#399de5"] ;
23 -> 24 ;
25 [label="gini = 0.0\nsamples = 2\nvalue = [0, 2, 0, 0]\nclass = happy", fillcolor="#47e539"] ;
23 -> 25 ;
26 [label="lm_416_x <= 0.621\ngini = 0.545\nsamples = 11\nvalue = [7, 2, 1, 1]\nclass = anger", fillcolor="#f1b991"] ;
22 -> 26 ;
27 [label="lm_360_z <= 0.018\ngini = 0.219\nsamples = 8\nvalue = [7, 0, 0, 1]\nclass = anger", fillcolor="#e99355"] ;
26 -> 27 ;
28 [label="gini = 0.0\nsamples = 1\nvalue = [0, 0, 0, 1]\nclass = sad", fillcolor="#d739e5"] ;
27 -> 28 ;
29 [label="gini = 0.0\nsamples = 7\nvalue = [7, 0, 0, 0]\nclass = anger", fillcolor="#e58139"] ;
27 -> 29 ;
30 [label="lm_277_y <= 0.311\ngini = 0.444\nsamples = 3\nvalue = [0, 2, 1, 0]\nclass = happy", fillcolor="#a3f29c"] ;
26 -> 30 ;
31 [label="gini = 0.0\nsamples = 1\nvalue = [0, 0, 1, 0]\nclass = neutral", fillcolor="#399de5"] ;
30 -> 31 ;
32 [label="gini = 0.0\nsamples = 2\nvalue = [0, 2, 0, 0]\nclass = happy", fillcolor="#47e539"] ;
30 -> 32 ;
33 [label="lm_49_x <= 0.432\ngini = 0.142\nsamples = 10\nvalue = [0, 0, 1, 12]\nclass = sad", fillcolor="#da49e7"] ;
21 -> 33 ;
34 [label="gini = 0.0\nsamples = 9\nvalue = [0, 0, 0, 12]\nclass = sad", fillcolor="#d739e5"] ;
33 -> 34 ;
35 [label="gini = 0.0\nsamples = 1\nvalue = [0, 0, 1, 0]\nclass = neutral", fillcolor="#399de5"] ;
33 -> 35 ;
36 [label="lm_143_z <= -0.029\ngini = 0.119\nsamples = 17\nvalue = [1, 0, 1, 30]\nclass = sad", fillcolor="#da46e7"] ;
20 -> 36 ;
37 [label="lm_395_z <= 0.125\ngini = 0.5\nsamples = 2\nvalue = [1, 0, 1, 0]\nclass = anger", fillcolor="#ffffff"] ;
36 -> 37 ;
38 [label="gini = 0.0\nsamples = 1\nvalue = [1, 0, 0, 0]\nclass = anger", fillcolor="#e58139"] ;
37 -> 38 ;
39 [label="gini = 0.0\nsamples = 1\nvalue = [0, 0, 1, 0]\nclass = neutral", fillcolor="#399de5"] ;
37 -> 39 ;
40 [label="gini = 0.0\nsamples = 15\nvalue = [0, 0, 0, 30]\nclass = sad", fillcolor="#d739e5"] ;
36 -> 40 ;
41 [label="lm_369_y <= 0.276\ngini = 0.583\nsamples = 100\nvalue = [41, 6, 21, 93]\nclass = sad", fillcolor="#eea9f4"] ;
5 -> 41 ;
42 [label="lm_470_y <= 0.415\ngini = 0.499\nsamples = 13\nvalue = [12, 0, 6, 1]\nclass = anger", fillcolor="#f3c5a4"] ;
41 -> 42 ;
43 [label="lm_122_z <= -0.015\ngini = 0.32\nsamples = 4\nvalue = [0, 0, 4, 1]\nclass = neutral", fillcolor="#6ab6ec"] ;
42 -> 43 ;
44 [label="gini = 0.0\nsamples = 3\nvalue = [0, 0, 4, 0]\nclass = neutral", fillcolor="#399de5"] ;
43 -> 44 ;
45 [label="gini = 0.0\nsamples = 1\nvalue = [0, 0, 0, 1]\nclass = sad", fillcolor="#d739e5"] ;
43 -> 45 ;
46 [label="lm_227_x <= 0.249\ngini = 0.245\nsamples = 9\nvalue = [12, 0, 2, 0]\nclass = anger", fillcolor="#e9965a"] ;
42 -> 46 ;
47 [label="gini = 0.0\nsamples = 7\nvalue = [12, 0, 0, 0]\nclass = anger", fillcolor="#e58139"] ;
46 -> 47 ;
48 [label="gini = 0.0\nsamples = 2\nvalue = [0, 0, 2, 0]\nclass = neutral", fillcolor="#399de5"] ;
46 -> 48 ;
49 [label="lm_168_y <= 0.638\ngini = 0.526\nsamples = 87\nvalue = [29, 6, 15, 92]\nclass = sad", fillcolor="#e991f1"] ;
41 -> 49 ;
50 [label="lm_102_z <= 0.034\ngini = 0.34\nsamples = 12\nvalue = [18, 0, 0, 5]\nclass = anger", fillcolor="#eca470"] ;
49 -> 50 ;
51 [label="gini = 0.0\nsamples = 9\nvalue = [17, 0, 0, 0]\nclass = anger", fillcolor="#e58139"] ;
50 -> 51 ;
52 [label="lm_375_x <= 0.601\ngini = 0.278\nsamples = 3\nvalue = [1, 0, 0, 5]\nclass = sad", fillcolor="#df61ea"] ;
50 -> 52 ;
53 [label="gini = 0.0\nsamples = 1\nvalue = [1, 0, 0, 0]\nclass = anger", fillcolor="#e58139"] ;
52 -> 53 ;
54 [label="gini = 0.0\nsamples = 2\nvalue = [0, 0, 0, 5]\nclass = sad", fillcolor="#d739e5"] ;
52 -> 54 ;
55 [label="lm_357_z <= 0.233\ngini = 0.439\nsamples = 75\nvalue = [11, 6, 15, 87]\nclass = sad", fillcolor="#e376ed"] ;
49 -> 55 ;
56 [label="lm_328_y <= 0.604\ngini = 0.685\nsamples = 13\nvalue = [2, 3, 8, 7]\nclass = neutral", fillcolor="#f0f7fd"] ;
55 -> 56 ;
57 [label="lm_58_x <= 0.385\ngini = 0.627\nsamples = 9\nvalue = [2, 3, 1, 7]\nclass = sad", fillcolor="#efb0f5"] ;
56 -> 57 ;
58 [label="lm_307_x <= 0.646\ngini = 0.48\nsamples = 5\nvalue = [2, 3, 0, 0]\nclass = happy", fillcolor="#c2f6bd"] ;
57 -> 58 ;
59 [label="gini = 0.0\nsamples = 2\nvalue = [2, 0, 0, 0]\nclass = anger", fillcolor="#e58139"] ;
58 -> 59 ;
60 [label="gini = 0.0\nsamples = 3\nvalue = [0, 3, 0, 0]\nclass = happy", fillcolor="#47e539"] ;
58 -> 60 ;
61 [label="lm_105_z <= 0.053\ngini = 0.219\nsamples = 4\nvalue = [0, 0, 1, 7]\nclass = sad", fillcolor="#dd55e9"] ;
57 -> 61 ;
62 [label="gini = 0.0\nsamples = 3\nvalue = [0, 0, 0, 7]\nclass = sad", fillcolor="#d739e5"] ;
61 -> 62 ;
63 [label="gini = 0.0\nsamples = 1\nvalue = [0, 0, 1, 0]\nclass = neutral", fillcolor="#399de5"] ;
61 -> 63 ;
64 [label="gini = 0.0\nsamples = 4\nvalue = [0, 0, 7, 0]\nclass = neutral", fillcolor="#399de5"] ;
56 -> 64 ;
65 [label="lm_160_y <= 0.408\ngini = 0.333\nsamples = 62\nvalue = [9, 3, 7, 80]\nclass = sad", fillcolor="#df63ea"] ;
55 -> 65 ;
66 [label="lm_342_y <= 0.404\ngini = 0.578\nsamples = 29\nvalue = [9, 3, 6, 27]\nclass = sad", fillcolor="#eb9cf2"] ;
65 -> 66 ;
67 [label="lm_217_x <= 0.345\ngini = 0.196\nsamples = 16\nvalue = [2, 0, 1, 25]\nclass = sad", fillcolor="#dc50e8"] ;
66 -> 67 ;
68 [label="lm_411_y <= 0.751\ngini = 0.074\nsamples = 15\nvalue = [0, 0, 1, 25]\nclass = sad", fillcolor="#d941e6"] ;
67 -> 68 ;
69 [label="gini = 0.0\nsamples = 14\nvalue = [0, 0, 0, 25]\nclass = sad", fillcolor="#d739e5"] ;
68 -> 69 ;
70 [label="gini = 0.0\nsamples = 1\nvalue = [0, 0, 1, 0]\nclass = neutral", fillcolor="#399de5"] ;
68 -> 70 ;
71 [label="gini = 0.0\nsamples = 1\nvalue = [2, 0, 0, 0]\nclass = anger", fillcolor="#e58139"] ;
67 -> 71 ;
72 [label="lm_466_y <= 0.421\ngini = 0.699\nsamples = 13\nvalue = [7, 3, 5, 2]\nclass = anger", fillcolor="#fbeade"] ;
66 -> 72 ;
73 [label="lm_419_y <= 0.847\ngini = 0.278\nsamples = 4\nvalue = [0, 0, 5, 1]\nclass = neutral", fillcolor="#61b1ea"] ;
72 -> 73 ;
74 [label="gini = 0.0\nsamples = 1\nvalue = [0, 0, 0, 1]\nclass = sad", fillcolor="#d739e5"] ;
73 -> 74 ;
75 [label="gini = 0.0\nsamples = 3\nvalue = [0, 0, 5, 0]\nclass = neutral", fillcolor="#399de5"] ;
73 -> 75 ;
76 [label="lm_185_y <= 0.728\ngini = 0.512\nsamples = 9\nvalue = [7, 3, 0, 1]\nclass = anger", fillcolor="#f2c09c"] ;
72 -> 76 ;
77 [label="lm_408_x <= 0.614\ngini = 0.375\nsamples = 3\nvalue = [0, 3, 0, 1]\nclass = happy", fillcolor="#84ee7b"] ;
76 -> 77 ;
78 [label="gini = 0.0\nsamples = 1\nvalue = [0, 0, 0, 1]\nclass = sad", fillcolor="#d739e5"] ;
77 -> 78 ;
79 [label="gini = 0.0\nsamples = 2\nvalue = [0, 3, 0, 0]\nclass = happy", fillcolor="#47e539"] ;
77 -> 79 ;
80 [label="gini = 0.0\nsamples = 6\nvalue = [7, 0, 0, 0]\nclass = anger", fillcolor="#e58139"] ;
76 -> 80 ;
81 [label="lm_290_x <= 0.566\ngini = 0.036\nsamples = 33\nvalue = [0, 0, 1, 53]\nclass = sad", fillcolor="#d83de5"] ;
65 -> 81 ;
82 [label="lm_240_x <= 0.452\ngini = 0.375\nsamples = 4\nvalue = [0, 0, 1, 3]\nclass = sad", fillcolor="#e47bee"] ;
81 -> 82 ;
83 [label="gini = 0.0\nsamples = 3\nvalue = [0, 0, 0, 3]\nclass = sad", fillcolor="#d739e5"] ;
82 -> 83 ;
84 [label="gini = 0.0\nsamples = 1\nvalue = [0, 0, 1, 0]\nclass = neutral", fillcolor="#399de5"] ;
82 -> 84 ;
85 [label="gini = 0.0\nsamples = 29\nvalue = [0, 0, 0, 50]\nclass = sad", fillcolor="#d739e5"] ;
81 -> 85 ;
86 [label="lm_425_y <= 0.773\ngini = 0.662\nsamples = 238\nvalue = [172.0, 15.0, 83.0, 109.0]\nclass = anger", fillcolor="#f9e2d1"] ;
4 -> 86 ;
87 [label="lm_405_z <= -0.033\ngini = 0.685\nsamples = 108\nvalue = [49, 6, 60, 62]\nclass = sad", fillcolor="#fefcff"] ;
86 -> 87 ;
88 [label="lm_468_x <= 0.712\ngini = 0.649\nsamples = 77\nvalue = [26, 3, 59, 43]\nclass = neutral", fillcolor="#dbedfa"] ;
87 -> 88 ;
89 [label="lm_354_x <= 0.717\ngini = 0.666\nsamples = 58\nvalue = [24.0, 2.0, 32.0, 40.0]\nclass = sad", fillcolor="#fae7fc"] ;
88 -> 89 ;
90 [label="lm_278_y <= 0.48\ngini = 0.444\nsamples = 25\nvalue = [5, 0, 28, 6]\nclass = neutral", fillcolor="#7bbeee"] ;
89 -> 90 ;
91 [label="lm_365_y <= 0.735\ngini = 0.271\nsamples = 20\nvalue = [5, 0, 26, 0]\nclass = neutral", fillcolor="#5fb0ea"] ;
90 -> 91 ;
92 [label="lm_140_x <= 0.151\ngini = 0.074\nsamples = 17\nvalue = [1, 0, 25, 0]\nclass = neutral", fillcolor="#41a1e6"] ;
91 -> 92 ;
93 [label="gini = 0.0\nsamples = 1\nvalue = [1, 0, 0, 0]\nclass = anger", fillcolor="#e58139"] ;
92 -> 93 ;
94 [label="gini = 0.0\nsamples = 16\nvalue = [0, 0, 25, 0]\nclass = neutral", fillcolor="#399de5"] ;
92 -> 94 ;
95 [label="lm_62_z <= -0.068\ngini = 0.32\nsamples = 3\nvalue = [4, 0, 1, 0]\nclass = anger", fillcolor="#eca06a"] ;
91 -> 95 ;
96 [label="gini = 0.0\nsamples = 1\nvalue = [0, 0, 1, 0]\nclass = neutral", fillcolor="#399de5"] ;
95 -> 96 ;
97 [label="gini = 0.0\nsamples = 2\nvalue = [4, 0, 0, 0]\nclass = anger", fillcolor="#e58139"] ;
95 -> 97 ;
98 [label="lm_290_x <= 0.605\ngini = 0.375\nsamples = 5\nvalue = [0, 0, 2, 6]\nclass = sad", fillcolor="#e47bee"] ;
90 -> 98 ;
99 [label="gini = 0.0\nsamples = 4\nvalue = [0, 0, 0, 6]\nclass = sad", fillcolor="#d739e5"] ;
98 -> 99 ;
100 [label="gini = 0.0\nsamples = 1\nvalue = [0, 0, 2, 0]\nclass = neutral", fillcolor="#399de5"] ;
98 -> 100 ;
101 [label="lm_141_x <= 0.441\ngini = 0.558\nsamples = 33\nvalue = [19, 2, 4, 34]\nclass = sad", fillcolor="#f0b5f5"] ;
89 -> 101 ;
102 [label="lm_76_z <= -0.054\ngini = 0.398\nsamples = 21\nvalue = [3, 2, 4, 29]\nclass = sad", fillcolor="#e26dec"] ;
101 -> 102 ;
103 [label="lm_441_z <= -0.125\ngini = 0.302\nsamples = 20\nvalue = [3.0, 2.0, 1.0, 29.0]\nclass = sad", fillcolor="#de5eea"] ;
102 -> 103 ;
104 [label="lm_171_z <= 0.016\ngini = 0.64\nsamples = 3\nvalue = [2, 2, 1, 0]\nclass = anger", fillcolor="#ffffff"] ;
103 -> 104 ;
105 [label="gini = 0.0\nsamples = 1\nvalue = [0, 2, 0, 0]\nclass = happy", fillcolor="#47e539"] ;
104 -> 105 ;
106 [label="lm_205_y <= 0.779\ngini = 0.444\nsamples = 2\nvalue = [2, 0, 1, 0]\nclass = anger", fillcolor="#f2c09c"] ;
104 -> 106 ;
107 [label="gini = 0.0\nsamples = 1\nvalue = [2, 0, 0, 0]\nclass = anger", fillcolor="#e58139"] ;
106 -> 107 ;
108 [label="gini = 0.0\nsamples = 1\nvalue = [0, 0, 1, 0]\nclass = neutral", fillcolor="#399de5"] ;
106 -> 108 ;
109 [label="lm_65_z <= -0.085\ngini = 0.064\nsamples = 17\nvalue = [1, 0, 0, 29]\nclass = sad", fillcolor="#d840e6"] ;
103 -> 109 ;
110 [label="gini = 0.0\nsamples = 1\nvalue = [1, 0, 0, 0]\nclass = anger", fillcolor="#e58139"] ;
109 -> 110 ;
111 [label="gini = 0.0\nsamples = 16\nvalue = [0, 0, 0, 29]\nclass = sad", fillcolor="#d739e5"] ;
109 -> 111 ;
112 [label="gini = 0.0\nsamples = 1\nvalue = [0, 0, 3, 0]\nclass = neutral", fillcolor="#399de5"] ;
102 -> 112 ;
113 [label="lm_397_x <= 0.628\ngini = 0.363\nsamples = 12\nvalue = [16, 0, 0, 5]\nclass = anger", fillcolor="#eda877"] ;
101 -> 113 ;
114 [label="gini = 0.0\nsamples = 6\nvalue = [14, 0, 0, 0]\nclass = anger", fillcolor="#e58139"] ;
113 -> 114 ;
115 [label="lm_271_y <= 0.636\ngini = 0.408\nsamples = 6\nvalue = [2, 0, 0, 5]\nclass = sad", fillcolor="#e788ef"] ;
113 -> 115 ;
116 [label="gini = 0.0\nsamples = 2\nvalue = [2, 0, 0, 0]\nclass = anger", fillcolor="#e58139"] ;
115 -> 116 ;
117 [label="gini = 0.0\nsamples = 4\nvalue = [0, 0, 0, 5]\nclass = sad", fillcolor="#d739e5"] ;
115 -> 117 ;
118 [label="lm_474_x <= 0.646\ngini = 0.318\nsamples = 19\nvalue = [2, 1, 27, 3]\nclass = neutral", fillcolor="#61b1ea"] ;
88 -> 118 ;
119 [label="lm_49_y <= 0.521\ngini = 0.069\nsamples = 14\nvalue = [0, 1, 27, 0]\nclass = neutral", fillcolor="#40a1e6"] ;
118 -> 119 ;
120 [label="gini = 0.0\nsamples = 1\nvalue = [0, 1, 0, 0]\nclass = happy", fillcolor="#47e539"] ;
119 -> 120 ;
121 [label="gini = 0.0\nsamples = 13\nvalue = [0, 0, 27, 0]\nclass = neutral", fillcolor="#399de5"] ;
119 -> 121 ;
122 [label="lm_325_y <= 0.669\ngini = 0.48\nsamples = 5\nvalue = [2, 0, 0, 3]\nclass = sad", fillcolor="#f2bdf6"] ;
118 -> 122 ;
123 [label="gini = 0.0\nsamples = 2\nvalue = [2, 0, 0, 0]\nclass = anger", fillcolor="#e58139"] ;
122 -> 123 ;
124 [label="gini = 0.0\nsamples = 3\nvalue = [0, 0, 0, 3]\nclass = sad", fillcolor="#d739e5"] ;
122 -> 124 ;
125 [label="lm_413_z <= -0.042\ngini = 0.575\nsamples = 31\nvalue = [23, 3, 1, 19]\nclass = anger", fillcolor="#fbece2"] ;
87 -> 125 ;
126 [label="lm_408_x <= 0.639\ngini = 0.547\nsamples = 19\nvalue = [8, 3, 1, 19]\nclass = sad", fillcolor="#eca0f3"] ;
125 -> 126 ;
127 [label="lm_283_z <= -0.027\ngini = 0.236\nsamples = 13\nvalue = [3, 0, 0, 19]\nclass = sad", fillcolor="#dd58e9"] ;
126 -> 127 ;
128 [label="gini = 0.0\nsamples = 3\nvalue = [3, 0, 0, 0]\nclass = anger", fillcolor="#e58139"] ;
127 -> 128 ;
129 [label="gini = 0.0\nsamples = 10\nvalue = [0, 0, 0, 19]\nclass = sad", fillcolor="#d739e5"] ;
127 -> 129 ;
130 [label="lm_362_z <= 0.341\ngini = 0.568\nsamples = 6\nvalue = [5, 3, 1, 0]\nclass = anger", fillcolor="#f6d5bd"] ;
126 -> 130 ;
131 [label="lm_461_x <= 0.614\ngini = 0.375\nsamples = 4\nvalue = [0, 3, 1, 0]\nclass = happy", fillcolor="#84ee7b"] ;
130 -> 131 ;
132 [label="gini = 0.0\nsamples = 3\nvalue = [0, 3, 0, 0]\nclass = happy", fillcolor="#47e539"] ;
131 -> 132 ;
133 [label="gini = 0.0\nsamples = 1\nvalue = [0, 0, 1, 0]\nclass = neutral", fillcolor="#399de5"] ;
131 -> 133 ;
134 [label="gini = 0.0\nsamples = 2\nvalue = [5, 0, 0, 0]\nclass = anger", fillcolor="#e58139"] ;
130 -> 134 ;
135 [label="gini = 0.0\nsamples = 12\nvalue = [15, 0, 0, 0]\nclass = anger", fillcolor="#e58139"] ;
125 -> 135 ;
136 [label="lm_189_y <= 0.471\ngini = 0.56\nsamples = 130\nvalue = [123, 9, 23, 47]\nclass = anger", fillcolor="#f2c19e"] ;
86 -> 136 ;
137 [label="lm_404_y <= 0.778\ngini = 0.532\nsamples = 120\nvalue = [122, 9, 23, 35]\nclass = anger", fillcolor="#f0b88f"] ;
136 -> 137 ;
138 [label="lm_226_y <= 0.374\ngini = 0.627\nsamples = 79\nvalue = [64, 5, 23, 30]\nclass = anger", fillcolor="#f5d0b6"] ;
137 -> 138 ;
139 [label="lm_150_y <= 0.895\ngini = 0.643\nsamples = 33\nvalue = [10, 0, 19, 19]\nclass = neutral", fillcolor="#ffffff"] ;
138 -> 139 ;
140 [label="lm_326_x <= 0.573\ngini = 0.561\nsamples = 21\nvalue = [8, 0, 4, 17]\nclass = sad", fillcolor="#eeaaf4"] ;
139 -> 140 ;
141 [label="lm_27_z <= 0.011\ngini = 0.346\nsamples = 5\nvalue = [7, 0, 2, 0]\nclass = anger", fillcolor="#eca572"] ;
140 -> 141 ;
142 [label="gini = 0.0\nsamples = 2\nvalue = [0, 0, 2, 0]\nclass = neutral", fillcolor="#399de5"] ;
141 -> 142 ;
143 [label="gini = 0.0\nsamples = 3\nvalue = [7, 0, 0, 0]\nclass = anger", fillcolor="#e58139"] ;
141 -> 143 ;
144 [label="lm_467_y <= 0.392\ngini = 0.265\nsamples = 16\nvalue = [1, 0, 2, 17]\nclass = sad", fillcolor="#de5ae9"] ;
140 -> 144 ;
145 [label="lm_58_y <= 0.712\ngini = 0.5\nsamples = 2\nvalue = [1, 0, 1, 0]\nclass = anger", fillcolor="#ffffff"] ;
144 -> 145 ;
146 [label="gini = 0.0\nsamples = 1\nvalue = [1, 0, 0, 0]\nclass = anger", fillcolor="#e58139"] ;
145 -> 146 ;
147 [label="gini = 0.0\nsamples = 1\nvalue = [0, 0, 1, 0]\nclass = neutral", fillcolor="#399de5"] ;
145 -> 147 ;
148 [label="lm_186_x <= 0.367\ngini = 0.105\nsamples = 14\nvalue = [0, 0, 1, 17]\nclass = sad", fillcolor="#d945e7"] ;
144 -> 148 ;
149 [label="gini = 0.0\nsamples = 1\nvalue = [0, 0, 1, 0]\nclass = neutral", fillcolor="#399de5"] ;
148 -> 149 ;
150 [label="gini = 0.0\nsamples = 13\nvalue = [0, 0, 0, 17]\nclass = sad", fillcolor="#d739e5"] ;
148 -> 150 ;
151 [label="lm_411_x <= 0.662\ngini = 0.355\nsamples = 12\nvalue = [2, 0, 15, 2]\nclass = neutral", fillcolor="#68b4eb"] ;
139 -> 151 ;
152 [label="gini = 0.0\nsamples = 8\nvalue = [0, 0, 14, 0]\nclass = neutral", fillcolor="#399de5"] ;
151 -> 152 ;
153 [label="lm_73_x <= 0.477\ngini = 0.64\nsamples = 4\nvalue = [2, 0, 1, 2]\nclass = anger", fillcolor="#ffffff"] ;
151 -> 153 ;
154 [label="gini = 0.0\nsamples = 2\nvalue = [0, 0, 0, 2]\nclass = sad", fillcolor="#d739e5"] ;
153 -> 154 ;
155 [label="lm_205_z <= 0.018\ngini = 0.444\nsamples = 2\nvalue = [2, 0, 1, 0]\nclass = anger", fillcolor="#f2c09c"] ;
153 -> 155 ;
156 [label="gini = 0.0\nsamples = 1\nvalue = [0, 0, 1, 0]\nclass = neutral", fillcolor="#399de5"] ;
155 -> 156 ;
157 [label="gini = 0.0\nsamples = 1\nvalue = [2, 0, 0, 0]\nclass = anger", fillcolor="#e58139"] ;
155 -> 157 ;
158 [label="lm_246_z <= 0.029\ngini = 0.438\nsamples = 46\nvalue = [54, 5, 4, 11]\nclass = anger", fillcolor="#eda978"] ;
138 -> 158 ;
159 [label="lm_344_y <= 0.452\ngini = 0.355\nsamples = 42\nvalue = [54, 5, 4, 5]\nclass = anger", fillcolor="#eb9d65"] ;
158 -> 159 ;
160 [label="gini = 0.0\nsamples = 4\nvalue = [0, 0, 0, 4]\nclass = sad", fillcolor="#d739e5"] ;
159 -> 160 ;
161 [label="lm_186_x <= 0.368\ngini = 0.278\nsamples = 38\nvalue = [54, 5, 4, 1]\nclass = anger", fillcolor="#e9965b"] ;
159 -> 161 ;
162 [label="gini = 0.0\nsamples = 2\nvalue = [0, 5, 0, 0]\nclass = happy", fillcolor="#47e539"] ;
161 -> 162 ;
163 [label="lm_18_y <= 0.82\ngini = 0.157\nsamples = 36\nvalue = [54, 0, 4, 1]\nclass = anger", fillcolor="#e78c4b"] ;
161 -> 163 ;
164 [label="lm_352_y <= 0.441\ngini = 0.07\nsamples = 34\nvalue = [54, 0, 1, 1]\nclass = anger", fillcolor="#e68640"] ;
163 -> 164 ;
165 [label="gini = 0.0\nsamples = 32\nvalue = [54, 0, 0, 0]\nclass = anger", fillcolor="#e58139"] ;
164 -> 165 ;
166 [label="lm_393_y <= 0.589\ngini = 0.5\nsamples = 2\nvalue = [0, 0, 1, 1]\nclass = neutral", fillcolor="#ffffff"] ;
164 -> 166 ;
167 [label="gini = 0.0\nsamples = 1\nvalue = [0, 0, 1, 0]\nclass = neutral", fillcolor="#399de5"] ;
166 -> 167 ;
168 [label="gini = 0.0\nsamples = 1\nvalue = [0, 0, 0, 1]\nclass = sad", fillcolor="#d739e5"] ;
166 -> 168 ;
169 [label="gini = 0.0\nsamples = 2\nvalue = [0, 0, 3, 0]\nclass = neutral", fillcolor="#399de5"] ;
163 -> 169 ;
170 [label="gini = 0.0\nsamples = 4\nvalue = [0, 0, 0, 6]\nclass = sad", fillcolor="#d739e5"] ;
158 -> 170 ;
171 [label="lm_359_y <= 0.588\ngini = 0.241\nsamples = 41\nvalue = [58.0, 4.0, 0.0, 5.0]\nclass = anger", fillcolor="#e99356"] ;
137 -> 171 ;
172 [label="lm_310_y <= 0.601\ngini = 0.149\nsamples = 39\nvalue = [58, 3, 0, 2]\nclass = anger", fillcolor="#e78c49"] ;
171 -> 172 ;
173 [label="lm_243_x <= 0.519\ngini = 0.095\nsamples = 38\nvalue = [58, 1, 0, 2]\nclass = anger", fillcolor="#e68743"] ;
172 -> 173 ;
174 [label="lm_93_x <= 0.337\ngini = 0.064\nsamples = 37\nvalue = [58, 0, 0, 2]\nclass = anger", fillcolor="#e68540"] ;
173 -> 174 ;
175 [label="gini = 0.0\nsamples = 1\nvalue = [0, 0, 0, 1]\nclass = sad", fillcolor="#d739e5"] ;
174 -> 175 ;
176 [label="lm_76_z <= -0.073\ngini = 0.033\nsamples = 36\nvalue = [58, 0, 0, 1]\nclass = anger", fillcolor="#e5833c"] ;
174 -> 176 ;
177 [label="gini = 0.0\nsamples = 28\nvalue = [49, 0, 0, 0]\nclass = anger", fillcolor="#e58139"] ;
176 -> 177 ;
178 [label="lm_198_y <= 0.458\ngini = 0.18\nsamples = 8\nvalue = [9, 0, 0, 1]\nclass = anger", fillcolor="#e88f4f"] ;
176 -> 178 ;
179 [label="gini = 0.0\nsamples = 1\nvalue = [0, 0, 0, 1]\nclass = sad", fillcolor="#d739e5"] ;
178 -> 179 ;
180 [label="gini = 0.0\nsamples = 7\nvalue = [9, 0, 0, 0]\nclass = anger", fillcolor="#e58139"] ;
178 -> 180 ;
181 [label="gini = 0.0\nsamples = 1\nvalue = [0, 1, 0, 0]\nclass = happy", fillcolor="#47e539"] ;
173 -> 181 ;
182 [label="gini = 0.0\nsamples = 1\nvalue = [0, 2, 0, 0]\nclass = happy", fillcolor="#47e539"] ;
172 -> 182 ;
183 [label="lm_152_z <= -0.093\ngini = 0.375\nsamples = 2\nvalue = [0, 1, 0, 3]\nclass = sad", fillcolor="#e47bee"] ;
171 -> 183 ;
184 [label="gini = 0.0\nsamples = 1\nvalue = [0, 1, 0, 0]\nclass = happy", fillcolor="#47e539"] ;
183 -> 184 ;
185 [label="gini = 0.0\nsamples = 1\nvalue = [0, 0, 0, 3]\nclass = sad", fillcolor="#d739e5"] ;
183 -> 185 ;
186 [label="lm_282_x <= 0.58\ngini = 0.142\nsamples = 10\nvalue = [1, 0, 0, 12]\nclass = sad", fillcolor="#da49e7"] ;
136 -> 186 ;
187 [label="gini = 0.0\nsamples = 9\nvalue = [0, 0, 0, 12]\nclass = sad", fillcolor="#d739e5"] ;
186 -> 187 ;
188 [label="gini = 0.0\nsamples = 1\nvalue = [1, 0, 0, 0]\nclass = anger", fillcolor="#e58139"] ;
186 -> 188 ;
189 [label="lm_91_y <= 0.782\ngini = 0.608\nsamples = 645\nvalue = [161, 12, 314, 529]\nclass = sad", fillcolor="#f3c2f7"] ;
3 -> 189 ;
190 [label="lm_340_y <= 0.431\ngini = 0.539\nsamples = 379\nvalue = [48.0, 8.0, 178.0, 354.0]\nclass = sad", fillcolor="#eeaaf4"] ;
189 -> 190 ;
191 [label="lm_107_y <= 0.792\ngini = 0.616\nsamples = 53\nvalue = [17, 0, 45, 27]\nclass = neutral", fillcolor="#c6e3f7"] ;
190 -> 191 ;
192 [label="lm_137_x <= 0.331\ngini = 0.443\nsamples = 34\nvalue = [1, 0, 39, 17]\nclass = neutral", fillcolor="#92c9f1"] ;
191 -> 192 ;
193 [label="lm_427_y <= 0.639\ngini = 0.312\nsamples = 29\nvalue = [1, 0, 39, 8]\nclass = neutral", fillcolor="#66b3eb"] ;
192 -> 193 ;
194 [label="lm_267_x <= 0.654\ngini = 0.172\nsamples = 25\nvalue = [1, 0, 39, 3]\nclass = neutral", fillcolor="#4da7e8"] ;
193 -> 194 ;
195 [label="lm_381_x <= 0.606\ngini = 0.051\nsamples = 22\nvalue = [1, 0, 37, 0]\nclass = neutral", fillcolor="#3ea0e6"] ;
194 -> 195 ;
196 [label="gini = 0.0\nsamples = 1\nvalue = [1, 0, 0, 0]\nclass = anger", fillcolor="#e58139"] ;
195 -> 196 ;
197 [label="gini = 0.0\nsamples = 21\nvalue = [0, 0, 37, 0]\nclass = neutral", fillcolor="#399de5"] ;
195 -> 197 ;
198 [label="lm_388_z <= -0.006\ngini = 0.48\nsamples = 3\nvalue = [0, 0, 2, 3]\nclass = sad", fillcolor="#f2bdf6"] ;
194 -> 198 ;
199 [label="gini = 0.0\nsamples = 2\nvalue = [0, 0, 2, 0]\nclass = neutral", fillcolor="#399de5"] ;
198 -> 199 ;
200 [label="gini = 0.0\nsamples = 1\nvalue = [0, 0, 0, 3]\nclass = sad", fillcolor="#d739e5"] ;
198 -> 200 ;
201 [label="gini = 0.0\nsamples = 4\nvalue = [0, 0, 0, 5]\nclass = sad", fillcolor="#d739e5"] ;
193 -> 201 ;
202 [label="gini = 0.0\nsamples = 5\nvalue = [0, 0, 0, 9]\nclass = sad", fillcolor="#d739e5"] ;
192 -> 202 ;
203 [label="lm_3_x <= 0.513\ngini = 0.617\nsamples = 19\nvalue = [16, 0, 6, 10]\nclass = anger", fillcolor="#f8ddc9"] ;
191 -> 203 ;
204 [label="lm_194_y <= 0.407\ngini = 0.524\nsamples = 9\nvalue = [1, 0, 5, 9]\nclass = sad", fillcolor="#efb0f5"] ;
203 -> 204 ;
205 [label="lm_107_x <= 0.389\ngini = 0.18\nsamples = 6\nvalue = [1, 0, 0, 9]\nclass = sad", fillcolor="#db4fe8"] ;
204 -> 205 ;
206 [label="gini = 0.0\nsamples = 1\nvalue = [1, 0, 0, 0]\nclass = anger", fillcolor="#e58139"] ;
205 -> 206 ;
207 [label="gini = 0.0\nsamples = 5\nvalue = [0, 0, 0, 9]\nclass = sad", fillcolor="#d739e5"] ;
205 -> 207 ;
208 [label="gini = 0.0\nsamples = 3\nvalue = [0, 0, 5, 0]\nclass = neutral", fillcolor="#399de5"] ;
204 -> 208 ;
209 [label="lm_323_x <= 0.64\ngini = 0.215\nsamples = 10\nvalue = [15, 0, 1, 1]\nclass = anger", fillcolor="#e89152"] ;
203 -> 209 ;
210 [label="gini = 0.0\nsamples = 8\nvalue = [15, 0, 0, 0]\nclass = anger", fillcolor="#e58139"] ;
209 -> 210 ;
211 [label="lm_379_x <= 0.672\ngini = 0.5\nsamples = 2\nvalue = [0, 0, 1, 1]\nclass = neutral", fillcolor="#ffffff"] ;
209 -> 211 ;
212 [label="gini = 0.0\nsamples = 1\nvalue = [0, 0, 0, 1]\nclass = sad", fillcolor="#d739e5"] ;
211 -> 212 ;
213 [label="gini = 0.0\nsamples = 1\nvalue = [0, 0, 1, 0]\nclass = neutral", fillcolor="#399de5"] ;
211 -> 213 ;
214 [label="lm_247_x <= 0.273\ngini = 0.495\nsamples = 326\nvalue = [31.0, 8.0, 133.0, 327.0]\nclass = sad", fillcolor="#ea96f1"] ;
190 -> 214 ;
215 [label="lm_383_x <= 0.601\ngini = 0.46\nsamples = 21\nvalue = [2, 0, 24, 9]\nclass = neutral", fillcolor="#8dc6f0"] ;
214 -> 215 ;
216 [label="lm_133_x <= 0.175\ngini = 0.198\nsamples = 17\nvalue = [0, 0, 24, 3]\nclass = neutral", fillcolor="#52a9e8"] ;
215 -> 216 ;
217 [label="gini = 0.0\nsamples = 14\nvalue = [0, 0, 24, 0]\nclass = neutral", fillcolor="#399de5"] ;
216 -> 217 ;
218 [label="gini = 0.0\nsamples = 3\nvalue = [0, 0, 0, 3]\nclass = sad", fillcolor="#d739e5"] ;
216 -> 218 ;
219 [label="lm_421_z <= -0.087\ngini = 0.375\nsamples = 4\nvalue = [2, 0, 0, 6]\nclass = sad", fillcolor="#e47bee"] ;
215 -> 219 ;
220 [label="gini = 0.0\nsamples = 1\nvalue = [2, 0, 0, 0]\nclass = anger", fillcolor="#e58139"] ;
219 -> 220 ;
221 [label="gini = 0.0\nsamples = 3\nvalue = [0, 0, 0, 6]\nclass = sad", fillcolor="#d739e5"] ;
219 -> 221 ;
222 [label="lm_191_y <= 0.434\ngini = 0.471\nsamples = 305\nvalue = [29, 8, 109, 318]\nclass = sad", fillcolor="#e78af0"] ;
214 -> 222 ;
223 [label="lm_213_y <= 0.766\ngini = 0.457\nsamples = 299\nvalue = [29, 8, 99, 318]\nclass = sad", fillcolor="#e685ef"] ;
222 -> 223 ;
224 [label="lm_190_y <= 0.373\ngini = 0.426\nsamples = 285\nvalue = [24, 8, 85, 315]\nclass = sad", fillcolor="#e47cee"] ;
223 -> 224 ;
225 [label="lm_328_y <= 0.603\ngini = 0.219\nsamples = 7\nvalue = [0, 1, 7, 0]\nclass = neutral", fillcolor="#55abe9"] ;
224 -> 225 ;
226 [label="gini = 0.0\nsamples = 1\nvalue = [0, 1, 0, 0]\nclass = happy", fillcolor="#47e539"] ;
225 -> 226 ;
227 [label="gini = 0.0\nsamples = 6\nvalue = [0, 0, 7, 0]\nclass = neutral", fillcolor="#399de5"] ;
225 -> 227 ;
228 [label="lm_300_y <= 0.24\ngini = 0.411\nsamples = 278\nvalue = [24, 7, 78, 315]\nclass = sad", fillcolor="#e477ed"] ;
224 -> 228 ;
229 [label="lm_153_x <= 0.539\ngini = 0.169\nsamples = 77\nvalue = [3, 1, 8, 120]\nclass = sad", fillcolor="#db4ce8"] ;
228 -> 229 ;
230 [label="lm_310_y <= 0.629\ngini = 0.121\nsamples = 73\nvalue = [3, 1, 4, 118]\nclass = sad", fillcolor="#da46e7"] ;
229 -> 230 ;
231 [label="lm_83_y <= 0.72\ngini = 0.079\nsamples = 71\nvalue = [1, 0, 4, 118]\nclass = sad", fillcolor="#d941e6"] ;
230 -> 231 ;
232 [label="lm_112_x <= 0.235\ngini = 0.32\nsamples = 13\nvalue = [0, 0, 4, 16]\nclass = sad", fillcolor="#e16aec"] ;
231 -> 232 ;
233 [label="gini = 0.0\nsamples = 3\nvalue = [0, 0, 4, 0]\nclass = neutral", fillcolor="#399de5"] ;
232 -> 233 ;
234 [label="gini = 0.0\nsamples = 10\nvalue = [0, 0, 0, 16]\nclass = sad", fillcolor="#d739e5"] ;
232 -> 234 ;
235 [label="lm_159_y <= 0.414\ngini = 0.019\nsamples = 58\nvalue = [1.0, 0.0, 0.0, 102.0]\nclass = sad", fillcolor="#d73be5"] ;
231 -> 235 ;
236 [label="gini = 0.0\nsamples = 54\nvalue = [0, 0, 0, 98]\nclass = sad", fillcolor="#d739e5"] ;
235 -> 236 ;
237 [label="lm_338_z <= -0.033\ngini = 0.32\nsamples = 4\nvalue = [1, 0, 0, 4]\nclass = sad", fillcolor="#e16aec"] ;
235 -> 237 ;
238 [label="gini = 0.0\nsamples = 3\nvalue = [0, 0, 0, 4]\nclass = sad", fillcolor="#d739e5"] ;
237 -> 238 ;
239 [label="gini = 0.0\nsamples = 1\nvalue = [1, 0, 0, 0]\nclass = anger", fillcolor="#e58139"] ;
237 -> 239 ;
240 [label="lm_312_x <= 0.549\ngini = 0.444\nsamples = 2\nvalue = [2, 1, 0, 0]\nclass = anger", fillcolor="#f2c09c"] ;
230 -> 240 ;
241 [label="gini = 0.0\nsamples = 1\nvalue = [2, 0, 0, 0]\nclass = anger", fillcolor="#e58139"] ;
240 -> 241 ;
242 [label="gini = 0.0\nsamples = 1\nvalue = [0, 1, 0, 0]\nclass = happy", fillcolor="#47e539"] ;
240 -> 242 ;
243 [label="lm_85_y <= 0.816\ngini = 0.444\nsamples = 4\nvalue = [0, 0, 4, 2]\nclass = neutral", fillcolor="#9ccef2"] ;
229 -> 243 ;
244 [label="gini = 0.0\nsamples = 3\nvalue = [0, 0, 4, 0]\nclass = neutral", fillcolor="#399de5"] ;
243 -> 244 ;
245 [label="gini = 0.0\nsamples = 1\nvalue = [0, 0, 0, 2]\nclass = sad", fillcolor="#d739e5"] ;
243 -> 245 ;
246 [label="lm_398_z <= 0.156\ngini = 0.491\nsamples = 201\nvalue = [21, 6, 70, 195]\nclass = sad", fillcolor="#e890f0"] ;
228 -> 246 ;
247 [label="lm_380_x <= 0.714\ngini = 0.137\nsamples = 36\nvalue = [0, 0, 4, 50]\nclass = sad", fillcolor="#da49e7"] ;
246 -> 247 ;
248 [label="gini = 0.0\nsamples = 30\nvalue = [0, 0, 0, 47]\nclass = sad", fillcolor="#d739e5"] ;
247 -> 248 ;
249 [label="lm_28_y <= 0.389\ngini = 0.49\nsamples = 6\nvalue = [0, 0, 4, 3]\nclass = neutral", fillcolor="#cee6f8"] ;
247 -> 249 ;
250 [label="gini = 0.0\nsamples = 4\nvalue = [0, 0, 4, 0]\nclass = neutral", fillcolor="#399de5"] ;
249 -> 250 ;
251 [label="gini = 0.0\nsamples = 2\nvalue = [0, 0, 0, 3]\nclass = sad", fillcolor="#d739e5"] ;
249 -> 251 ;
252 [label="lm_131_z <= 0.07\ngini = 0.543\nsamples = 165\nvalue = [21, 6, 66, 145]\nclass = sad", fillcolor="#eda4f3"] ;
246 -> 252 ;
253 [label="lm_286_x <= 0.59\ngini = 0.474\nsamples = 138\nvalue = [18, 4, 39, 137]\nclass = sad", fillcolor="#e685ef"] ;
252 -> 253 ;
254 [label="lm_194_y <= 0.43\ngini = 0.441\nsamples = 129\nvalue = [18, 4, 29, 134]\nclass = sad", fillcolor="#e47aee"] ;
253 -> 254 ;
255 [label="lm_13_x <= 0.499\ngini = 0.41\nsamples = 125\nvalue = [14, 4, 27, 134]\nclass = sad", fillcolor="#e374ed"] ;
254 -> 255 ;
256 [label="lm_280_y <= 0.587\ngini = 0.606\nsamples = 38\nvalue = [8.0, 0.0, 16.0, 25.0]\nclass = sad", fillcolor="#f4c9f8"] ;
255 -> 256 ;
257 [label="lm_353_z <= 0.104\ngini = 0.503\nsamples = 26\nvalue = [8, 0, 4, 23]\nclass = sad", fillcolor="#e991f1"] ;
256 -> 257 ;
258 [label="gini = 0.0\nsamples = 14\nvalue = [0, 0, 0, 19]\nclass = sad", fillcolor="#d739e5"] ;
257 -> 258 ;
259 [label="lm_301_y <= 0.347\ngini = 0.625\nsamples = 12\nvalue = [8, 0, 4, 4]\nclass = anger", fillcolor="#f6d5bd"] ;
257 -> 259 ;
260 [label="gini = 0.0\nsamples = 4\nvalue = [0, 0, 4, 0]\nclass = neutral", fillcolor="#399de5"] ;
259 -> 260 ;
261 [label="lm_237_x <= 0.461\ngini = 0.444\nsamples = 8\nvalue = [8, 0, 0, 4]\nclass = anger", fillcolor="#f2c09c"] ;
259 -> 261 ;
262 [label="gini = 0.0\nsamples = 5\nvalue = [8, 0, 0, 0]\nclass = anger", fillcolor="#e58139"] ;
261 -> 262 ;
263 [label="gini = 0.0\nsamples = 3\nvalue = [0, 0, 0, 4]\nclass = sad", fillcolor="#d739e5"] ;
261 -> 263 ;
264 [label="lm_371_z <= -0.094\ngini = 0.245\nsamples = 12\nvalue = [0, 0, 12, 2]\nclass = neutral", fillcolor="#5aade9"] ;
256 -> 264 ;
265 [label="lm_463_y <= 0.634\ngini = 0.444\nsamples = 3\nvalue = [0, 0, 1, 2]\nclass = sad", fillcolor="#eb9cf2"] ;
264 -> 265 ;
266 [label="gini = 0.0\nsamples = 2\nvalue = [0, 0, 0, 2]\nclass = sad", fillcolor="#d739e5"] ;
265 -> 266 ;
267 [label="gini = 0.0\nsamples = 1\nvalue = [0, 0, 1, 0]\nclass = neutral", fillcolor="#399de5"] ;
265 -> 267 ;
268 [label="gini = 0.0\nsamples = 9\nvalue = [0, 0, 11, 0]\nclass = neutral", fillcolor="#399de5"] ;
264 -> 268 ;
269 [label="lm_162_z <= 0.003\ngini = 0.287\nsamples = 87\nvalue = [6, 4, 11, 109]\nclass = sad", fillcolor="#de5cea"] ;
255 -> 269 ;
270 [label="lm_374_x <= 0.661\ngini = 0.676\nsamples = 9\nvalue = [4, 2, 2, 7]\nclass = sad", fillcolor="#f4c9f8"] ;
269 -> 270 ;
271 [label="gini = 0.0\nsamples = 5\nvalue = [0, 0, 0, 7]\nclass = sad", fillcolor="#d739e5"] ;
270 -> 271 ;
272 [label="lm_34_y <= 0.426\ngini = 0.625\nsamples = 4\nvalue = [4, 2, 2, 0]\nclass = anger", fillcolor="#f6d5bd"] ;
270 -> 272 ;
273 [label="gini = 0.0\nsamples = 1\nvalue = [4, 0, 0, 0]\nclass = anger", fillcolor="#e58139"] ;
272 -> 273 ;
274 [label="lm_15_z <= -0.047\ngini = 0.5\nsamples = 3\nvalue = [0, 2, 2, 0]\nclass = happy", fillcolor="#ffffff"] ;
272 -> 274 ;
275 [label="gini = 0.0\nsamples = 2\nvalue = [0, 0, 2, 0]\nclass = neutral", fillcolor="#399de5"] ;
274 -> 275 ;
276 [label="gini = 0.0\nsamples = 1\nvalue = [0, 2, 0, 0]\nclass = happy", fillcolor="#47e539"] ;
274 -> 276 ;
277 [label="lm_10_y <= 0.344\ngini = 0.207\nsamples = 78\nvalue = [2, 2, 9, 102]\nclass = sad", fillcolor="#dc51e8"] ;
269 -> 277 ;
278 [label="lm_475_y <= 0.402\ngini = 0.181\nsamples = 77\nvalue = [2, 2, 7, 102]\nclass = sad", fillcolor="#db4ee8"] ;
277 -> 278 ;
279 [label="gini = 0.0\nsamples = 2\nvalue = [0, 0, 2, 0]\nclass = neutral", fillcolor="#399de5"] ;
278 -> 279 ;
280 [label="lm_4_x <= 0.468\ngini = 0.153\nsamples = 75\nvalue = [2, 2, 5, 102]\nclass = sad", fillcolor="#da4ae7"] ;
278 -> 280 ;
281 [label="lm_87_x <= 0.476\ngini = 0.463\nsamples = 10\nvalue = [0, 0, 4, 7]\nclass = sad", fillcolor="#eeaaf4"] ;
280 -> 281 ;
282 [label="gini = 0.0\nsamples = 6\nvalue = [0, 0, 0, 7]\nclass = sad", fillcolor="#d739e5"] ;
281 -> 282 ;
283 [label="gini = 0.0\nsamples = 4\nvalue = [0, 0, 4, 0]\nclass = neutral", fillcolor="#399de5"] ;
281 -> 283 ;
284 [label="lm_328_x <= 0.612\ngini = 0.097\nsamples = 65\nvalue = [2, 2, 1, 95]\nclass = sad", fillcolor="#d943e6"] ;
280 -> 284 ;
285 [label="lm_100_y <= 0.596\ngini = 0.079\nsamples = 64\nvalue = [2, 1, 1, 95]\nclass = sad", fillcolor="#d941e6"] ;
284 -> 285 ;
286 [label="gini = 0.0\nsamples = 1\nvalue = [0, 1, 0, 0]\nclass = happy", fillcolor="#47e539"] ;
285 -> 286 ;
287 [label="lm_261_y <= 0.398\ngini = 0.06\nsamples = 63\nvalue = [2.0, 0.0, 1.0, 95.0]\nclass = sad", fillcolor="#d83fe6"] ;
285 -> 287 ;
288 [label="lm_22_x <= 0.162\ngini = 0.04\nsamples = 62\nvalue = [2, 0, 0, 95]\nclass = sad", fillcolor="#d83de6"] ;
287 -> 288 ;
289 [label="gini = 0.0\nsamples = 1\nvalue = [1, 0, 0, 0]\nclass = anger", fillcolor="#e58139"] ;
288 -> 289 ;
290 [label="lm_33_y <= 0.884\ngini = 0.021\nsamples = 61\nvalue = [1, 0, 0, 95]\nclass = sad", fillcolor="#d73be5"] ;
288 -> 290 ;
291 [label="gini = 0.0\nsamples = 58\nvalue = [0, 0, 0, 92]\nclass = sad", fillcolor="#d739e5"] ;
290 -> 291 ;
292 [label="lm_450_y <= 0.482\ngini = 0.375\nsamples = 3\nvalue = [1, 0, 0, 3]\nclass = sad", fillcolor="#e47bee"] ;
290 -> 292 ;
293 [label="gini = 0.0\nsamples = 1\nvalue = [1, 0, 0, 0]\nclass = anger", fillcolor="#e58139"] ;
292 -> 293 ;
294 [label="gini = 0.0\nsamples = 2\nvalue = [0, 0, 0, 3]\nclass = sad", fillcolor="#d739e5"] ;
292 -> 294 ;
295 [label="gini = 0.0\nsamples = 1\nvalue = [0, 0, 1, 0]\nclass = neutral", fillcolor="#399de5"] ;
287 -> 295 ;
296 [label="gini = 0.0\nsamples = 1\nvalue = [0, 1, 0, 0]\nclass = happy", fillcolor="#47e539"] ;
284 -> 296 ;
297 [label="gini = 0.0\nsamples = 1\nvalue = [0, 0, 2, 0]\nclass = neutral", fillcolor="#399de5"] ;
277 -> 297 ;
298 [label="lm_339_x <= 0.557\ngini = 0.444\nsamples = 4\nvalue = [4, 0, 2, 0]\nclass = anger", fillcolor="#f2c09c"] ;
254 -> 298 ;
299 [label="gini = 0.0\nsamples = 2\nvalue = [4, 0, 0, 0]\nclass = anger", fillcolor="#e58139"] ;
298 -> 299 ;
300 [label="gini = 0.0\nsamples = 2\nvalue = [0, 0, 2, 0]\nclass = neutral", fillcolor="#399de5"] ;
298 -> 300 ;
301 [label="lm_183_z <= -0.031\ngini = 0.355\nsamples = 9\nvalue = [0, 0, 10, 3]\nclass = neutral", fillcolor="#74baed"] ;
253 -> 301 ;
302 [label="gini = 0.0\nsamples = 2\nvalue = [0, 0, 0, 3]\nclass = sad", fillcolor="#d739e5"] ;
301 -> 302 ;
303 [label="gini = 0.0\nsamples = 7\nvalue = [0, 0, 10, 0]\nclass = neutral", fillcolor="#399de5"] ;
301 -> 303 ;
304 [label="lm_322_x <= 0.597\ngini = 0.496\nsamples = 27\nvalue = [3, 2, 27, 8]\nclass = neutral", fillcolor="#89c5f0"] ;
252 -> 304 ;
305 [label="lm_159_z <= 0.036\ngini = 0.238\nsamples = 20\nvalue = [0, 1, 26, 3]\nclass = neutral", fillcolor="#56ace9"] ;
304 -> 305 ;
306 [label="lm_128_y <= 0.388\ngini = 0.071\nsamples = 18\nvalue = [0, 1, 26, 0]\nclass = neutral", fillcolor="#41a1e6"] ;
305 -> 306 ;
307 [label="gini = 0.0\nsamples = 1\nvalue = [0, 1, 0, 0]\nclass = happy", fillcolor="#47e539"] ;
306 -> 307 ;
308 [label="gini = 0.0\nsamples = 17\nvalue = [0, 0, 26, 0]\nclass = neutral", fillcolor="#399de5"] ;
306 -> 308 ;
309 [label="gini = 0.0\nsamples = 2\nvalue = [0, 0, 0, 3]\nclass = sad", fillcolor="#d739e5"] ;
305 -> 309 ;
310 [label="lm_420_y <= 0.472\ngini = 0.64\nsamples = 7\nvalue = [3, 1, 1, 5]\nclass = sad", fillcolor="#f4c6f8"] ;
304 -> 310 ;
311 [label="lm_393_z <= -0.086\ngini = 0.56\nsamples = 4\nvalue = [3, 1, 1, 0]\nclass = anger", fillcolor="#f2c09c"] ;
310 -> 311 ;
312 [label="gini = 0.0\nsamples = 2\nvalue = [3, 0, 0, 0]\nclass = anger", fillcolor="#e58139"] ;
311 -> 312 ;
313 [label="lm_166_x <= 0.415\ngini = 0.5\nsamples = 2\nvalue = [0, 1, 1, 0]\nclass = happy", fillcolor="#ffffff"] ;
311 -> 313 ;
314 [label="gini = 0.0\nsamples = 1\nvalue = [0, 1, 0, 0]\nclass = happy", fillcolor="#47e539"] ;
313 -> 314 ;
315 [label="gini = 0.0\nsamples = 1\nvalue = [0, 0, 1, 0]\nclass = neutral", fillcolor="#399de5"] ;
313 -> 315 ;
316 [label="gini = 0.0\nsamples = 3\nvalue = [0, 0, 0, 5]\nclass = sad", fillcolor="#d739e5"] ;
310 -> 316 ;
317 [label="lm_167_x <= 0.437\ngini = 0.525\nsamples = 14\nvalue = [5, 0, 14, 3]\nclass = neutral", fillcolor="#96cbf1"] ;
223 -> 317 ;
318 [label="lm_80_y <= 0.592\ngini = 0.469\nsamples = 6\nvalue = [5, 0, 0, 3]\nclass = anger", fillcolor="#f5cdb0"] ;
317 -> 318 ;
319 [label="gini = 0.0\nsamples = 3\nvalue = [5, 0, 0, 0]\nclass = anger", fillcolor="#e58139"] ;
318 -> 319 ;
320 [label="gini = 0.0\nsamples = 3\nvalue = [0, 0, 0, 3]\nclass = sad", fillcolor="#d739e5"] ;
318 -> 320 ;
321 [label="gini = 0.0\nsamples = 8\nvalue = [0, 0, 14, 0]\nclass = neutral", fillcolor="#399de5"] ;
317 -> 321 ;
322 [label="gini = 0.0\nsamples = 6\nvalue = [0, 0, 10, 0]\nclass = neutral", fillcolor="#399de5"] ;
222 -> 322 ;
323 [label="lm_14_y <= 0.724\ngini = 0.662\nsamples = 266\nvalue = [113.0, 4.0, 136.0, 175.0]\nclass = sad", fillcolor="#fae5fc"] ;
189 -> 323 ;
324 [label="gini = 0.0\nsamples = 16\nvalue = [23, 0, 0, 0]\nclass = anger", fillcolor="#e58139"] ;
323 -> 324 ;
325 [label="lm_383_x <= 0.594\ngini = 0.651\nsamples = 250\nvalue = [90, 4, 136, 175]\nclass = sad", fillcolor="#f9e2fb"] ;
323 -> 325 ;
326 [label="lm_181_y <= 0.839\ngini = 0.631\nsamples = 103\nvalue = [38, 1, 79, 42]\nclass = neutral", fillcolor="#c1e0f7"] ;
325 -> 326 ;
327 [label="lm_337_y <= 0.303\ngini = 0.574\nsamples = 85\nvalue = [19, 0, 75, 38]\nclass = neutral", fillcolor="#b1d8f5"] ;
326 -> 327 ;
328 [label="lm_330_x <= 0.616\ngini = 0.464\nsamples = 25\nvalue = [0, 0, 15, 26]\nclass = sad", fillcolor="#eeabf4"] ;
327 -> 328 ;
329 [label="lm_122_x <= 0.377\ngini = 0.087\nsamples = 15\nvalue = [0, 0, 1, 21]\nclass = sad", fillcolor="#d942e6"] ;
328 -> 329 ;
330 [label="gini = 0.0\nsamples = 1\nvalue = [0, 0, 1, 0]\nclass = neutral", fillcolor="#399de5"] ;
329 -> 330 ;
331 [label="gini = 0.0\nsamples = 14\nvalue = [0, 0, 0, 21]\nclass = sad", fillcolor="#d739e5"] ;
329 -> 331 ;
332 [label="lm_311_y <= 0.781\ngini = 0.388\nsamples = 10\nvalue = [0, 0, 14, 5]\nclass = neutral", fillcolor="#80c0ee"] ;
328 -> 332 ;
333 [label="gini = 0.0\nsamples = 7\nvalue = [0, 0, 14, 0]\nclass = neutral", fillcolor="#399de5"] ;
332 -> 333 ;
334 [label="gini = 0.0\nsamples = 3\nvalue = [0, 0, 0, 5]\nclass = sad", fillcolor="#d739e5"] ;
332 -> 334 ;
335 [label="lm_240_x <= 0.463\ngini = 0.504\nsamples = 60\nvalue = [19, 0, 60, 12]\nclass = neutral", fillcolor="#8ec7f0"] ;
327 -> 335 ;
336 [label="lm_246_z <= -0.019\ngini = 0.333\nsamples = 41\nvalue = [4, 0, 49, 8]\nclass = neutral", fillcolor="#66b3eb"] ;
335 -> 336 ;
337 [label="lm_464_x <= 0.57\ngini = 0.045\nsamples = 28\nvalue = [0, 0, 42, 1]\nclass = neutral", fillcolor="#3e9fe6"] ;
336 -> 337 ;
338 [label="gini = 0.0\nsamples = 27\nvalue = [0, 0, 42, 0]\nclass = neutral", fillcolor="#399de5"] ;
337 -> 338 ;
339 [label="gini = 0.0\nsamples = 1\nvalue = [0, 0, 0, 1]\nclass = sad", fillcolor="#d739e5"] ;
337 -> 339 ;
340 [label="lm_410_x <= 0.642\ngini = 0.648\nsamples = 13\nvalue = [4, 0, 7, 7]\nclass = neutral", fillcolor="#ffffff"] ;
336 -> 340 ;
341 [label="lm_341_y <= 0.467\ngini = 0.463\nsamples = 9\nvalue = [4, 0, 0, 7]\nclass = sad", fillcolor="#eeaaf4"] ;
340 -> 341 ;
342 [label="gini = 0.0\nsamples = 2\nvalue = [3, 0, 0, 0]\nclass = anger", fillcolor="#e58139"] ;
341 -> 342 ;
343 [label="lm_21_y <= 0.63\ngini = 0.219\nsamples = 7\nvalue = [1, 0, 0, 7]\nclass = sad", fillcolor="#dd55e9"] ;
341 -> 343 ;
344 [label="gini = 0.0\nsamples = 1\nvalue = [1, 0, 0, 0]\nclass = anger", fillcolor="#e58139"] ;
343 -> 344 ;
345 [label="gini = 0.0\nsamples = 6\nvalue = [0, 0, 0, 7]\nclass = sad", fillcolor="#d739e5"] ;
343 -> 345 ;
346 [label="gini = 0.0\nsamples = 4\nvalue = [0, 0, 7, 0]\nclass = neutral", fillcolor="#399de5"] ;
340 -> 346 ;
347 [label="lm_162_z <= -0.034\ngini = 0.598\nsamples = 19\nvalue = [15, 0, 11, 4]\nclass = anger", fillcolor="#fae4d5"] ;
335 -> 347 ;
348 [label="gini = 0.0\nsamples = 6\nvalue = [0, 0, 9, 0]\nclass = neutral", fillcolor="#399de5"] ;
347 -> 348 ;
349 [label="lm_229_x <= 0.283\ngini = 0.444\nsamples = 13\nvalue = [15, 0, 2, 4]\nclass = anger", fillcolor="#eead7f"] ;
347 -> 349 ;
350 [label="gini = 0.0\nsamples = 10\nvalue = [15, 0, 0, 0]\nclass = anger", fillcolor="#e58139"] ;
349 -> 350 ;
351 [label="lm_405_x <= 0.609\ngini = 0.444\nsamples = 3\nvalue = [0, 0, 2, 4]\nclass = sad", fillcolor="#eb9cf2"] ;
349 -> 351 ;
352 [label="gini = 0.0\nsamples = 1\nvalue = [0, 0, 2, 0]\nclass = neutral", fillcolor="#399de5"] ;
351 -> 352 ;
353 [label="gini = 0.0\nsamples = 2\nvalue = [0, 0, 0, 4]\nclass = sad", fillcolor="#d739e5"] ;
351 -> 353 ;
354 [label="lm_102_x <= 0.254\ngini = 0.497\nsamples = 18\nvalue = [19, 1, 4, 4]\nclass = anger", fillcolor="#efb083"] ;
326 -> 354 ;
355 [label="gini = 0.0\nsamples = 2\nvalue = [0, 0, 3, 0]\nclass = neutral", fillcolor="#399de5"] ;
354 -> 355 ;
356 [label="lm_302_y <= 0.289\ngini = 0.394\nsamples = 16\nvalue = [19, 1, 1, 4]\nclass = anger", fillcolor="#eca572"] ;
354 -> 356 ;
357 [label="lm_411_z <= 0.039\ngini = 0.444\nsamples = 3\nvalue = [2, 0, 0, 4]\nclass = sad", fillcolor="#eb9cf2"] ;
356 -> 357 ;
358 [label="gini = 0.0\nsamples = 2\nvalue = [0, 0, 0, 4]\nclass = sad", fillcolor="#d739e5"] ;
357 -> 358 ;
359 [label="gini = 0.0\nsamples = 1\nvalue = [2, 0, 0, 0]\nclass = anger", fillcolor="#e58139"] ;
357 -> 359 ;
360 [label="lm_281_y <= 0.57\ngini = 0.194\nsamples = 13\nvalue = [17, 1, 1, 0]\nclass = anger", fillcolor="#e88f4f"] ;
356 -> 360 ;
361 [label="lm_258_y <= 0.347\ngini = 0.5\nsamples = 2\nvalue = [0, 1, 1, 0]\nclass = happy", fillcolor="#ffffff"] ;
360 -> 361 ;
362 [label="gini = 0.0\nsamples = 1\nvalue = [0, 0, 1, 0]\nclass = neutral", fillcolor="#399de5"] ;
361 -> 362 ;
363 [label="gini = 0.0\nsamples = 1\nvalue = [0, 1, 0, 0]\nclass = happy", fillcolor="#47e539"] ;
361 -> 363 ;
364 [label="gini = 0.0\nsamples = 11\nvalue = [17, 0, 0, 0]\nclass = anger", fillcolor="#e58139"] ;
360 -> 364 ;
365 [label="lm_284_y <= 0.318\ngini = 0.606\nsamples = 147\nvalue = [52, 3, 57, 133]\nclass = sad", fillcolor="#efaff4"] ;
325 -> 365 ;
366 [label="lm_374_x <= 0.715\ngini = 0.505\nsamples = 82\nvalue = [9, 2, 39, 90]\nclass = sad", fillcolor="#eb9bf2"] ;
365 -> 366 ;
367 [label="lm_102_y <= 0.556\ngini = 0.23\nsamples = 38\nvalue = [1, 0, 8, 60]\nclass = sad", fillcolor="#dd56e9"] ;
366 -> 367 ;
368 [label="lm_200_x <= 0.502\ngini = 0.543\nsamples = 13\nvalue = [1, 0, 8, 10]\nclass = sad", fillcolor="#f8dbfa"] ;
367 -> 368 ;
369 [label="gini = 0.0\nsamples = 6\nvalue = [0, 0, 0, 9]\nclass = sad", fillcolor="#d739e5"] ;
368 -> 369 ;
370 [label="lm_91_x <= 0.427\ngini = 0.34\nsamples = 7\nvalue = [1, 0, 8, 1]\nclass = neutral", fillcolor="#65b3eb"] ;
368 -> 370 ;
371 [label="gini = 0.0\nsamples = 5\nvalue = [0, 0, 8, 0]\nclass = neutral", fillcolor="#399de5"] ;
370 -> 371 ;
372 [label="lm_391_z <= 0.056\ngini = 0.5\nsamples = 2\nvalue = [1, 0, 0, 1]\nclass = anger", fillcolor="#ffffff"] ;
370 -> 372 ;
373 [label="gini = 0.0\nsamples = 1\nvalue = [1, 0, 0, 0]\nclass = anger", fillcolor="#e58139"] ;
372 -> 373 ;
374 [label="gini = 0.0\nsamples = 1\nvalue = [0, 0, 0, 1]\nclass = sad", fillcolor="#d739e5"] ;
372 -> 374 ;
375 [label="gini = 0.0\nsamples = 25\nvalue = [0, 0, 0, 50]\nclass = sad", fillcolor="#d739e5"] ;
367 -> 375 ;
376 [label="lm_456_x <= 0.616\ngini = 0.617\nsamples = 44\nvalue = [8.0, 2.0, 31.0, 30.0]\nclass = neutral", fillcolor="#fafdfe"] ;
366 -> 376 ;
377 [label="lm_216_z <= 0.202\ngini = 0.46\nsamples = 26\nvalue = [6, 0, 31, 7]\nclass = neutral", fillcolor="#7fbfee"] ;
376 -> 377 ;
378 [label="gini = 0.0\nsamples = 3\nvalue = [5, 0, 0, 0]\nclass = anger", fillcolor="#e58139"] ;
377 -> 378 ;
379 [label="lm_337_x <= 0.572\ngini = 0.335\nsamples = 23\nvalue = [1.0, 0.0, 31.0, 7.0]\nclass = neutral", fillcolor="#6bb6ec"] ;
377 -> 379 ;
380 [label="gini = 0.0\nsamples = 3\nvalue = [0, 0, 0, 3]\nclass = sad", fillcolor="#d739e5"] ;
379 -> 380 ;
381 [label="lm_359_z <= -0.038\ngini = 0.245\nsamples = 20\nvalue = [1, 0, 31, 4]\nclass = neutral", fillcolor="#58ace9"] ;
379 -> 381 ;
382 [label="lm_198_x <= 0.492\ngini = 0.56\nsamples = 5\nvalue = [1, 0, 1, 3]\nclass = sad", fillcolor="#eb9cf2"] ;
381 -> 382 ;
383 [label="lm_458_z <= -0.206\ngini = 0.5\nsamples = 2\nvalue = [1, 0, 1, 0]\nclass = anger", fillcolor="#ffffff"] ;
382 -> 383 ;
384 [label="gini = 0.0\nsamples = 1\nvalue = [0, 0, 1, 0]\nclass = neutral", fillcolor="#399de5"] ;
383 -> 384 ;
385 [label="gini = 0.0\nsamples = 1\nvalue = [1, 0, 0, 0]\nclass = anger", fillcolor="#e58139"] ;
383 -> 385 ;
386 [label="gini = 0.0\nsamples = 3\nvalue = [0, 0, 0, 3]\nclass = sad", fillcolor="#d739e5"] ;
382 -> 386 ;
387 [label="lm_409_z <= 0.022\ngini = 0.062\nsamples = 15\nvalue = [0, 0, 30, 1]\nclass = neutral", fillcolor="#40a0e6"] ;
381 -> 387 ;
388 [label="gini = 0.0\nsamples = 14\nvalue = [0, 0, 30, 0]\nclass = neutral", fillcolor="#399de5"] ;
387 -> 388 ;
389 [label="gini = 0.0\nsamples = 1\nvalue = [0, 0, 0, 1]\nclass = sad", fillcolor="#d739e5"] ;
387 -> 389 ;
390 [label="lm_345_x <= 0.616\ngini = 0.263\nsamples = 18\nvalue = [2, 2, 0, 23]\nclass = sad", fillcolor="#dd59e9"] ;
376 -> 390 ;
391 [label="lm_330_y <= 0.512\ngini = 0.444\nsamples = 2\nvalue = [1, 2, 0, 0]\nclass = happy", fillcolor="#a3f29c"] ;
390 -> 391 ;
392 [label="gini = 0.0\nsamples = 1\nvalue = [0, 2, 0, 0]\nclass = happy", fillcolor="#47e539"] ;
391 -> 392 ;
393 [label="gini = 0.0\nsamples = 1\nvalue = [1, 0, 0, 0]\nclass = anger", fillcolor="#e58139"] ;
391 -> 393 ;
394 [label="lm_34_z <= -0.009\ngini = 0.08\nsamples = 16\nvalue = [1, 0, 0, 23]\nclass = sad", fillcolor="#d942e6"] ;
390 -> 394 ;
395 [label="gini = 0.0\nsamples = 1\nvalue = [1, 0, 0, 0]\nclass = anger", fillcolor="#e58139"] ;
394 -> 395 ;
396 [label="gini = 0.0\nsamples = 15\nvalue = [0, 0, 0, 23]\nclass = sad", fillcolor="#d739e5"] ;
394 -> 396 ;
397 [label="lm_433_x <= 0.692\ngini = 0.635\nsamples = 65\nvalue = [43, 1, 18, 43]\nclass = anger", fillcolor="#ffffff"] ;
365 -> 397 ;
398 [label="lm_347_x <= 0.772\ngini = 0.411\nsamples = 21\nvalue = [1, 0, 8, 24]\nclass = sad", fillcolor="#e580ee"] ;
397 -> 398 ;
399 [label="lm_233_x <= 0.416\ngini = 0.551\nsamples = 10\nvalue = [1, 0, 8, 6]\nclass = neutral", fillcolor="#d3e9f9"] ;
398 -> 399 ;
400 [label="lm_211_x <= 0.245\ngini = 0.34\nsamples = 8\nvalue = [1, 0, 8, 1]\nclass = neutral", fillcolor="#65b3eb"] ;
399 -> 400 ;
401 [label="lm_320_y <= 0.823\ngini = 0.5\nsamples = 2\nvalue = [1, 0, 0, 1]\nclass = anger", fillcolor="#ffffff"] ;
400 -> 401 ;
402 [label="gini = 0.0\nsamples = 1\nvalue = [0, 0, 0, 1]\nclass = sad", fillcolor="#d739e5"] ;
401 -> 402 ;
403 [label="gini = 0.0\nsamples = 1\nvalue = [1, 0, 0, 0]\nclass = anger", fillcolor="#e58139"] ;
401 -> 403 ;
404 [label="gini = 0.0\nsamples = 6\nvalue = [0, 0, 8, 0]\nclass = neutral", fillcolor="#399de5"] ;
400 -> 404 ;
405 [label="gini = 0.0\nsamples = 2\nvalue = [0, 0, 0, 5]\nclass = sad", fillcolor="#d739e5"] ;
399 -> 405 ;
406 [label="gini = 0.0\nsamples = 11\nvalue = [0, 0, 0, 18]\nclass = sad", fillcolor="#d739e5"] ;
398 -> 406 ;
407 [label="lm_388_y <= 0.399\ngini = 0.571\nsamples = 44\nvalue = [42, 1, 10, 19]\nclass = anger", fillcolor="#f4c8a9"] ;
397 -> 407 ;
408 [label="lm_174_z <= 0.016\ngini = 0.361\nsamples = 29\nvalue = [40, 0, 6, 5]\nclass = anger", fillcolor="#eba069"] ;
407 -> 408 ;
409 [label="lm_470_z <= -0.002\ngini = 0.623\nsamples = 11\nvalue = [9, 0, 4, 5]\nclass = anger", fillcolor="#f7d8c2"] ;
408 -> 409 ;
410 [label="gini = 0.0\nsamples = 4\nvalue = [9, 0, 0, 0]\nclass = anger", fillcolor="#e58139"] ;
409 -> 410 ;
411 [label="lm_124_z <= 0.121\ngini = 0.494\nsamples = 7\nvalue = [0, 0, 4, 5]\nclass = sad", fillcolor="#f7d7fa"] ;
409 -> 411 ;
412 [label="gini = 0.0\nsamples = 3\nvalue = [0, 0, 0, 5]\nclass = sad", fillcolor="#d739e5"] ;
411 -> 412 ;
413 [label="gini = 0.0\nsamples = 4\nvalue = [0, 0, 4, 0]\nclass = neutral", fillcolor="#399de5"] ;
411 -> 413 ;
414 [label="lm_107_y <= 0.831\ngini = 0.114\nsamples = 18\nvalue = [31, 0, 2, 0]\nclass = anger", fillcolor="#e78946"] ;
408 -> 414 ;
415 [label="gini = 0.0\nsamples = 1\nvalue = [0, 0, 2, 0]\nclass = neutral", fillcolor="#399de5"] ;
414 -> 415 ;
416 [label="gini = 0.0\nsamples = 17\nvalue = [31, 0, 0, 0]\nclass = anger", fillcolor="#e58139"] ;
414 -> 416 ;
417 [label="lm_396_z <= 0.007\ngini = 0.508\nsamples = 15\nvalue = [2, 1, 4, 14]\nclass = sad", fillcolor="#e78bf0"] ;
407 -> 417 ;
418 [label="lm_411_z <= -0.038\ngini = 0.444\nsamples = 4\nvalue = [2, 0, 4, 0]\nclass = neutral", fillcolor="#9ccef2"] ;
417 -> 418 ;
419 [label="gini = 0.0\nsamples = 2\nvalue = [2, 0, 0, 0]\nclass = anger", fillcolor="#e58139"] ;
418 -> 419 ;
420 [label="gini = 0.0\nsamples = 2\nvalue = [0, 0, 4, 0]\nclass = neutral", fillcolor="#399de5"] ;
418 -> 420 ;
421 [label="lm_235_y <= 0.586\ngini = 0.124\nsamples = 11\nvalue = [0, 1, 0, 14]\nclass = sad", fillcolor="#da47e7"] ;
417 -> 421 ;
422 [label="gini = 0.0\nsamples = 10\nvalue = [0, 0, 0, 14]\nclass = sad", fillcolor="#d739e5"] ;
421 -> 422 ;
423 [label="gini = 0.0\nsamples = 1\nvalue = [0, 1, 0, 0]\nclass = happy", fillcolor="#47e539"] ;
421 -> 423 ;
424 [label="lm_382_y <= 0.428\ngini = 0.662\nsamples = 1647\nvalue = [985, 77, 519, 1029]\nclass = sad", fillcolor="#fefafe"] ;
2 -> 424 ;
425 [label="lm_423_y <= 0.737\ngini = 0.557\nsamples = 422\nvalue = [421, 11, 103, 159]\nclass = anger", fillcolor="#f2c19e"] ;
424 -> 425 ;
426 [label="lm_391_x <= 0.664\ngini = 0.657\nsamples = 127\nvalue = [79, 3, 44, 78]\nclass = anger", fillcolor="#fffefd"] ;
425 -> 426 ;
427 [label="lm_417_x <= 0.704\ngini = 0.632\nsamples = 84\nvalue = [68, 2, 31, 35]\nclass = anger", fillcolor="#f7d6be"] ;
426 -> 427 ;
428 [label="lm_411_y <= 0.658\ngini = 0.547\nsamples = 18\nvalue = [2, 0, 11, 16]\nclass = sad", fillcolor="#f4c8f8"] ;
427 -> 428 ;
429 [label="lm_107_y <= 0.736\ngini = 0.43\nsamples = 9\nvalue = [2, 0, 8, 1]\nclass = neutral", fillcolor="#7bbeee"] ;
428 -> 429 ;
430 [label="gini = 0.0\nsamples = 6\nvalue = [0, 0, 8, 0]\nclass = neutral", fillcolor="#399de5"] ;
429 -> 430 ;
431 [label="lm_37_y <= 0.561\ngini = 0.444\nsamples = 3\nvalue = [2, 0, 0, 1]\nclass = anger", fillcolor="#f2c09c"] ;
429 -> 431 ;
432 [label="gini = 0.0\nsamples = 2\nvalue = [2, 0, 0, 0]\nclass = anger", fillcolor="#e58139"] ;
431 -> 432 ;
433 [label="gini = 0.0\nsamples = 1\nvalue = [0, 0, 0, 1]\nclass = sad", fillcolor="#d739e5"] ;
431 -> 433 ;
434 [label="lm_221_z <= -0.119\ngini = 0.278\nsamples = 9\nvalue = [0, 0, 3, 15]\nclass = sad", fillcolor="#df61ea"] ;
428 -> 434 ;
435 [label="gini = 0.0\nsamples = 6\nvalue = [0, 0, 0, 15]\nclass = sad", fillcolor="#d739e5"] ;
434 -> 435 ;
436 [label="gini = 0.0\nsamples = 3\nvalue = [0, 0, 3, 0]\nclass = neutral", fillcolor="#399de5"] ;
434 -> 436 ;
437 [label="lm_60_y <= 0.613\ngini = 0.553\nsamples = 66\nvalue = [66.0, 2.0, 20.0, 19.0]\nclass = anger", fillcolor="#f1bc96"] ;
427 -> 437 ;
438 [label="lm_256_y <= 0.419\ngini = 0.496\nsamples = 57\nvalue = [63, 2, 20, 9]\nclass = anger", fillcolor="#f0b68c"] ;
437 -> 438 ;
439 [label="lm_56_x <= 0.41\ngini = 0.302\nsamples = 36\nvalue = [48, 2, 2, 6]\nclass = anger", fillcolor="#ea995f"] ;
438 -> 439 ;
440 [label="lm_42_z <= -0.036\ngini = 0.611\nsamples = 3\nvalue = [1, 2, 0, 3]\nclass = sad", fillcolor="#f5cef8"] ;
439 -> 440 ;
441 [label="lm_114_y <= 0.469\ngini = 0.444\nsamples = 2\nvalue = [1, 2, 0, 0]\nclass = happy", fillcolor="#a3f29c"] ;
440 -> 441 ;
442 [label="gini = 0.0\nsamples = 1\nvalue = [0, 2, 0, 0]\nclass = happy", fillcolor="#47e539"] ;
441 -> 442 ;
443 [label="gini = 0.0\nsamples = 1\nvalue = [1, 0, 0, 0]\nclass = anger", fillcolor="#e58139"] ;
441 -> 443 ;
444 [label="gini = 0.0\nsamples = 1\nvalue = [0, 0, 0, 3]\nclass = sad", fillcolor="#d739e5"] ;
440 -> 444 ;
445 [label="lm_211_z <= 0.085\ngini = 0.178\nsamples = 33\nvalue = [47, 0, 2, 3]\nclass = anger", fillcolor="#e88e4d"] ;
439 -> 445 ;
446 [label="lm_133_x <= 0.274\ngini = 0.078\nsamples = 30\nvalue = [47.0, 0.0, 2.0, 0.0]\nclass = anger", fillcolor="#e68641"] ;
445 -> 446 ;
447 [label="gini = 0.0\nsamples = 23\nvalue = [40, 0, 0, 0]\nclass = anger", fillcolor="#e58139"] ;
446 -> 447 ;
448 [label="lm_411_y <= 0.663\ngini = 0.346\nsamples = 7\nvalue = [7, 0, 2, 0]\nclass = anger", fillcolor="#eca572"] ;
446 -> 448 ;
449 [label="gini = 0.0\nsamples = 6\nvalue = [7, 0, 0, 0]\nclass = anger", fillcolor="#e58139"] ;
448 -> 449 ;
450 [label="gini = 0.0\nsamples = 1\nvalue = [0, 0, 2, 0]\nclass = neutral", fillcolor="#399de5"] ;
448 -> 450 ;
451 [label="gini = 0.0\nsamples = 3\nvalue = [0, 0, 0, 3]\nclass = sad", fillcolor="#d739e5"] ;
445 -> 451 ;
452 [label="lm_30_x <= 0.329\ngini = 0.569\nsamples = 21\nvalue = [15, 0, 18, 3]\nclass = neutral", fillcolor="#e3f1fb"] ;
438 -> 452 ;
453 [label="lm_339_z <= -0.001\ngini = 0.406\nsamples = 14\nvalue = [3, 0, 18, 3]\nclass = neutral", fillcolor="#72b9ec"] ;
452 -> 453 ;
454 [label="lm_109_x <= 0.397\ngini = 0.18\nsamples = 11\nvalue = [0, 0, 18, 2]\nclass = neutral", fillcolor="#4fa8e8"] ;
453 -> 454 ;
455 [label="gini = 0.0\nsamples = 1\nvalue = [0, 0, 0, 2]\nclass = sad", fillcolor="#d739e5"] ;
454 -> 455 ;
456 [label="gini = 0.0\nsamples = 10\nvalue = [0, 0, 18, 0]\nclass = neutral", fillcolor="#399de5"] ;
454 -> 456 ;
457 [label="lm_113_y <= 0.428\ngini = 0.375\nsamples = 3\nvalue = [3, 0, 0, 1]\nclass = anger", fillcolor="#eeab7b"] ;
453 -> 457 ;
458 [label="gini = 0.0\nsamples = 1\nvalue = [0, 0, 0, 1]\nclass = sad", fillcolor="#d739e5"] ;
457 -> 458 ;
459 [label="gini = 0.0\nsamples = 2\nvalue = [3, 0, 0, 0]\nclass = anger", fillcolor="#e58139"] ;
457 -> 459 ;
460 [label="gini = 0.0\nsamples = 7\nvalue = [12, 0, 0, 0]\nclass = anger", fillcolor="#e58139"] ;
452 -> 460 ;
461 [label="lm_53_x <= 0.313\ngini = 0.355\nsamples = 9\nvalue = [3, 0, 0, 10]\nclass = sad", fillcolor="#e374ed"] ;
437 -> 461 ;
462 [label="gini = 0.0\nsamples = 1\nvalue = [2, 0, 0, 0]\nclass = anger", fillcolor="#e58139"] ;
461 -> 462 ;
463 [label="lm_363_y <= 0.425\ngini = 0.165\nsamples = 8\nvalue = [1, 0, 0, 10]\nclass = sad", fillcolor="#db4de8"] ;
461 -> 463 ;
464 [label="gini = 0.0\nsamples = 7\nvalue = [0, 0, 0, 10]\nclass = sad", fillcolor="#d739e5"] ;
463 -> 464 ;
465 [label="gini = 0.0\nsamples = 1\nvalue = [1, 0, 0, 0]\nclass = anger", fillcolor="#e58139"] ;
463 -> 465 ;
466 [label="lm_71_y <= 0.352\ngini = 0.537\nsamples = 43\nvalue = [11, 1, 13, 43]\nclass = sad", fillcolor="#e993f1"] ;
426 -> 466 ;
467 [label="lm_424_x <= 0.613\ngini = 0.542\nsamples = 8\nvalue = [7, 1, 4, 0]\nclass = anger", fillcolor="#f5d0b5"] ;
466 -> 467 ;
468 [label="lm_85_x <= 0.45\ngini = 0.32\nsamples = 4\nvalue = [0, 1, 4, 0]\nclass = neutral", fillcolor="#6ab6ec"] ;
467 -> 468 ;
469 [label="gini = 0.0\nsamples = 1\nvalue = [0, 1, 0, 0]\nclass = happy", fillcolor="#47e539"] ;
468 -> 469 ;
470 [label="gini = 0.0\nsamples = 3\nvalue = [0, 0, 4, 0]\nclass = neutral", fillcolor="#399de5"] ;
468 -> 470 ;
471 [label="gini = 0.0\nsamples = 4\nvalue = [7, 0, 0, 0]\nclass = anger", fillcolor="#e58139"] ;
467 -> 471 ;
472 [label="lm_274_z <= 0.02\ngini = 0.379\nsamples = 35\nvalue = [4, 0, 9, 43]\nclass = sad", fillcolor="#e270ec"] ;
466 -> 472 ;
473 [label="lm_236_y <= 0.582\ngini = 0.632\nsamples = 16\nvalue = [4, 0, 9, 9]\nclass = neutral", fillcolor="#ffffff"] ;
472 -> 473 ;
474 [label="lm_476_z <= -0.001\ngini = 0.198\nsamples = 7\nvalue = [1, 0, 0, 8]\nclass = sad", fillcolor="#dc52e8"] ;
473 -> 474 ;
475 [label="gini = 0.0\nsamples = 1\nvalue = [1, 0, 0, 0]\nclass = anger", fillcolor="#e58139"] ;
474 -> 475 ;
476 [label="gini = 0.0\nsamples = 6\nvalue = [0, 0, 0, 8]\nclass = sad", fillcolor="#d739e5"] ;
474 -> 476 ;
477 [label="lm_438_z <= -0.046\ngini = 0.462\nsamples = 9\nvalue = [3, 0, 9, 1]\nclass = neutral", fillcolor="#88c4ef"] ;
473 -> 477 ;
478 [label="lm_110_y <= 0.209\ngini = 0.56\nsamples = 5\nvalue = [3, 0, 1, 1]\nclass = anger", fillcolor="#f2c09c"] ;
477 -> 478 ;
479 [label="lm_70_y <= 0.274\ngini = 0.5\nsamples = 2\nvalue = [0, 0, 1, 1]\nclass = neutral", fillcolor="#ffffff"] ;
478 -> 479 ;
480 [label="gini = 0.0\nsamples = 1\nvalue = [0, 0, 1, 0]\nclass = neutral", fillcolor="#399de5"] ;
479 -> 480 ;
481 [label="gini = 0.0\nsamples = 1\nvalue = [0, 0, 0, 1]\nclass = sad", fillcolor="#d739e5"] ;
479 -> 481 ;
482 [label="gini = 0.0\nsamples = 3\nvalue = [3, 0, 0, 0]\nclass = anger", fillcolor="#e58139"] ;
478 -> 482 ;
483 [label="gini = 0.0\nsamples = 4\nvalue = [0, 0, 8, 0]\nclass = neutral", fillcolor="#399de5"] ;
477 -> 483 ;
484 [label="gini = 0.0\nsamples = 19\nvalue = [0, 0, 0, 34]\nclass = sad", fillcolor="#d739e5"] ;
472 -> 484 ;
485 [label="lm_131_y <= 0.468\ngini = 0.471\nsamples = 295\nvalue = [342, 8, 59, 81]\nclass = anger", fillcolor="#eeaf81"] ;
425 -> 485 ;
486 [label="lm_62_x <= 0.351\ngini = 0.416\nsamples = 277\nvalue = [334, 5, 38, 73]\nclass = anger", fillcolor="#eda876"] ;
485 -> 486 ;
487 [label="lm_427_z <= 0.005\ngini = 0.439\nsamples = 11\nvalue = [3, 1, 0, 10]\nclass = sad", fillcolor="#e681ee"] ;
486 -> 487 ;
488 [label="lm_121_y <= 0.486\ngini = 0.165\nsamples = 8\nvalue = [0, 1, 0, 10]\nclass = sad", fillcolor="#db4de8"] ;
487 -> 488 ;
489 [label="gini = 0.0\nsamples = 7\nvalue = [0, 0, 0, 10]\nclass = sad", fillcolor="#d739e5"] ;
488 -> 489 ;
490 [label="gini = 0.0\nsamples = 1\nvalue = [0, 1, 0, 0]\nclass = happy", fillcolor="#47e539"] ;
488 -> 490 ;
491 [label="gini = 0.0\nsamples = 3\nvalue = [3, 0, 0, 0]\nclass = anger", fillcolor="#e58139"] ;
487 -> 491 ;
492 [label="lm_38_y <= 0.738\ngini = 0.395\nsamples = 266\nvalue = [331, 4, 38, 63]\nclass = anger", fillcolor="#eca471"] ;
486 -> 492 ;
493 [label="lm_437_z <= 0.056\ngini = 0.36\nsamples = 252\nvalue = [327, 4, 32, 53]\nclass = anger", fillcolor="#eba06a"] ;
492 -> 493 ;
494 [label="lm_228_x <= 0.163\ngini = 0.345\nsamples = 248\nvalue = [326, 4, 32, 47]\nclass = anger", fillcolor="#eb9e66"] ;
493 -> 494 ;
495 [label="lm_291_y <= 0.59\ngini = 0.041\nsamples = 57\nvalue = [93, 0, 0, 2]\nclass = anger", fillcolor="#e6843d"] ;
494 -> 495 ;
496 [label="gini = 0.0\nsamples = 2\nvalue = [0, 0, 0, 2]\nclass = sad", fillcolor="#d739e5"] ;
495 -> 496 ;
497 [label="gini = 0.0\nsamples = 55\nvalue = [93, 0, 0, 0]\nclass = anger", fillcolor="#e58139"] ;
495 -> 497 ;
498 [label="lm_129_y <= 0.47\ngini = 0.418\nsamples = 191\nvalue = [233.0, 4.0, 32.0, 45.0]\nclass = anger", fillcolor="#eda775"] ;
494 -> 498 ;
499 [label="lm_302_y <= 0.322\ngini = 0.363\nsamples = 164\nvalue = [212, 4, 27, 27]\nclass = anger", fillcolor="#eb9f68"] ;
498 -> 499 ;
500 [label="lm_432_y <= 0.788\ngini = 0.055\nsamples = 45\nvalue = [69, 0, 1, 1]\nclass = anger", fillcolor="#e6853f"] ;
499 -> 500 ;
501 [label="gini = 0.0\nsamples = 1\nvalue = [0, 0, 0, 1]\nclass = sad", fillcolor="#d739e5"] ;
500 -> 501 ;
502 [label="lm_21_x <= 0.499\ngini = 0.028\nsamples = 44\nvalue = [69, 0, 1, 0]\nclass = anger", fillcolor="#e5833c"] ;
500 -> 502 ;
503 [label="gini = 0.0\nsamples = 41\nvalue = [67, 0, 0, 0]\nclass = anger", fillcolor="#e58139"] ;
502 -> 503 ;
504 [label="lm_340_z <= 0.046\ngini = 0.444\nsamples = 3\nvalue = [2, 0, 1, 0]\nclass = anger", fillcolor="#f2c09c"] ;
502 -> 504 ;
505 [label="gini = 0.0\nsamples = 1\nvalue = [0, 0, 1, 0]\nclass = neutral", fillcolor="#399de5"] ;
504 -> 505 ;
506 [label="gini = 0.0\nsamples = 2\nvalue = [2, 0, 0, 0]\nclass = anger", fillcolor="#e58139"] ;
504 -> 506 ;
507 [label="lm_291_x <= 0.544\ngini = 0.449\nsamples = 119\nvalue = [143.0, 4.0, 26.0, 26.0]\nclass = anger", fillcolor="#edaa79"] ;
499 -> 507 ;
508 [label="lm_87_x <= 0.481\ngini = 0.241\nsamples = 63\nvalue = [91, 1, 5, 8]\nclass = anger", fillcolor="#e99356"] ;
507 -> 508 ;
509 [label="lm_118_y <= 0.516\ngini = 0.183\nsamples = 59\nvalue = [91.0, 1.0, 2.0, 7.0]\nclass = anger", fillcolor="#e88e4e"] ;
508 -> 509 ;
510 [label="lm_284_z <= 0.024\ngini = 0.136\nsamples = 57\nvalue = [91.0, 1.0, 2.0, 4.0]\nclass = anger", fillcolor="#e78a48"] ;
509 -> 510 ;
511 [label="lm_90_x <= 0.392\ngini = 0.118\nsamples = 56\nvalue = [91, 0, 2, 4]\nclass = anger", fillcolor="#e78946"] ;
510 -> 511 ;
512 [label="gini = 0.0\nsamples = 1\nvalue = [0, 0, 0, 1]\nclass = sad", fillcolor="#d739e5"] ;
511 -> 512 ;
513 [label="lm_349_y <= 0.483\ngini = 0.1\nsamples = 55\nvalue = [91, 0, 2, 3]\nclass = anger", fillcolor="#e68844"] ;
511 -> 513 ;
514 [label="lm_351_y <= 0.455\ngini = 0.5\nsamples = 2\nvalue = [1, 0, 0, 1]\nclass = anger", fillcolor="#ffffff"] ;
513 -> 514 ;
515 [label="gini = 0.0\nsamples = 1\nvalue = [1, 0, 0, 0]\nclass = anger", fillcolor="#e58139"] ;
514 -> 515 ;
516 [label="gini = 0.0\nsamples = 1\nvalue = [0, 0, 0, 1]\nclass = sad", fillcolor="#d739e5"] ;
514 -> 516 ;
517 [label="lm_82_y <= 0.739\ngini = 0.082\nsamples = 53\nvalue = [90, 0, 2, 2]\nclass = anger", fillcolor="#e68642"] ;
513 -> 517 ;
518 [label="lm_167_x <= 0.441\ngini = 0.064\nsamples = 51\nvalue = [89, 0, 2, 1]\nclass = anger", fillcolor="#e68540"] ;
517 -> 518 ;
519 [label="lm_5_z <= -0.145\ngini = 0.025\nsamples = 44\nvalue = [79, 0, 0, 1]\nclass = anger", fillcolor="#e5833c"] ;
518 -> 519 ;
520 [label="gini = 0.0\nsamples = 39\nvalue = [72, 0, 0, 0]\nclass = anger", fillcolor="#e58139"] ;
519 -> 520 ;
521 [label="lm_301_y <= 0.376\ngini = 0.219\nsamples = 5\nvalue = [7, 0, 0, 1]\nclass = anger", fillcolor="#e99355"] ;
519 -> 521 ;
522 [label="gini = 0.0\nsamples = 4\nvalue = [7, 0, 0, 0]\nclass = anger", fillcolor="#e58139"] ;
521 -> 522 ;
523 [label="gini = 0.0\nsamples = 1\nvalue = [0, 0, 0, 1]\nclass = sad", fillcolor="#d739e5"] ;
521 -> 523 ;
524 [label="lm_130_x <= 0.413\ngini = 0.278\nsamples = 7\nvalue = [10, 0, 2, 0]\nclass = anger", fillcolor="#ea9a61"] ;
518 -> 524 ;
525 [label="gini = 0.0\nsamples = 1\nvalue = [0, 0, 2, 0]\nclass = neutral", fillcolor="#399de5"] ;
524 -> 525 ;
526 [label="gini = 0.0\nsamples = 6\nvalue = [10, 0, 0, 0]\nclass = anger", fillcolor="#e58139"] ;
524 -> 526 ;
527 [label="lm_28_y <= 0.376\ngini = 0.5\nsamples = 2\nvalue = [1, 0, 0, 1]\nclass = anger", fillcolor="#ffffff"] ;
517 -> 527 ;
528 [label="gini = 0.0\nsamples = 1\nvalue = [0, 0, 0, 1]\nclass = sad", fillcolor="#d739e5"] ;
527 -> 528 ;
529 [label="gini = 0.0\nsamples = 1\nvalue = [1, 0, 0, 0]\nclass = anger", fillcolor="#e58139"] ;
527 -> 529 ;
530 [label="gini = 0.0\nsamples = 1\nvalue = [0, 1, 0, 0]\nclass = happy", fillcolor="#47e539"] ;
510 -> 530 ;
531 [label="gini = 0.0\nsamples = 2\nvalue = [0, 0, 0, 3]\nclass = sad", fillcolor="#d739e5"] ;
509 -> 531 ;
532 [label="lm_125_z <= 0.109\ngini = 0.375\nsamples = 4\nvalue = [0, 0, 3, 1]\nclass = neutral", fillcolor="#7bbeee"] ;
508 -> 532 ;
533 [label="gini = 0.0\nsamples = 1\nvalue = [0, 0, 0, 1]\nclass = sad", fillcolor="#d739e5"] ;
532 -> 533 ;
534 [label="gini = 0.0\nsamples = 3\nvalue = [0, 0, 3, 0]\nclass = neutral", fillcolor="#399de5"] ;
532 -> 534 ;
535 [label="lm_274_x <= 0.641\ngini = 0.606\nsamples = 56\nvalue = [52.0, 3.0, 21.0, 18.0]\nclass = anger", fillcolor="#f4c9ab"] ;
507 -> 535 ;
536 [label="lm_344_x <= 0.57\ngini = 0.683\nsamples = 34\nvalue = [17.0, 2.0, 21.0, 15.0]\nclass = neutral", fillcolor="#eaf5fc"] ;
535 -> 536 ;
537 [label="lm_330_z <= -0.022\ngini = 0.684\nsamples = 30\nvalue = [17, 2, 11, 15]\nclass = anger", fillcolor="#fdf7f2"] ;
536 -> 537 ;
538 [label="gini = 0.0\nsamples = 4\nvalue = [0, 0, 8, 0]\nclass = neutral", fillcolor="#399de5"] ;
537 -> 538 ;
539 [label="lm_70_x <= 0.365\ngini = 0.615\nsamples = 26\nvalue = [17, 2, 3, 15]\nclass = anger", fillcolor="#fdf4ed"] ;
537 -> 539 ;
540 [label="lm_49_x <= 0.414\ngini = 0.381\nsamples = 15\nvalue = [3, 0, 1, 13]\nclass = sad", fillcolor="#e272ec"] ;
539 -> 540 ;
541 [label="lm_434_x <= 0.742\ngini = 0.375\nsamples = 4\nvalue = [3, 0, 0, 1]\nclass = anger", fillcolor="#eeab7b"] ;
540 -> 541 ;
542 [label="gini = 0.0\nsamples = 1\nvalue = [0, 0, 0, 1]\nclass = sad", fillcolor="#d739e5"] ;
541 -> 542 ;
543 [label="gini = 0.0\nsamples = 3\nvalue = [3, 0, 0, 0]\nclass = anger", fillcolor="#e58139"] ;
541 -> 543 ;
544 [label="lm_268_x <= 0.531\ngini = 0.142\nsamples = 11\nvalue = [0, 0, 1, 12]\nclass = sad", fillcolor="#da49e7"] ;
540 -> 544 ;
545 [label="gini = 0.0\nsamples = 1\nvalue = [0, 0, 1, 0]\nclass = neutral", fillcolor="#399de5"] ;
544 -> 545 ;
546 [label="gini = 0.0\nsamples = 10\nvalue = [0, 0, 0, 12]\nclass = sad", fillcolor="#d739e5"] ;
544 -> 546 ;
547 [label="lm_478_y <= 0.43\ngini = 0.48\nsamples = 11\nvalue = [14, 2, 2, 2]\nclass = anger", fillcolor="#eeab7b"] ;
539 -> 547 ;
548 [label="lm_214_z <= 0.063\ngini = 0.219\nsamples = 9\nvalue = [14, 0, 2, 0]\nclass = anger", fillcolor="#e99355"] ;
547 -> 548 ;
549 [label="gini = 0.0\nsamples = 2\nvalue = [0, 0, 2, 0]\nclass = neutral", fillcolor="#399de5"] ;
548 -> 549 ;
550 [label="gini = 0.0\nsamples = 7\nvalue = [14, 0, 0, 0]\nclass = anger", fillcolor="#e58139"] ;
548 -> 550 ;
551 [label="lm_327_z <= -0.057\ngini = 0.5\nsamples = 2\nvalue = [0, 2, 0, 2]\nclass = happy", fillcolor="#ffffff"] ;
547 -> 551 ;
552 [label="gini = 0.0\nsamples = 1\nvalue = [0, 0, 0, 2]\nclass = sad", fillcolor="#d739e5"] ;
551 -> 552 ;
553 [label="gini = 0.0\nsamples = 1\nvalue = [0, 2, 0, 0]\nclass = happy", fillcolor="#47e539"] ;
551 -> 553 ;
554 [label="gini = 0.0\nsamples = 4\nvalue = [0, 0, 10, 0]\nclass = neutral", fillcolor="#399de5"] ;
536 -> 554 ;
555 [label="lm_68_z <= 0.069\ngini = 0.188\nsamples = 22\nvalue = [35, 1, 0, 3]\nclass = anger", fillcolor="#e88f4f"] ;
535 -> 555 ;
556 [label="lm_336_x <= 0.621\ngini = 0.104\nsamples = 21\nvalue = [35, 1, 0, 1]\nclass = anger", fillcolor="#e68844"] ;
555 -> 556 ;
557 [label="lm_101_x <= 0.392\ngini = 0.5\nsamples = 2\nvalue = [0, 1, 0, 1]\nclass = happy", fillcolor="#ffffff"] ;
556 -> 557 ;
558 [label="gini = 0.0\nsamples = 1\nvalue = [0, 1, 0, 0]\nclass = happy", fillcolor="#47e539"] ;
557 -> 558 ;
559 [label="gini = 0.0\nsamples = 1\nvalue = [0, 0, 0, 1]\nclass = sad", fillcolor="#d739e5"] ;
557 -> 559 ;
560 [label="gini = 0.0\nsamples = 19\nvalue = [35, 0, 0, 0]\nclass = anger", fillcolor="#e58139"] ;
556 -> 560 ;
561 [label="gini = 0.0\nsamples = 1\nvalue = [0, 0, 0, 2]\nclass = sad", fillcolor="#d739e5"] ;
555 -> 561 ;
562 [label="lm_13_z <= -0.04\ngini = 0.592\nsamples = 27\nvalue = [21, 0, 5, 18]\nclass = anger", fillcolor="#fcf0e8"] ;
498 -> 562 ;
563 [label="lm_100_z <= -0.066\ngini = 0.527\nsamples = 19\nvalue = [21, 0, 5, 7]\nclass = anger", fillcolor="#f1bb94"] ;
562 -> 563 ;
564 [label="lm_305_y <= 0.719\ngini = 0.651\nsamples = 8\nvalue = [3, 0, 5, 5]\nclass = neutral", fillcolor="#ffffff"] ;
563 -> 564 ;
565 [label="lm_320_x <= 0.616\ngini = 0.469\nsamples = 6\nvalue = [3, 0, 0, 5]\nclass = sad", fillcolor="#efb0f5"] ;
564 -> 565 ;
566 [label="gini = 0.0\nsamples = 3\nvalue = [0, 0, 0, 5]\nclass = sad", fillcolor="#d739e5"] ;
565 -> 566 ;
567 [label="gini = 0.0\nsamples = 3\nvalue = [3, 0, 0, 0]\nclass = anger", fillcolor="#e58139"] ;
565 -> 567 ;
568 [label="gini = 0.0\nsamples = 2\nvalue = [0, 0, 5, 0]\nclass = neutral", fillcolor="#399de5"] ;
564 -> 568 ;
569 [label="lm_397_z <= 0.07\ngini = 0.18\nsamples = 11\nvalue = [18, 0, 0, 2]\nclass = anger", fillcolor="#e88f4f"] ;
563 -> 569 ;
570 [label="gini = 0.0\nsamples = 9\nvalue = [18, 0, 0, 0]\nclass = anger", fillcolor="#e58139"] ;
569 -> 570 ;
571 [label="gini = 0.0\nsamples = 2\nvalue = [0, 0, 0, 2]\nclass = sad", fillcolor="#d739e5"] ;
569 -> 571 ;
572 [label="gini = 0.0\nsamples = 8\nvalue = [0, 0, 0, 11]\nclass = sad", fillcolor="#d739e5"] ;
562 -> 572 ;
573 [label="lm_280_z <= -0.041\ngini = 0.245\nsamples = 4\nvalue = [1, 0, 0, 6]\nclass = sad", fillcolor="#de5ae9"] ;
493 -> 573 ;
574 [label="gini = 0.0\nsamples = 3\nvalue = [0, 0, 0, 6]\nclass = sad", fillcolor="#d739e5"] ;
573 -> 574 ;
575 [label="gini = 0.0\nsamples = 1\nvalue = [1, 0, 0, 0]\nclass = anger", fillcolor="#e58139"] ;
573 -> 575 ;
576 [label="lm_27_y <= 0.452\ngini = 0.62\nsamples = 14\nvalue = [4, 0, 6, 10]\nclass = sad", fillcolor="#f4c6f8"] ;
492 -> 576 ;
577 [label="lm_196_x <= 0.501\ngini = 0.278\nsamples = 8\nvalue = [2, 0, 0, 10]\nclass = sad", fillcolor="#df61ea"] ;
576 -> 577 ;
578 [label="gini = 0.0\nsamples = 2\nvalue = [2, 0, 0, 0]\nclass = anger", fillcolor="#e58139"] ;
577 -> 578 ;
579 [label="gini = 0.0\nsamples = 6\nvalue = [0, 0, 0, 10]\nclass = sad", fillcolor="#d739e5"] ;
577 -> 579 ;
580 [label="lm_334_x <= 0.695\ngini = 0.375\nsamples = 6\nvalue = [2, 0, 6, 0]\nclass = neutral", fillcolor="#7bbeee"] ;
576 -> 580 ;
581 [label="gini = 0.0\nsamples = 1\nvalue = [2, 0, 0, 0]\nclass = anger", fillcolor="#e58139"] ;
580 -> 581 ;
582 [label="gini = 0.0\nsamples = 5\nvalue = [0, 0, 6, 0]\nclass = neutral", fillcolor="#399de5"] ;
580 -> 582 ;
583 [label="lm_259_x <= 0.598\ngini = 0.639\nsamples = 18\nvalue = [8, 3, 21, 8]\nclass = neutral", fillcolor="#afd7f4"] ;
485 -> 583 ;
584 [label="gini = 0.0\nsamples = 8\nvalue = [0, 0, 21, 0]\nclass = neutral", fillcolor="#399de5"] ;
583 -> 584 ;
585 [label="lm_412_x <= 0.782\ngini = 0.62\nsamples = 10\nvalue = [8, 3, 0, 8]\nclass = anger", fillcolor="#ffffff"] ;
583 -> 585 ;
586 [label="gini = 0.0\nsamples = 5\nvalue = [8, 0, 0, 0]\nclass = anger", fillcolor="#e58139"] ;
585 -> 586 ;
587 [label="lm_142_z <= -0.108\ngini = 0.397\nsamples = 5\nvalue = [0, 3, 0, 8]\nclass = sad", fillcolor="#e683ef"] ;
585 -> 587 ;
588 [label="gini = 0.0\nsamples = 3\nvalue = [0, 0, 0, 8]\nclass = sad", fillcolor="#d739e5"] ;
587 -> 588 ;
589 [label="gini = 0.0\nsamples = 2\nvalue = [0, 3, 0, 0]\nclass = happy", fillcolor="#47e539"] ;
587 -> 589 ;
590 [label="lm_477_y <= 0.43\ngini = 0.659\nsamples = 1225\nvalue = [564, 66, 416, 870]\nclass = sad", fillcolor="#f6d2f9"] ;
424 -> 590 ;
591 [label="lm_446_y <= 0.4\ngini = 0.65\nsamples = 630\nvalue = [395, 17, 184, 366]\nclass = anger", fillcolor="#fef9f5"] ;
590 -> 591 ;
592 [label="lm_405_y <= 0.805\ngini = 0.655\nsamples = 502\nvalue = [261, 14, 161, 323]\nclass = sad", fillcolor="#fae6fc"] ;
591 -> 592 ;
593 [label="lm_149_y <= 0.92\ngini = 0.651\nsamples = 429\nvalue = [175, 14, 154, 298]\nclass = sad", fillcolor="#f4cbf8"] ;
592 -> 593 ;
594 [label="lm_308_x <= 0.625\ngini = 0.581\nsamples = 225\nvalue = [83, 7, 54, 198]\nclass = sad", fillcolor="#eda7f3"] ;
593 -> 594 ;
595 [label="lm_456_y <= 0.607\ngini = 0.613\nsamples = 207\nvalue = [83, 7, 54, 164]\nclass = sad", fillcolor="#f1b8f6"] ;
594 -> 595 ;
596 [label="lm_286_y <= 0.369\ngini = 0.663\nsamples = 126\nvalue = [72.0, 6.0, 37.0, 72.0]\nclass = anger", fillcolor="#ffffff"] ;
595 -> 596 ;
597 [label="lm_118_y <= 0.499\ngini = 0.509\nsamples = 41\nvalue = [5, 5, 9, 39]\nclass = sad", fillcolor="#e786ef"] ;
596 -> 597 ;
598 [label="lm_165_z <= -0.07\ngini = 0.697\nsamples = 23\nvalue = [4, 5, 9, 13]\nclass = sad", fillcolor="#f8dbfa"] ;
597 -> 598 ;
599 [label="lm_166_y <= 0.629\ngini = 0.657\nsamples = 11\nvalue = [3, 5, 8, 1]\nclass = neutral", fillcolor="#cee6f8"] ;
598 -> 599 ;
600 [label="lm_421_y <= 0.51\ngini = 0.278\nsamples = 3\nvalue = [0, 5, 0, 1]\nclass = happy", fillcolor="#6cea61"] ;
599 -> 600 ;
601 [label="gini = 0.0\nsamples = 1\nvalue = [0, 0, 0, 1]\nclass = sad", fillcolor="#d739e5"] ;
600 -> 601 ;
602 [label="gini = 0.0\nsamples = 2\nvalue = [0, 5, 0, 0]\nclass = happy", fillcolor="#47e539"] ;
600 -> 602 ;
603 [label="lm_476_x <= 0.654\ngini = 0.397\nsamples = 8\nvalue = [3, 0, 8, 0]\nclass = neutral", fillcolor="#83c2ef"] ;
599 -> 603 ;
604 [label="gini = 0.0\nsamples = 6\nvalue = [0, 0, 8, 0]\nclass = neutral", fillcolor="#399de5"] ;
603 -> 604 ;
605 [label="gini = 0.0\nsamples = 2\nvalue = [3, 0, 0, 0]\nclass = anger", fillcolor="#e58139"] ;
603 -> 605 ;
606 [label="lm_242_y <= 0.581\ngini = 0.255\nsamples = 12\nvalue = [1, 0, 1, 12]\nclass = sad", fillcolor="#dd57e9"] ;
598 -> 606 ;
607 [label="lm_409_x <= 0.569\ngini = 0.5\nsamples = 2\nvalue = [1, 0, 1, 0]\nclass = anger", fillcolor="#ffffff"] ;
606 -> 607 ;
608 [label="gini = 0.0\nsamples = 1\nvalue = [0, 0, 1, 0]\nclass = neutral", fillcolor="#399de5"] ;
607 -> 608 ;
609 [label="gini = 0.0\nsamples = 1\nvalue = [1, 0, 0, 0]\nclass = anger", fillcolor="#e58139"] ;
607 -> 609 ;
610 [label="gini = 0.0\nsamples = 10\nvalue = [0, 0, 0, 12]\nclass = sad", fillcolor="#d739e5"] ;
606 -> 610 ;
611 [label="lm_446_x <= 0.707\ngini = 0.071\nsamples = 18\nvalue = [1, 0, 0, 26]\nclass = sad", fillcolor="#d941e6"] ;
597 -> 611 ;
612 [label="lm_317_y <= 0.719\ngini = 0.375\nsamples = 3\nvalue = [1, 0, 0, 3]\nclass = sad", fillcolor="#e47bee"] ;
611 -> 612 ;
613 [label="gini = 0.0\nsamples = 2\nvalue = [0, 0, 0, 3]\nclass = sad", fillcolor="#d739e5"] ;
612 -> 613 ;
614 [label="gini = 0.0\nsamples = 1\nvalue = [1, 0, 0, 0]\nclass = anger", fillcolor="#e58139"] ;
612 -> 614 ;
615 [label="gini = 0.0\nsamples = 15\nvalue = [0, 0, 0, 23]\nclass = sad", fillcolor="#d739e5"] ;
611 -> 615 ;
616 [label="lm_122_z <= -0.027\ngini = 0.618\nsamples = 85\nvalue = [67, 1, 28, 33]\nclass = anger", fillcolor="#f6d2b9"] ;
596 -> 616 ;
617 [label="gini = 0.0\nsamples = 8\nvalue = [0, 0, 0, 13]\nclass = sad", fillcolor="#d739e5"] ;
616 -> 617 ;
618 [label="lm_13_x <= 0.527\ngini = 0.578\nsamples = 77\nvalue = [67, 1, 28, 20]\nclass = anger", fillcolor="#f3c7a7"] ;
616 -> 618 ;
619 [label="lm_263_z <= -0.048\ngini = 0.53\nsamples = 70\nvalue = [67, 1, 17, 20]\nclass = anger", fillcolor="#f1b992"] ;
618 -> 619 ;
620 [label="gini = 0.0\nsamples = 6\nvalue = [0, 0, 7, 0]\nclass = neutral", fillcolor="#399de5"] ;
619 -> 620 ;
621 [label="lm_385_y <= 0.424\ngini = 0.48\nsamples = 64\nvalue = [67.0, 1.0, 10.0, 20.0]\nclass = anger", fillcolor="#efb388"] ;
619 -> 621 ;
622 [label="lm_227_y <= 0.459\ngini = 0.394\nsamples = 59\nvalue = [67, 1, 10, 10]\nclass = anger", fillcolor="#eca36e"] ;
621 -> 622 ;
623 [label="lm_294_y <= 0.348\ngini = 0.33\nsamples = 55\nvalue = [67, 1, 10, 5]\nclass = anger", fillcolor="#eb9d64"] ;
622 -> 623 ;
624 [label="gini = 0.0\nsamples = 29\nvalue = [53, 0, 0, 0]\nclass = anger", fillcolor="#e58139"] ;
623 -> 624 ;
625 [label="lm_421_y <= 0.524\ngini = 0.642\nsamples = 26\nvalue = [14, 1, 10, 5]\nclass = anger", fillcolor="#fae6d7"] ;
623 -> 625 ;
626 [label="lm_433_z <= -0.011\ngini = 0.355\nsamples = 11\nvalue = [10, 0, 0, 3]\nclass = anger", fillcolor="#eda774"] ;
625 -> 626 ;
627 [label="gini = 0.0\nsamples = 3\nvalue = [0, 0, 0, 3]\nclass = sad", fillcolor="#d739e5"] ;
626 -> 627 ;
628 [label="gini = 0.0\nsamples = 8\nvalue = [10, 0, 0, 0]\nclass = anger", fillcolor="#e58139"] ;
626 -> 628 ;
629 [label="lm_319_z <= -0.013\ngini = 0.581\nsamples = 15\nvalue = [4, 1, 10, 2]\nclass = neutral", fillcolor="#a4d2f3"] ;
625 -> 629 ;
630 [label="lm_387_y <= 0.411\ngini = 0.292\nsamples = 10\nvalue = [1, 1, 10, 0]\nclass = neutral", fillcolor="#5dafea"] ;
629 -> 630 ;
631 [label="gini = 0.0\nsamples = 8\nvalue = [0, 0, 10, 0]\nclass = neutral", fillcolor="#399de5"] ;
630 -> 631 ;
632 [label="lm_259_x <= 0.633\ngini = 0.5\nsamples = 2\nvalue = [1, 1, 0, 0]\nclass = anger", fillcolor="#ffffff"] ;
630 -> 632 ;
633 [label="gini = 0.0\nsamples = 1\nvalue = [0, 1, 0, 0]\nclass = happy", fillcolor="#47e539"] ;
632 -> 633 ;
634 [label="gini = 0.0\nsamples = 1\nvalue = [1, 0, 0, 0]\nclass = anger", fillcolor="#e58139"] ;
632 -> 634 ;
635 [label="lm_311_z <= -0.002\ngini = 0.48\nsamples = 5\nvalue = [3, 0, 0, 2]\nclass = anger", fillcolor="#f6d5bd"] ;
629 -> 635 ;
636 [label="gini = 0.0\nsamples = 3\nvalue = [3, 0, 0, 0]\nclass = anger", fillcolor="#e58139"] ;
635 -> 636 ;
637 [label="gini = 0.0\nsamples = 2\nvalue = [0, 0, 0, 2]\nclass = sad", fillcolor="#d739e5"] ;
635 -> 637 ;
638 [label="gini = 0.0\nsamples = 4\nvalue = [0, 0, 0, 5]\nclass = sad", fillcolor="#d739e5"] ;
622 -> 638 ;
639 [label="gini = 0.0\nsamples = 5\nvalue = [0, 0, 0, 10]\nclass = sad", fillcolor="#d739e5"] ;
621 -> 639 ;
640 [label="gini = 0.0\nsamples = 7\nvalue = [0, 0, 11, 0]\nclass = neutral", fillcolor="#399de5"] ;
618 -> 640 ;
641 [label="lm_287_z <= -0.024\ngini = 0.394\nsamples = 81\nvalue = [11, 1, 17, 92]\nclass = sad", fillcolor="#e270ec"] ;
595 -> 641 ;
642 [label="lm_138_x <= 0.211\ngini = 0.616\nsamples = 16\nvalue = [5, 1, 12, 4]\nclass = neutral", fillcolor="#add7f4"] ;
641 -> 642 ;
643 [label="lm_105_x <= 0.292\ngini = 0.681\nsamples = 10\nvalue = [5, 1, 2, 4]\nclass = anger", fillcolor="#fcefe6"] ;
642 -> 643 ;
644 [label="lm_325_z <= 0.015\ngini = 0.571\nsamples = 6\nvalue = [0, 1, 2, 4]\nclass = sad", fillcolor="#efb0f5"] ;
643 -> 644 ;
645 [label="gini = 0.0\nsamples = 3\nvalue = [0, 0, 0, 4]\nclass = sad", fillcolor="#d739e5"] ;
644 -> 645 ;
646 [label="lm_105_z <= -0.057\ngini = 0.444\nsamples = 3\nvalue = [0, 1, 2, 0]\nclass = neutral", fillcolor="#9ccef2"] ;
644 -> 646 ;
647 [label="gini = 0.0\nsamples = 2\nvalue = [0, 0, 2, 0]\nclass = neutral", fillcolor="#399de5"] ;
646 -> 647 ;
648 [label="gini = 0.0\nsamples = 1\nvalue = [0, 1, 0, 0]\nclass = happy", fillcolor="#47e539"] ;
646 -> 648 ;
649 [label="gini = 0.0\nsamples = 4\nvalue = [5, 0, 0, 0]\nclass = anger", fillcolor="#e58139"] ;
643 -> 649 ;
650 [label="gini = 0.0\nsamples = 6\nvalue = [0, 0, 10, 0]\nclass = neutral", fillcolor="#399de5"] ;
642 -> 650 ;
651 [label="lm_278_x <= 0.583\ngini = 0.204\nsamples = 65\nvalue = [6, 0, 5, 88]\nclass = sad", fillcolor="#dc50e8"] ;
641 -> 651 ;
652 [label="lm_335_y <= 0.304\ngini = 0.094\nsamples = 51\nvalue = [1, 0, 3, 78]\nclass = sad", fillcolor="#d943e6"] ;
651 -> 652 ;
653 [label="gini = 0.0\nsamples = 2\nvalue = [0, 0, 2, 0]\nclass = neutral", fillcolor="#399de5"] ;
652 -> 653 ;
654 [label="lm_37_z <= -0.001\ngini = 0.049\nsamples = 49\nvalue = [1, 0, 1, 78]\nclass = sad", fillcolor="#d83ee6"] ;
652 -> 654 ;
655 [label="lm_58_z <= -0.011\ngini = 0.025\nsamples = 48\nvalue = [1, 0, 0, 78]\nclass = sad", fillcolor="#d83ce5"] ;
654 -> 655 ;
656 [label="gini = 0.0\nsamples = 1\nvalue = [1, 0, 0, 0]\nclass = anger", fillcolor="#e58139"] ;
655 -> 656 ;
657 [label="gini = 0.0\nsamples = 47\nvalue = [0, 0, 0, 78]\nclass = sad", fillcolor="#d739e5"] ;
655 -> 657 ;
658 [label="gini = 0.0\nsamples = 1\nvalue = [0, 0, 1, 0]\nclass = neutral", fillcolor="#399de5"] ;
654 -> 658 ;
659 [label="lm_388_x <= 0.678\ngini = 0.554\nsamples = 14\nvalue = [5, 0, 2, 10]\nclass = sad", fillcolor="#eeacf4"] ;
651 -> 659 ;
660 [label="gini = 0.0\nsamples = 4\nvalue = [5, 0, 0, 0]\nclass = anger", fillcolor="#e58139"] ;
659 -> 660 ;
661 [label="lm_119_y <= 0.504\ngini = 0.278\nsamples = 10\nvalue = [0, 0, 2, 10]\nclass = sad", fillcolor="#df61ea"] ;
659 -> 661 ;
662 [label="gini = 0.0\nsamples = 8\nvalue = [0, 0, 0, 10]\nclass = sad", fillcolor="#d739e5"] ;
661 -> 662 ;
663 [label="gini = 0.0\nsamples = 2\nvalue = [0, 0, 2, 0]\nclass = neutral", fillcolor="#399de5"] ;
661 -> 663 ;
664 [label="gini = 0.0\nsamples = 18\nvalue = [0, 0, 0, 34]\nclass = sad", fillcolor="#d739e5"] ;
594 -> 664 ;
665 [label="lm_13_z <= -0.056\ngini = 0.681\nsamples = 204\nvalue = [92.0, 7.0, 100.0, 100.0]\nclass = neutral", fillcolor="#ffffff"] ;
593 -> 665 ;
666 [label="lm_255_y <= 0.464\ngini = 0.656\nsamples = 141\nvalue = [82, 0, 53, 77]\nclass = anger", fillcolor="#fefaf8"] ;
665 -> 666 ;
667 [label="lm_330_y <= 0.514\ngini = 0.609\nsamples = 112\nvalue = [75, 0, 23, 69]\nclass = anger", fillcolor="#fdf7f3"] ;
666 -> 667 ;
668 [label="lm_336_x <= 0.622\ngini = 0.549\nsamples = 31\nvalue = [6, 0, 11, 26]\nclass = sad", fillcolor="#eca2f3"] ;
667 -> 668 ;
669 [label="lm_361_y <= 0.54\ngini = 0.477\nsamples = 12\nvalue = [3, 0, 11, 2]\nclass = neutral", fillcolor="#85c3ef"] ;
668 -> 669 ;
670 [label="lm_323_y <= 0.662\ngini = 0.375\nsamples = 3\nvalue = [3, 0, 0, 1]\nclass = anger", fillcolor="#eeab7b"] ;
669 -> 670 ;
671 [label="gini = 0.0\nsamples = 2\nvalue = [3, 0, 0, 0]\nclass = anger", fillcolor="#e58139"] ;
670 -> 671 ;
672 [label="gini = 0.0\nsamples = 1\nvalue = [0, 0, 0, 1]\nclass = sad", fillcolor="#d739e5"] ;
670 -> 672 ;
673 [label="lm_474_y <= 0.413\ngini = 0.153\nsamples = 9\nvalue = [0, 0, 11, 1]\nclass = neutral", fillcolor="#4ba6e7"] ;
669 -> 673 ;
674 [label="gini = 0.0\nsamples = 1\nvalue = [0, 0, 0, 1]\nclass = sad", fillcolor="#d739e5"] ;
673 -> 674 ;
675 [label="gini = 0.0\nsamples = 8\nvalue = [0, 0, 11, 0]\nclass = neutral", fillcolor="#399de5"] ;
673 -> 675 ;
676 [label="lm_349_x <= 0.649\ngini = 0.198\nsamples = 19\nvalue = [3, 0, 0, 24]\nclass = sad", fillcolor="#dc52e8"] ;
668 -> 676 ;
677 [label="gini = 0.0\nsamples = 2\nvalue = [2, 0, 0, 0]\nclass = anger", fillcolor="#e58139"] ;
676 -> 677 ;
678 [label="lm_388_y <= 0.394\ngini = 0.077\nsamples = 17\nvalue = [1, 0, 0, 24]\nclass = sad", fillcolor="#d941e6"] ;
676 -> 678 ;
679 [label="gini = 0.0\nsamples = 1\nvalue = [1, 0, 0, 0]\nclass = anger", fillcolor="#e58139"] ;
678 -> 679 ;
680 [label="gini = 0.0\nsamples = 16\nvalue = [0, 0, 0, 24]\nclass = sad", fillcolor="#d739e5"] ;
678 -> 680 ;
681 [label="lm_467_y <= 0.423\ngini = 0.561\nsamples = 81\nvalue = [69, 0, 12, 43]\nclass = anger", fillcolor="#f7d7bf"] ;
667 -> 681 ;
682 [label="lm_252_y <= 0.325\ngini = 0.527\nsamples = 59\nvalue = [60, 0, 12, 23]\nclass = anger", fillcolor="#f2be99"] ;
681 -> 682 ;
683 [label="lm_218_z <= -0.048\ngini = 0.629\nsamples = 41\nvalue = [29, 0, 12, 21]\nclass = anger", fillcolor="#fae6d8"] ;
682 -> 683 ;
684 [label="lm_352_x <= 0.529\ngini = 0.323\nsamples = 20\nvalue = [25, 0, 5, 1]\nclass = anger", fillcolor="#eb9e67"] ;
683 -> 684 ;
685 [label="gini = 0.0\nsamples = 14\nvalue = [24, 0, 0, 0]\nclass = anger", fillcolor="#e58139"] ;
684 -> 685 ;
686 [label="lm_177_y <= 0.968\ngini = 0.449\nsamples = 6\nvalue = [1, 0, 5, 1]\nclass = neutral", fillcolor="#7bbeee"] ;
684 -> 686 ;
687 [label="gini = 0.0\nsamples = 4\nvalue = [0, 0, 5, 0]\nclass = neutral", fillcolor="#399de5"] ;
686 -> 687 ;
688 [label="lm_328_x <= 0.599\ngini = 0.5\nsamples = 2\nvalue = [1, 0, 0, 1]\nclass = anger", fillcolor="#ffffff"] ;
686 -> 688 ;
689 [label="gini = 0.0\nsamples = 1\nvalue = [1, 0, 0, 0]\nclass = anger", fillcolor="#e58139"] ;
688 -> 689 ;
690 [label="gini = 0.0\nsamples = 1\nvalue = [0, 0, 0, 1]\nclass = sad", fillcolor="#d739e5"] ;
688 -> 690 ;
691 [label="lm_359_y <= 0.587\ngini = 0.516\nsamples = 21\nvalue = [4, 0, 7, 20]\nclass = sad", fillcolor="#e994f1"] ;
683 -> 691 ;
692 [label="lm_406_y <= 0.752\ngini = 0.346\nsamples = 3\nvalue = [0, 0, 7, 2]\nclass = neutral", fillcolor="#72b9ec"] ;
691 -> 692 ;
693 [label="gini = 0.0\nsamples = 1\nvalue = [0, 0, 0, 2]\nclass = sad", fillcolor="#d739e5"] ;
692 -> 693 ;
694 [label="gini = 0.0\nsamples = 2\nvalue = [0, 0, 7, 0]\nclass = neutral", fillcolor="#399de5"] ;
692 -> 694 ;
695 [label="lm_375_y <= 0.436\ngini = 0.298\nsamples = 18\nvalue = [4, 0, 0, 18]\nclass = sad", fillcolor="#e065eb"] ;
691 -> 695 ;
696 [label="gini = 0.0\nsamples = 3\nvalue = [4, 0, 0, 0]\nclass = anger", fillcolor="#e58139"] ;
695 -> 696 ;
697 [label="gini = 0.0\nsamples = 15\nvalue = [0, 0, 0, 18]\nclass = sad", fillcolor="#d739e5"] ;
695 -> 697 ;
698 [label="lm_223_z <= -0.005\ngini = 0.114\nsamples = 18\nvalue = [31, 0, 0, 2]\nclass = anger", fillcolor="#e78946"] ;
682 -> 698 ;
699 [label="lm_385_z <= 0.018\ngini = 0.444\nsamples = 2\nvalue = [1, 0, 0, 2]\nclass = sad", fillcolor="#eb9cf2"] ;
698 -> 699 ;
700 [label="gini = 0.0\nsamples = 1\nvalue = [1, 0, 0, 0]\nclass = anger", fillcolor="#e58139"] ;
699 -> 700 ;
701 [label="gini = 0.0\nsamples = 1\nvalue = [0, 0, 0, 2]\nclass = sad", fillcolor="#d739e5"] ;
699 -> 701 ;
702 [label="gini = 0.0\nsamples = 16\nvalue = [30, 0, 0, 0]\nclass = anger", fillcolor="#e58139"] ;
698 -> 702 ;
703 [label="lm_342_y <= 0.44\ngini = 0.428\nsamples = 22\nvalue = [9, 0, 0, 20]\nclass = sad", fillcolor="#e992f1"] ;
681 -> 703 ;
704 [label="gini = 0.0\nsamples = 4\nvalue = [6, 0, 0, 0]\nclass = anger", fillcolor="#e58139"] ;
703 -> 704 ;
705 [label="lm_359_y <= 0.586\ngini = 0.227\nsamples = 18\nvalue = [3, 0, 0, 20]\nclass = sad", fillcolor="#dd57e9"] ;
703 -> 705 ;
706 [label="gini = 0.0\nsamples = 2\nvalue = [3, 0, 0, 0]\nclass = anger", fillcolor="#e58139"] ;
705 -> 706 ;
707 [label="gini = 0.0\nsamples = 16\nvalue = [0, 0, 0, 20]\nclass = sad", fillcolor="#d739e5"] ;
705 -> 707 ;
708 [label="lm_418_y <= 0.422\ngini = 0.5\nsamples = 29\nvalue = [7, 0, 30, 8]\nclass = neutral", fillcolor="#89c5f0"] ;
666 -> 708 ;
709 [label="lm_94_x <= 0.175\ngini = 0.654\nsamples = 18\nvalue = [7, 0, 11, 8]\nclass = neutral", fillcolor="#deeffb"] ;
708 -> 709 ;
710 [label="lm_84_y <= 0.839\ngini = 0.457\nsamples = 12\nvalue = [0, 0, 11, 6]\nclass = neutral", fillcolor="#a5d2f3"] ;
709 -> 710 ;
711 [label="lm_191_x <= 0.421\ngini = 0.375\nsamples = 8\nvalue = [0, 0, 2, 6]\nclass = sad", fillcolor="#e47bee"] ;
710 -> 711 ;
712 [label="gini = 0.0\nsamples = 5\nvalue = [0, 0, 0, 5]\nclass = sad", fillcolor="#d739e5"] ;
711 -> 712 ;
713 [label="lm_61_z <= -0.07\ngini = 0.444\nsamples = 3\nvalue = [0, 0, 2, 1]\nclass = neutral", fillcolor="#9ccef2"] ;
711 -> 713 ;
714 [label="gini = 0.0\nsamples = 2\nvalue = [0, 0, 2, 0]\nclass = neutral", fillcolor="#399de5"] ;
713 -> 714 ;
715 [label="gini = 0.0\nsamples = 1\nvalue = [0, 0, 0, 1]\nclass = sad", fillcolor="#d739e5"] ;
713 -> 715 ;
716 [label="gini = 0.0\nsamples = 4\nvalue = [0, 0, 9, 0]\nclass = neutral", fillcolor="#399de5"] ;
710 -> 716 ;
717 [label="lm_212_y <= 0.83\ngini = 0.346\nsamples = 6\nvalue = [7, 0, 0, 2]\nclass = anger", fillcolor="#eca572"] ;
709 -> 717 ;
718 [label="gini = 0.0\nsamples = 1\nvalue = [0, 0, 0, 2]\nclass = sad", fillcolor="#d739e5"] ;
717 -> 718 ;
719 [label="gini = 0.0\nsamples = 5\nvalue = [7, 0, 0, 0]\nclass = anger", fillcolor="#e58139"] ;
717 -> 719 ;
720 [label="gini = 0.0\nsamples = 11\nvalue = [0, 0, 19, 0]\nclass = neutral", fillcolor="#399de5"] ;
708 -> 720 ;
721 [label="lm_124_y <= 0.555\ngini = 0.619\nsamples = 63\nvalue = [10, 7, 47, 23]\nclass = neutral", fillcolor="#b5daf5"] ;
665 -> 721 ;
722 [label="lm_9_x <= 0.508\ngini = 0.656\nsamples = 27\nvalue = [7, 6, 5, 19]\nclass = sad", fillcolor="#efb0f5"] ;
721 -> 722 ;
723 [label="lm_420_z <= -0.112\ngini = 0.111\nsamples = 13\nvalue = [0, 0, 1, 16]\nclass = sad", fillcolor="#da45e7"] ;
722 -> 723 ;
724 [label="gini = 0.0\nsamples = 1\nvalue = [0, 0, 1, 0]\nclass = neutral", fillcolor="#399de5"] ;
723 -> 724 ;
725 [label="gini = 0.0\nsamples = 12\nvalue = [0, 0, 0, 16]\nclass = sad", fillcolor="#d739e5"] ;
723 -> 725 ;
726 [label="lm_285_x <= 0.777\ngini = 0.725\nsamples = 14\nvalue = [7, 6, 4, 3]\nclass = anger", fillcolor="#fdf6f1"] ;
722 -> 726 ;
727 [label="lm_79_z <= 0.009\ngini = 0.684\nsamples = 10\nvalue = [1, 6, 4, 3]\nclass = happy", fillcolor="#dafad7"] ;
726 -> 727 ;
728 [label="lm_352_x <= 0.538\ngini = 0.594\nsamples = 7\nvalue = [1, 0, 4, 3]\nclass = neutral", fillcolor="#d7ebfa"] ;
727 -> 728 ;
729 [label="lm_127_x <= 0.43\ngini = 0.375\nsamples = 3\nvalue = [1, 0, 0, 3]\nclass = sad", fillcolor="#e47bee"] ;
728 -> 729 ;
730 [label="gini = 0.0\nsamples = 1\nvalue = [1, 0, 0, 0]\nclass = anger", fillcolor="#e58139"] ;
729 -> 730 ;
731 [label="gini = 0.0\nsamples = 2\nvalue = [0, 0, 0, 3]\nclass = sad", fillcolor="#d739e5"] ;
729 -> 731 ;
732 [label="gini = 0.0\nsamples = 4\nvalue = [0, 0, 4, 0]\nclass = neutral", fillcolor="#399de5"] ;
728 -> 732 ;
733 [label="gini = 0.0\nsamples = 3\nvalue = [0, 6, 0, 0]\nclass = happy", fillcolor="#47e539"] ;
727 -> 733 ;
734 [label="gini = 0.0\nsamples = 4\nvalue = [6, 0, 0, 0]\nclass = anger", fillcolor="#e58139"] ;
726 -> 734 ;
735 [label="lm_335_y <= 0.309\ngini = 0.284\nsamples = 36\nvalue = [3, 1, 42, 4]\nclass = neutral", fillcolor="#5baeea"] ;
721 -> 735 ;
736 [label="lm_2_y <= 0.637\ngini = 0.691\nsamples = 8\nvalue = [2, 1, 2, 4]\nclass = sad", fillcolor="#f4c6f8"] ;
735 -> 736 ;
737 [label="lm_35_y <= 0.442\ngini = 0.64\nsamples = 4\nvalue = [2, 1, 2, 0]\nclass = anger", fillcolor="#ffffff"] ;
736 -> 737 ;
738 [label="gini = 0.0\nsamples = 1\nvalue = [2, 0, 0, 0]\nclass = anger", fillcolor="#e58139"] ;
737 -> 738 ;
739 [label="lm_354_y <= 0.384\ngini = 0.444\nsamples = 3\nvalue = [0, 1, 2, 0]\nclass = neutral", fillcolor="#9ccef2"] ;
737 -> 739 ;
740 [label="gini = 0.0\nsamples = 2\nvalue = [0, 0, 2, 0]\nclass = neutral", fillcolor="#399de5"] ;
739 -> 740 ;
741 [label="gini = 0.0\nsamples = 1\nvalue = [0, 1, 0, 0]\nclass = happy", fillcolor="#47e539"] ;
739 -> 741 ;
742 [label="gini = 0.0\nsamples = 4\nvalue = [0, 0, 0, 4]\nclass = sad", fillcolor="#d739e5"] ;
736 -> 742 ;
743 [label="lm_108_x <= 0.452\ngini = 0.048\nsamples = 28\nvalue = [1, 0, 40, 0]\nclass = neutral", fillcolor="#3e9fe6"] ;
735 -> 743 ;
744 [label="gini = 0.0\nsamples = 27\nvalue = [0, 0, 40, 0]\nclass = neutral", fillcolor="#399de5"] ;
743 -> 744 ;
745 [label="gini = 0.0\nsamples = 1\nvalue = [1, 0, 0, 0]\nclass = anger", fillcolor="#e58139"] ;
743 -> 745 ;
746 [label="lm_465_y <= 0.454\ngini = 0.42\nsamples = 73\nvalue = [86, 0, 7, 25]\nclass = anger", fillcolor="#eeac7d"] ;
592 -> 746 ;
747 [label="lm_239_z <= -0.145\ngini = 0.349\nsamples = 70\nvalue = [86, 0, 0, 25]\nclass = anger", fillcolor="#eda673"] ;
746 -> 747 ;
748 [label="lm_264_z <= 0.082\ngini = 0.32\nsamples = 11\nvalue = [3, 0, 0, 12]\nclass = sad", fillcolor="#e16aec"] ;
747 -> 748 ;
749 [label="gini = 0.0\nsamples = 8\nvalue = [0, 0, 0, 12]\nclass = sad", fillcolor="#d739e5"] ;
748 -> 749 ;
750 [label="gini = 0.0\nsamples = 3\nvalue = [3, 0, 0, 0]\nclass = anger", fillcolor="#e58139"] ;
748 -> 750 ;
751 [label="lm_298_x <= 0.634\ngini = 0.234\nsamples = 59\nvalue = [83, 0, 0, 13]\nclass = anger", fillcolor="#e99558"] ;
747 -> 751 ;
752 [label="gini = 0.0\nsamples = 1\nvalue = [0, 0, 0, 4]\nclass = sad", fillcolor="#d739e5"] ;
751 -> 752 ;
753 [label="lm_453_y <= 0.475\ngini = 0.177\nsamples = 58\nvalue = [83, 0, 0, 9]\nclass = anger", fillcolor="#e88f4e"] ;
751 -> 753 ;
754 [label="lm_102_x <= 0.36\ngini = 0.067\nsamples = 53\nvalue = [83, 0, 0, 3]\nclass = anger", fillcolor="#e68640"] ;
753 -> 754 ;
755 [label="gini = 0.0\nsamples = 50\nvalue = [80, 0, 0, 0]\nclass = anger", fillcolor="#e58139"] ;
754 -> 755 ;
756 [label="lm_191_y <= 0.419\ngini = 0.5\nsamples = 3\nvalue = [3, 0, 0, 3]\nclass = anger", fillcolor="#ffffff"] ;
754 -> 756 ;
757 [label="gini = 0.0\nsamples = 2\nvalue = [0, 0, 0, 3]\nclass = sad", fillcolor="#d739e5"] ;
756 -> 757 ;
758 [label="gini = 0.0\nsamples = 1\nvalue = [3, 0, 0, 0]\nclass = anger", fillcolor="#e58139"] ;
756 -> 758 ;
759 [label="gini = 0.0\nsamples = 5\nvalue = [0, 0, 0, 6]\nclass = sad", fillcolor="#d739e5"] ;
753 -> 759 ;
760 [label="gini = 0.0\nsamples = 3\nvalue = [0, 0, 7, 0]\nclass = neutral", fillcolor="#399de5"] ;
746 -> 760 ;
761 [label="lm_118_y <= 0.424\ngini = 0.506\nsamples = 128\nvalue = [134, 3, 23, 43]\nclass = anger", fillcolor="#f0b78e"] ;
591 -> 761 ;
762 [label="gini = 0.0\nsamples = 6\nvalue = [0, 0, 0, 9]\nclass = sad", fillcolor="#d739e5"] ;
761 -> 762 ;
763 [label="lm_352_z <= -0.039\ngini = 0.478\nsamples = 122\nvalue = [134, 3, 23, 34]\nclass = anger", fillcolor="#efb083"] ;
761 -> 763 ;
764 [label="lm_343_y <= 0.432\ngini = 0.415\nsamples = 106\nvalue = [129.0, 3.0, 23.0, 18.0]\nclass = anger", fillcolor="#eda673"] ;
763 -> 764 ;
765 [label="lm_129_y <= 0.449\ngini = 0.539\nsamples = 71\nvalue = [71, 3, 21, 17]\nclass = anger", fillcolor="#f1ba92"] ;
764 -> 765 ;
766 [label="gini = 0.0\nsamples = 6\nvalue = [0, 0, 11, 0]\nclass = neutral", fillcolor="#399de5"] ;
765 -> 766 ;
767 [label="lm_88_z <= -0.045\ngini = 0.467\nsamples = 65\nvalue = [71, 3, 10, 17]\nclass = anger", fillcolor="#eeae80"] ;
765 -> 767 ;
768 [label="lm_98_z <= -0.085\ngini = 0.626\nsamples = 13\nvalue = [7, 0, 4, 10]\nclass = sad", fillcolor="#f6d5f9"] ;
767 -> 768 ;
769 [label="gini = 0.0\nsamples = 3\nvalue = [7, 0, 0, 0]\nclass = anger", fillcolor="#e58139"] ;
768 -> 769 ;
770 [label="lm_282_z <= -0.112\ngini = 0.408\nsamples = 10\nvalue = [0, 0, 4, 10]\nclass = sad", fillcolor="#e788ef"] ;
768 -> 770 ;
771 [label="gini = 0.0\nsamples = 8\nvalue = [0, 0, 0, 10]\nclass = sad", fillcolor="#d739e5"] ;
770 -> 771 ;
772 [label="gini = 0.0\nsamples = 2\nvalue = [0, 0, 4, 0]\nclass = neutral", fillcolor="#399de5"] ;
770 -> 772 ;
773 [label="lm_138_y <= 0.505\ngini = 0.345\nsamples = 52\nvalue = [64, 3, 6, 7]\nclass = anger", fillcolor="#eb9d64"] ;
767 -> 773 ;
774 [label="lm_230_y <= 0.454\ngini = 0.694\nsamples = 9\nvalue = [3, 1, 3, 5]\nclass = sad", fillcolor="#f6d3f9"] ;
773 -> 774 ;
775 [label="lm_392_z <= -0.029\ngini = 0.612\nsamples = 6\nvalue = [3, 1, 3, 0]\nclass = anger", fillcolor="#ffffff"] ;
774 -> 775 ;
776 [label="gini = 0.0\nsamples = 2\nvalue = [0, 0, 3, 0]\nclass = neutral", fillcolor="#399de5"] ;
775 -> 776 ;
777 [label="lm_223_x <= 0.406\ngini = 0.375\nsamples = 4\nvalue = [3, 1, 0, 0]\nclass = anger", fillcolor="#eeab7b"] ;
775 -> 777 ;
778 [label="gini = 0.0\nsamples = 3\nvalue = [3, 0, 0, 0]\nclass = anger", fillcolor="#e58139"] ;
777 -> 778 ;
779 [label="gini = 0.0\nsamples = 1\nvalue = [0, 1, 0, 0]\nclass = happy", fillcolor="#47e539"] ;
777 -> 779 ;
780 [label="gini = 0.0\nsamples = 3\nvalue = [0, 0, 0, 5]\nclass = sad", fillcolor="#d739e5"] ;
774 -> 780 ;
781 [label="lm_21_z <= -0.098\ngini = 0.192\nsamples = 43\nvalue = [61, 2, 3, 2]\nclass = anger", fillcolor="#e88f4e"] ;
773 -> 781 ;
782 [label="lm_433_z <= 0.071\ngini = 0.612\nsamples = 10\nvalue = [8, 2, 2, 2]\nclass = anger", fillcolor="#f2c09c"] ;
781 -> 782 ;
783 [label="lm_270_y <= 0.74\ngini = 0.667\nsamples = 5\nvalue = [0, 2, 2, 2]\nclass = happy", fillcolor="#ffffff"] ;
782 -> 783 ;
784 [label="lm_330_z <= -0.02\ngini = 0.5\nsamples = 3\nvalue = [0, 2, 0, 2]\nclass = happy", fillcolor="#ffffff"] ;
783 -> 784 ;
785 [label="gini = 0.0\nsamples = 1\nvalue = [0, 2, 0, 0]\nclass = happy", fillcolor="#47e539"] ;
784 -> 785 ;
786 [label="gini = 0.0\nsamples = 2\nvalue = [0, 0, 0, 2]\nclass = sad", fillcolor="#d739e5"] ;
784 -> 786 ;
787 [label="gini = 0.0\nsamples = 2\nvalue = [0, 0, 2, 0]\nclass = neutral", fillcolor="#399de5"] ;
783 -> 787 ;
788 [label="gini = 0.0\nsamples = 5\nvalue = [8, 0, 0, 0]\nclass = anger", fillcolor="#e58139"] ;
782 -> 788 ;
789 [label="lm_70_y <= 0.252\ngini = 0.036\nsamples = 33\nvalue = [53, 0, 1, 0]\nclass = anger", fillcolor="#e5833d"] ;
781 -> 789 ;
790 [label="lm_311_y <= 0.729\ngini = 0.5\nsamples = 2\nvalue = [1, 0, 1, 0]\nclass = anger", fillcolor="#ffffff"] ;
789 -> 790 ;
791 [label="gini = 0.0\nsamples = 1\nvalue = [0, 0, 1, 0]\nclass = neutral", fillcolor="#399de5"] ;
790 -> 791 ;
792 [label="gini = 0.0\nsamples = 1\nvalue = [1, 0, 0, 0]\nclass = anger", fillcolor="#e58139"] ;
790 -> 792 ;
793 [label="gini = 0.0\nsamples = 31\nvalue = [52, 0, 0, 0]\nclass = anger", fillcolor="#e58139"] ;
789 -> 793 ;
794 [label="lm_219_x <= 0.386\ngini = 0.095\nsamples = 35\nvalue = [58, 0, 2, 1]\nclass = anger", fillcolor="#e68743"] ;
764 -> 794 ;
795 [label="gini = 0.0\nsamples = 1\nvalue = [0, 0, 2, 0]\nclass = neutral", fillcolor="#399de5"] ;
794 -> 795 ;
796 [label="lm_452_z <= -0.021\ngini = 0.033\nsamples = 34\nvalue = [58, 0, 0, 1]\nclass = anger", fillcolor="#e5833c"] ;
794 -> 796 ;
797 [label="gini = 0.0\nsamples = 1\nvalue = [0, 0, 0, 1]\nclass = sad", fillcolor="#d739e5"] ;
796 -> 797 ;
798 [label="gini = 0.0\nsamples = 33\nvalue = [58, 0, 0, 0]\nclass = anger", fillcolor="#e58139"] ;
796 -> 798 ;
799 [label="lm_26_z <= 0.068\ngini = 0.363\nsamples = 16\nvalue = [5, 0, 0, 16]\nclass = sad", fillcolor="#e477ed"] ;
763 -> 799 ;
800 [label="gini = 0.0\nsamples = 12\nvalue = [0, 0, 0, 16]\nclass = sad", fillcolor="#d739e5"] ;
799 -> 800 ;
801 [label="gini = 0.0\nsamples = 4\nvalue = [5, 0, 0, 0]\nclass = anger", fillcolor="#e58139"] ;
799 -> 801 ;
802 [label="lm_106_x <= 0.333\ngini = 0.628\nsamples = 595\nvalue = [169, 49, 232, 504]\nclass = sad", fillcolor="#f0b4f5"] ;
590 -> 802 ;
803 [label="lm_329_y <= 0.654\ngini = 0.55\nsamples = 385\nvalue = [91, 32, 103, 385]\nclass = sad", fillcolor="#e991f1"] ;
802 -> 803 ;
804 [label="lm_406_x <= 0.505\ngini = 0.512\nsamples = 348\nvalue = [79, 32, 74, 373]\nclass = sad", fillcolor="#e685ef"] ;
803 -> 804 ;
805 [label="lm_458_z <= -0.136\ngini = 0.532\nsamples = 20\nvalue = [17, 0, 4, 6]\nclass = anger", fillcolor="#f1bd97"] ;
804 -> 805 ;
806 [label="lm_27_y <= 0.453\ngini = 0.265\nsamples = 13\nvalue = [17, 0, 1, 2]\nclass = anger", fillcolor="#e9965a"] ;
805 -> 806 ;
807 [label="lm_80_x <= 0.418\ngini = 0.105\nsamples = 12\nvalue = [17, 0, 1, 0]\nclass = anger", fillcolor="#e78845"] ;
806 -> 807 ;
808 [label="gini = 0.0\nsamples = 11\nvalue = [17, 0, 0, 0]\nclass = anger", fillcolor="#e58139"] ;
807 -> 808 ;
809 [label="gini = 0.0\nsamples = 1\nvalue = [0, 0, 1, 0]\nclass = neutral", fillcolor="#399de5"] ;
807 -> 809 ;
810 [label="gini = 0.0\nsamples = 1\nvalue = [0, 0, 0, 2]\nclass = sad", fillcolor="#d739e5"] ;
806 -> 810 ;
811 [label="lm_465_z <= -0.003\ngini = 0.49\nsamples = 7\nvalue = [0, 0, 3, 4]\nclass = sad", fillcolor="#f5cef8"] ;
805 -> 811 ;
812 [label="gini = 0.0\nsamples = 3\nvalue = [0, 0, 3, 0]\nclass = neutral", fillcolor="#399de5"] ;
811 -> 812 ;
813 [label="gini = 0.0\nsamples = 4\nvalue = [0, 0, 0, 4]\nclass = sad", fillcolor="#d739e5"] ;
811 -> 813 ;
814 [label="lm_267_z <= -0.023\ngini = 0.488\nsamples = 328\nvalue = [62, 32, 70, 367]\nclass = sad", fillcolor="#e57fee"] ;
804 -> 814 ;
815 [label="lm_255_z <= -0.023\ngini = 0.313\nsamples = 133\nvalue = [23, 6, 12, 188]\nclass = sad", fillcolor="#df60ea"] ;
814 -> 815 ;
