digraph Tree {
node [shape=box, style="filled, rounded", color="black", fontname="helvetica"] ;
edge [fontname="helvetica"] ;
0 [label="lm_471_y <= 0.435\ngini = 0.75\nsamples = 17849\nvalue = [7014, 7139, 7190, 6920]\nclass = neutral", fillcolor="#ffffff"] ;
1 [label="lm_134_y <= 0.454\ngini = 0.703\nsamples = 10020\nvalue = [5732, 1303, 3663, 5138]\nclass = anger", fillcolor="#fef8f4"] ;
0 -> 1 [labeldistance=2.5, labelangle=45, headlabel="True"] ;
2 [label="lm_179_z <= -0.004\ngini = 0.678\nsamples = 8617\nvalue = [5444, 766, 2677, 4703]\nclass = anger", fillcolor="#fdf4ee"] ;
1 -> 2 ;
3 [label="lm_149_y <= 0.906\ngini = 0.679\nsamples = 5851\nvalue = [3152, 376, 2136, 3551]\nclass = sad", fillcolor="#fcf2fd"] ;
2 -> 3 ;
4 [label="lm_88_z <= -0.042\ngini = 0.659\nsamples = 2100\nvalue = [823.0, 102.0, 838.0, 1483.0]\nclass = sad", fillcolor="#f4caf8"] ;
3 -> 4 ;
5 [label="lm_477_y <= 0.42\ngini = 0.603\nsamples = 906\nvalue = [266.0, 27.0, 329.0, 760.0]\nclass = sad", fillcolor="#efaef4"] ;
4 -> 5 ;
6 [label="lm_89_y <= 0.708\ngini = 0.655\nsamples = 331\nvalue = [107, 16, 160, 236]\nclass = sad", fillcolor="#f7d5f9"] ;
5 -> 6 ;
7 [label="lm_22_x <= 0.111\ngini = 0.669\nsamples = 199\nvalue = [72.0, 9.0, 126.0, 110.0]\nclass = neutral", fillcolor="#f0f7fd"] ;
6 -> 7 ;
8 [label="lm_337_x <= 0.522\ngini = 0.153\nsamples = 7\nvalue = [11, 0, 0, 1]\nclass = anger", fillcolor="#e78c4b"] ;
7 -> 8 ;
9 [label="gini = 0.0\nsamples = 1\nvalue = [0, 0, 0, 1]\nclass = sad", fillcolor="#d739e5"] ;
8 -> 9 ;
10 [label="gini = 0.0\nsamples = 6\nvalue = [11, 0, 0, 0]\nclass = anger", fillcolor="#e58139"] ;
8 -> 10 ;
11 [label="lm_416_y <= 0.688\ngini = 0.661\nsamples = 192\nvalue = [61.0, 9.0, 126.0, 109.0]\nclass = neutral", fillcolor="#eef6fd"] ;
7 -> 11 ;
12 [label="lm_324_x <= 0.855\ngini = 0.646\nsamples = 110\nvalue = [35, 6, 46, 82]\nclass = sad", fillcolor="#f3c5f7"] ;
11 -> 12 ;
13 [label="lm_406_y <= 0.705\ngini = 0.605\nsamples = 99\nvalue = [21.0, 4.0, 46.0, 81.0]\nclass = sad", fillcolor="#f2bef6"] ;
12 -> 13 ;
14 [label="lm_313_z <= -0.058\ngini = 0.642\nsamples = 60\nvalue = [19, 0, 36, 37]\nclass = sad", fillcolor="#fefbff"] ;
13 -> 14 ;
15 [label="lm_250_x <= 0.661\ngini = 0.589\nsamples = 31\nvalue = [13, 0, 10, 29]\nclass = sad", fillcolor="#efaef4"] ;
14 -> 15 ;
16 [label="lm_475_x <= 0.64\ngini = 0.544\nsamples = 5\nvalue = [3, 0, 8, 2]\nclass = neutral", fillcolor="#9ccef2"] ;
15 -> 16 ;
17 [label="gini = 0.0\nsamples = 2\nvalue = [3, 0, 0, 0]\nclass = anger", fillcolor="#e58139"] ;
16 -> 17 ;
18 [label="lm_284_z <= 0.052\ngini = 0.32\nsamples = 3\nvalue = [0, 0, 8, 2]\nclass = neutral", fillcolor="#6ab6ec"] ;
16 -> 18 ;
19 [label="gini = 0.0\nsamples = 2\nvalue = [0, 0, 8, 0]\nclass = neutral", fillcolor="#399de5"] ;
18 -> 19 ;
20 [label="gini = 0.0\nsamples = 1\nvalue = [0, 0, 0, 2]\nclass = sad", fillcolor="#d739e5"] ;
18 -> 20 ;
21 [label="lm_164_x <= 0.298\ngini = 0.452\nsamples = 26\nvalue = [10, 0, 2, 27]\nclass = sad", fillcolor="#e88bf0"] ;
15 -> 21 ;
22 [label="lm_324_z <= 0.329\ngini = 0.48\nsamples = 4\nvalue = [3, 0, 2, 0]\nclass = anger", fillcolor="#f6d5bd"] ;
21 -> 22 ;
23 [label="gini = 0.0\nsamples = 2\nvalue = [0, 0, 2, 0]\nclass = neutral", fillcolor="#399de5"] ;
22 -> 23 ;
24 [label="gini = 0.0\nsamples = 2\nvalue = [3, 0, 0, 0]\nclass = anger", fillcolor="#e58139"] ;
22 -> 24 ;
25 [label="lm_295_y <= 0.575\ngini = 0.327\nsamples = 22\nvalue = [7, 0, 0, 27]\nclass = sad", fillcolor="#e16cec"] ;
21 -> 25 ;
26 [label="lm_40_y <= 0.668\ngini = 0.225\nsamples = 21\nvalue = [4, 0, 0, 27]\nclass = sad", fillcolor="#dd56e9"] ;
25 -> 26 ;
27 [label="gini = 0.0\nsamples = 19\nvalue = [0, 0, 0, 27]\nclass = sad", fillcolor="#d739e5"] ;
26 -> 27 ;
28 [label="gini = 0.0\nsamples = 2\nvalue = [4, 0, 0, 0]\nclass = anger", fillcolor="#e58139"] ;
26 -> 28 ;
29 [label="gini = 0.0\nsamples = 1\nvalue = [3, 0, 0, 0]\nclass = anger", fillcolor="#e58139"] ;
25 -> 29 ;
30 [label="lm_151_y <= 0.804\ngini = 0.515\nsamples = 29\nvalue = [6, 0, 26, 8]\nclass = neutral", fillcolor="#90c8f0"] ;
14 -> 30 ;
31 [label="lm_147_z <= -0.017\ngini = 0.269\nsamples = 18\nvalue = [0, 0, 21, 4]\nclass = neutral", fillcolor="#5fb0ea"] ;
30 -> 31 ;
32 [label="gini = 0.0\nsamples = 9\nvalue = [0, 0, 16, 0]\nclass = neutral", fillcolor="#399de5"] ;
31 -> 32 ;
33 [label="lm_386_y <= 0.392\ngini = 0.494\nsamples = 9\nvalue = [0, 0, 5, 4]\nclass = neutral", fillcolor="#d7ebfa"] ;
31 -> 33 ;
34 [label="lm_104_z <= 0.055\ngini = 0.278\nsamples = 6\nvalue = [0, 0, 5, 1]\nclass = neutral", fillcolor="#61b1ea"] ;
33 -> 34 ;
35 [label="gini = 0.0\nsamples = 1\nvalue = [0, 0, 0, 1]\nclass = sad", fillcolor="#d739e5"] ;
34 -> 35 ;
36 [label="gini = 0.0\nsamples = 5\nvalue = [0, 0, 5, 0]\nclass = neutral", fillcolor="#399de5"] ;
34 -> 36 ;
37 [label="gini = 0.0\nsamples = 3\nvalue = [0, 0, 0, 3]\nclass = sad", fillcolor="#d739e5"] ;
33 -> 37 ;
38 [label="lm_128_y <= 0.488\ngini = 0.658\nsamples = 11\nvalue = [6, 0, 5, 4]\nclass = anger", fillcolor="#fcf2eb"] ;
30 -> 38 ;
39 [label="lm_18_x <= 0.511\ngini = 0.48\nsamples = 9\nvalue = [6, 0, 0, 4]\nclass = anger", fillcolor="#f6d5bd"] ;
38 -> 39 ;
40 [label="gini = 0.0\nsamples = 3\nvalue = [0, 0, 0, 4]\nclass = sad", fillcolor="#d739e5"] ;
39 -> 40 ;
41 [label="gini = 0.0\nsamples = 6\nvalue = [6, 0, 0, 0]\nclass = anger", fillcolor="#e58139"] ;
39 -> 41 ;
42 [label="gini = 0.0\nsamples = 2\nvalue = [0, 0, 5, 0]\nclass = neutral", fillcolor="#399de5"] ;
38 -> 42 ;
43 [label="lm_155_y <= 0.455\ngini = 0.429\nsamples = 39\nvalue = [2, 4, 10, 44]\nclass = sad", fillcolor="#e478ed"] ;
13 -> 43 ;
44 [label="lm_150_x <= 0.373\ngini = 0.275\nsamples = 34\nvalue = [2, 4, 2, 44]\nclass = sad", fillcolor="#de5ae9"] ;
43 -> 44 ;
45 [label="lm_146_y <= 0.444\ngini = 0.602\nsamples = 13\nvalue = [2, 4, 1, 9]\nclass = sad", fillcolor="#eeacf4"] ;
44 -> 45 ;
46 [label="lm_473_z <= 0.036\ngini = 0.541\nsamples = 12\nvalue = [2, 2, 1, 9]\nclass = sad", fillcolor="#e88cf0"] ;
45 -> 46 ;
47 [label="gini = 0.0\nsamples = 2\nvalue = [2, 0, 0, 0]\nclass = anger", fillcolor="#e58139"] ;
46 -> 47 ;
48 [label="lm_54_y <= 0.303\ngini = 0.403\nsamples = 10\nvalue = [0, 2, 1, 9]\nclass = sad", fillcolor="#e374ed"] ;
46 -> 48 ;
49 [label="gini = 0.0\nsamples = 1\nvalue = [0, 0, 1, 0]\nclass = neutral", fillcolor="#399de5"] ;
48 -> 49 ;
50 [label="lm_174_x <= 0.428\ngini = 0.298\nsamples = 9\nvalue = [0, 2, 0, 9]\nclass = sad", fillcolor="#e065eb"] ;
48 -> 50 ;
51 [label="lm_309_y <= 0.682\ngini = 0.18\nsamples = 8\nvalue = [0, 1, 0, 9]\nclass = sad", fillcolor="#db4fe8"] ;
50 -> 51 ;
52 [label="gini = 0.0\nsamples = 1\nvalue = [0, 1, 0, 0]\nclass = happy", fillcolor="#47e539"] ;
51 -> 52 ;
53 [label="gini = 0.0\nsamples = 7\nvalue = [0, 0, 0, 9]\nclass = sad", fillcolor="#d739e5"] ;
51 -> 53 ;
54 [label="gini = 0.0\nsamples = 1\nvalue = [0, 1, 0, 0]\nclass = happy", fillcolor="#47e539"] ;
50 -> 54 ;
55 [label="gini = 0.0\nsamples = 1\nvalue = [0, 2, 0, 0]\nclass = happy", fillcolor="#47e539"] ;
45 -> 55 ;
56 [label="lm_295_y <= 0.576\ngini = 0.054\nsamples = 21\nvalue = [0, 0, 1, 35]\nclass = sad", fillcolor="#d83fe6"] ;
44 -> 56 ;
57 [label="gini = 0.0\nsamples = 20\nvalue = [0, 0, 0, 35]\nclass = sad", fillcolor="#d739e5"] ;
56 -> 57 ;
58 [label="gini = 0.0\nsamples = 1\nvalue = [0, 0, 1, 0]\nclass = neutral", fillcolor="#399de5"] ;
56 -> 58 ;
59 [label="gini = 0.0\nsamples = 5\nvalue = [0, 0, 8, 0]\nclass = neutral", fillcolor="#399de5"] ;
43 -> 59 ;
60 [label="lm_375_z <= 0.006\ngini = 0.304\nsamples = 11\nvalue = [14, 2, 0, 1]\nclass = anger", fillcolor="#ea9a61"] ;
12 -> 60 ;
61 [label="lm_478_x <= 0.634\ngini = 0.444\nsamples = 3\nvalue = [0, 2, 0, 1]\nclass = happy", fillcolor="#a3f29c"] ;
60 -> 61 ;
62 [label="gini = 0.0\nsamples = 2\nvalue = [0, 2, 0, 0]\nclass = happy", fillcolor="#47e539"] ;
61 -> 62 ;
63 [label="gini = 0.0\nsamples = 1\nvalue = [0, 0, 0, 1]\nclass = sad", fillcolor="#d739e5"] ;
61 -> 63 ;
64 [label="gini = 0.0\nsamples = 8\nvalue = [14, 0, 0, 0]\nclass = anger", fillcolor="#e58139"] ;
60 -> 64 ;
65 [label="lm_297_y <= 0.307\ngini = 0.578\nsamples = 82\nvalue = [26, 3, 80, 27]\nclass = neutral", fillcolor="#9fcff2"] ;
11 -> 65 ;
66 [label="lm_163_y <= 0.236\ngini = 0.296\nsamples = 29\nvalue = [4, 0, 44, 5]\nclass = neutral", fillcolor="#5eafea"] ;
65 -> 66 ;
67 [label="gini = 0.0\nsamples = 1\nvalue = [0, 0, 0, 3]\nclass = sad", fillcolor="#d739e5"] ;
66 -> 67 ;
68 [label="lm_81_y <= 0.679\ngini = 0.218\nsamples = 28\nvalue = [4, 0, 44, 2]\nclass = neutral", fillcolor="#53aae8"] ;
66 -> 68 ;
69 [label="lm_277_x <= 0.804\ngini = 0.444\nsamples = 3\nvalue = [0, 0, 1, 2]\nclass = sad", fillcolor="#eb9cf2"] ;
68 -> 69 ;
70 [label="gini = 0.0\nsamples = 2\nvalue = [0, 0, 0, 2]\nclass = sad", fillcolor="#d739e5"] ;
69 -> 70 ;
71 [label="gini = 0.0\nsamples = 1\nvalue = [0, 0, 1, 0]\nclass = neutral", fillcolor="#399de5"] ;
69 -> 71 ;
72 [label="lm_146_x <= 0.359\ngini = 0.156\nsamples = 25\nvalue = [4, 0, 43, 0]\nclass = neutral", fillcolor="#4ba6e7"] ;
68 -> 72 ;
73 [label="gini = 0.0\nsamples = 20\nvalue = [0, 0, 38, 0]\nclass = neutral", fillcolor="#399de5"] ;
72 -> 73 ;
74 [label="lm_283_z <= -0.007\ngini = 0.494\nsamples = 5\nvalue = [4, 0, 5, 0]\nclass = neutral", fillcolor="#d7ebfa"] ;
72 -> 74 ;
75 [label="gini = 0.0\nsamples = 1\nvalue = [4, 0, 0, 0]\nclass = anger", fillcolor="#e58139"] ;
74 -> 75 ;
76 [label="gini = 0.0\nsamples = 4\nvalue = [0, 0, 5, 0]\nclass = neutral", fillcolor="#399de5"] ;
74 -> 76 ;
77 [label="lm_474_y <= 0.403\ngini = 0.67\nsamples = 53\nvalue = [22, 3, 36, 22]\nclass = neutral", fillcolor="#d2e9f9"] ;
65 -> 77 ;
78 [label="lm_192_z <= 0.0\ngini = 0.397\nsamples = 6\nvalue = [8, 0, 0, 3]\nclass = anger", fillcolor="#efb083"] ;
77 -> 78 ;
79 [label="gini = 0.0\nsamples = 5\nvalue = [8, 0, 0, 0]\nclass = anger", fillcolor="#e58139"] ;
78 -> 79 ;
80 [label="gini = 0.0\nsamples = 1\nvalue = [0, 0, 0, 3]\nclass = sad", fillcolor="#d739e5"] ;
78 -> 80 ;
81 [label="lm_309_y <= 0.712\ngini = 0.641\nsamples = 47\nvalue = [14, 3, 36, 19]\nclass = neutral", fillcolor="#bfe0f7"] ;
77 -> 81 ;
82 [label="lm_11_y <= 0.207\ngini = 0.534\nsamples = 37\nvalue = [6, 3, 36, 11]\nclass = neutral", fillcolor="#91c9f1"] ;
81 -> 82 ;
83 [label="lm_150_y <= 0.832\ngini = 0.621\nsamples = 18\nvalue = [4, 0, 10, 11]\nclass = sad", fillcolor="#fcf2fd"] ;
82 -> 83 ;
84 [label="lm_475_x <= 0.7\ngini = 0.219\nsamples = 5\nvalue = [1, 0, 7, 0]\nclass = neutral", fillcolor="#55abe9"] ;
83 -> 84 ;
85 [label="gini = 0.0\nsamples = 4\nvalue = [0, 0, 7, 0]\nclass = neutral", fillcolor="#399de5"] ;
84 -> 85 ;
86 [label="gini = 0.0\nsamples = 1\nvalue = [1, 0, 0, 0]\nclass = anger", fillcolor="#e58139"] ;
84 -> 86 ;
87 [label="lm_128_y <= 0.428\ngini = 0.519\nsamples = 13\nvalue = [3, 0, 3, 11]\nclass = sad", fillcolor="#e88ef0"] ;
83 -> 87 ;
88 [label="gini = 0.0\nsamples = 5\nvalue = [0, 0, 0, 9]\nclass = sad", fillcolor="#d739e5"] ;
87 -> 88 ;
89 [label="lm_270_z <= -0.074\ngini = 0.656\nsamples = 8\nvalue = [3, 0, 3, 2]\nclass = anger", fillcolor="#ffffff"] ;
87 -> 89 ;
90 [label="gini = 0.0\nsamples = 2\nvalue = [0, 0, 0, 2]\nclass = sad", fillcolor="#d739e5"] ;
89 -> 90 ;
91 [label="lm_388_x <= 0.659\ngini = 0.5\nsamples = 6\nvalue = [3, 0, 3, 0]\nclass = anger", fillcolor="#ffffff"] ;
89 -> 91 ;
92 [label="gini = 0.0\nsamples = 3\nvalue = [0, 0, 3, 0]\nclass = neutral", fillcolor="#399de5"] ;
91 -> 92 ;
93 [label="gini = 0.0\nsamples = 3\nvalue = [3, 0, 0, 0]\nclass = anger", fillcolor="#e58139"] ;
91 -> 93 ;
94 [label="lm_250_x <= 0.686\ngini = 0.283\nsamples = 19\nvalue = [2, 3, 26, 0]\nclass = neutral", fillcolor="#5caeea"] ;
82 -> 94 ;
95 [label="lm_179_y <= 0.704\ngini = 0.185\nsamples = 18\nvalue = [0, 3, 26, 0]\nclass = neutral", fillcolor="#50a8e8"] ;
94 -> 95 ;
96 [label="gini = 0.0\nsamples = 16\nvalue = [0, 0, 26, 0]\nclass = neutral", fillcolor="#399de5"] ;
95 -> 96 ;
97 [label="gini = 0.0\nsamples = 2\nvalue = [0, 3, 0, 0]\nclass = happy", fillcolor="#47e539"] ;
95 -> 97 ;
98 [label="gini = 0.0\nsamples = 1\nvalue = [2, 0, 0, 0]\nclass = anger", fillcolor="#e58139"] ;
94 -> 98 ;
99 [label="lm_410_y <= 0.706\ngini = 0.5\nsamples = 10\nvalue = [8, 0, 0, 8]\nclass = anger", fillcolor="#ffffff"] ;
81 -> 99 ;
100 [label="lm_277_x <= 0.726\ngini = 0.198\nsamples = 6\nvalue = [1, 0, 0, 8]\nclass = sad", fillcolor="#dc52e8"] ;
99 -> 100 ;
101 [label="gini = 0.0\nsamples = 1\nvalue = [1, 0, 0, 0]\nclass = anger", fillcolor="#e58139"] ;
100 -> 101 ;
102 [label="gini = 0.0\nsamples = 5\nvalue = [0, 0, 0, 8]\nclass = sad", fillcolor="#d739e5"] ;
100 -> 102 ;
103 [label="gini = 0.0\nsamples = 4\nvalue = [7, 0, 0, 0]\nclass = anger", fillcolor="#e58139"] ;
99 -> 103 ;
104 [label="lm_15_y <= 0.699\ngini = 0.551\nsamples = 132\nvalue = [35.0, 7.0, 34.0, 126.0]\nclass = sad", fillcolor="#e993f1"] ;
6 -> 104 ;
105 [label="lm_455_z <= 0.28\ngini = 0.552\nsamples = 16\nvalue = [14, 0, 5, 4]\nclass = anger", fillcolor="#f2c09c"] ;
104 -> 105 ;
106 [label="gini = 0.0\nsamples = 2\nvalue = [0, 0, 0, 3]\nclass = sad", fillcolor="#d739e5"] ;
105 -> 106 ;
107 [label="lm_55_x <= 0.184\ngini = 0.445\nsamples = 14\nvalue = [14, 0, 5, 1]\nclass = anger", fillcolor="#efb388"] ;
105 -> 107 ;
108 [label="lm_164_y <= 0.482\ngini = 0.133\nsamples = 10\nvalue = [13, 0, 0, 1]\nclass = anger", fillcolor="#e78b48"] ;
107 -> 108 ;
109 [label="gini = 0.0\nsamples = 9\nvalue = [13, 0, 0, 0]\nclass = anger", fillcolor="#e58139"] ;
108 -> 109 ;
110 [label="gini = 0.0\nsamples = 1\nvalue = [0, 0, 0, 1]\nclass = sad", fillcolor="#d739e5"] ;
108 -> 110 ;
111 [label="lm_264_y <= 0.403\ngini = 0.278\nsamples = 4\nvalue = [1, 0, 5, 0]\nclass = neutral", fillcolor="#61b1ea"] ;
107 -> 111 ;
112 [label="gini = 0.0\nsamples = 3\nvalue = [0, 0, 5, 0]\nclass = neutral", fillcolor="#399de5"] ;
111 -> 112 ;
113 [label="gini = 0.0\nsamples = 1\nvalue = [1, 0, 0, 0]\nclass = anger", fillcolor="#e58139"] ;
111 -> 113 ;
114 [label="lm_379_y <= 0.876\ngini = 0.494\nsamples = 116\nvalue = [21.0, 7.0, 29.0, 122.0]\nclass = sad", fillcolor="#e684ef"] ;
104 -> 114 ;
115 [label="lm_18_z <= -0.032\ngini = 0.471\nsamples = 112\nvalue = [16, 7, 29, 122]\nclass = sad", fillcolor="#e580ee"] ;
114 -> 115 ;
116 [label="lm_296_y <= 0.354\ngini = 0.453\nsamples = 111\nvalue = [16, 7, 25, 122]\nclass = sad", fillcolor="#e47bee"] ;
115 -> 116 ;
117 [label="lm_40_x <= 0.478\ngini = 0.42\nsamples = 105\nvalue = [10.0, 7.0, 25.0, 121.0]\nclass = sad", fillcolor="#e375ed"] ;
116 -> 117 ;
118 [label="lm_153_y <= 0.902\ngini = 0.353\nsamples = 90\nvalue = [7, 5, 17, 111]\nclass = sad", fillcolor="#e068eb"] ;
117 -> 118 ;
119 [label="lm_62_y <= 0.687\ngini = 0.266\nsamples = 73\nvalue = [4, 4, 10, 103]\nclass = sad", fillcolor="#dd59e9"] ;
118 -> 119 ;
120 [label="lm_315_z <= -0.056\ngini = 0.375\nsamples = 3\nvalue = [0, 3, 0, 1]\nclass = happy", fillcolor="#84ee7b"] ;
119 -> 120 ;
121 [label="gini = 0.0\nsamples = 1\nvalue = [0, 0, 0, 1]\nclass = sad", fillcolor="#d739e5"] ;
120 -> 121 ;
122 [label="gini = 0.0\nsamples = 2\nvalue = [0, 3, 0, 0]\nclass = happy", fillcolor="#47e539"] ;
120 -> 122 ;
123 [label="lm_79_z <= -0.011\ngini = 0.231\nsamples = 70\nvalue = [4, 1, 10, 102]\nclass = sad", fillcolor="#dd55e9"] ;
119 -> 123 ;
124 [label="lm_250_z <= 0.052\ngini = 0.416\nsamples = 32\nvalue = [3, 1, 9, 37]\nclass = sad", fillcolor="#e478ed"] ;
123 -> 124 ;
125 [label="lm_335_z <= -0.003\ngini = 0.444\nsamples = 5\nvalue = [2, 0, 4, 0]\nclass = neutral", fillcolor="#9ccef2"] ;
124 -> 125 ;
126 [label="gini = 0.0\nsamples = 2\nvalue = [2, 0, 0, 0]\nclass = anger", fillcolor="#e58139"] ;
125 -> 126 ;
127 [label="gini = 0.0\nsamples = 3\nvalue = [0, 0, 4, 0]\nclass = neutral", fillcolor="#399de5"] ;
125 -> 127 ;
128 [label="lm_410_x <= 0.592\ngini = 0.279\nsamples = 27\nvalue = [1, 1, 5, 37]\nclass = sad", fillcolor="#de5dea"] ;
124 -> 128 ;
129 [label="lm_322_y <= 0.751\ngini = 0.48\nsamples = 6\nvalue = [0, 0, 4, 6]\nclass = sad", fillcolor="#f2bdf6"] ;
128 -> 129 ;
130 [label="gini = 0.0\nsamples = 3\nvalue = [0, 0, 4, 0]\nclass = neutral", fillcolor="#399de5"] ;
129 -> 130 ;
131 [label="gini = 0.0\nsamples = 3\nvalue = [0, 0, 0, 6]\nclass = sad", fillcolor="#d739e5"] ;
129 -> 131 ;
132 [label="lm_295_x <= 0.612\ngini = 0.166\nsamples = 21\nvalue = [1, 1, 1, 31]\nclass = sad", fillcolor="#db4be7"] ;
128 -> 132 ;
133 [label="lm_298_x <= 0.623\ngini = 0.116\nsamples = 20\nvalue = [1, 0, 1, 31]\nclass = sad", fillcolor="#da45e7"] ;
132 -> 133 ;
134 [label="lm_34_y <= 0.444\ngini = 0.406\nsamples = 6\nvalue = [1, 0, 1, 6]\nclass = sad", fillcolor="#e272ec"] ;
133 -> 134 ;
135 [label="lm_270_x <= 0.579\ngini = 0.5\nsamples = 2\nvalue = [1, 0, 1, 0]\nclass = anger", fillcolor="#ffffff"] ;
134 -> 135 ;
136 [label="gini = 0.0\nsamples = 1\nvalue = [1, 0, 0, 0]\nclass = anger", fillcolor="#e58139"] ;
135 -> 136 ;
137 [label="gini = 0.0\nsamples = 1\nvalue = [0, 0, 1, 0]\nclass = neutral", fillcolor="#399de5"] ;
135 -> 137 ;
138 [label="gini = 0.0\nsamples = 4\nvalue = [0, 0, 0, 6]\nclass = sad", fillcolor="#d739e5"] ;
134 -> 138 ;
139 [label="gini = 0.0\nsamples = 14\nvalue = [0, 0, 0, 25]\nclass = sad", fillcolor="#d739e5"] ;
133 -> 139 ;
140 [label="gini = 0.0\nsamples = 1\nvalue = [0, 1, 0, 0]\nclass = happy", fillcolor="#47e539"] ;
132 -> 140 ;
141 [label="lm_270_y <= 0.687\ngini = 0.058\nsamples = 38\nvalue = [1, 0, 1, 65]\nclass = sad", fillcolor="#d83fe6"] ;
123 -> 141 ;
142 [label="gini = 0.0\nsamples = 29\nvalue = [0, 0, 0, 54]\nclass = sad", fillcolor="#d739e5"] ;
141 -> 142 ;
143 [label="lm_467_y <= 0.411\ngini = 0.272\nsamples = 9\nvalue = [1, 0, 1, 11]\nclass = sad", fillcolor="#de5ae9"] ;
141 -> 143 ;
144 [label="lm_375_y <= 0.403\ngini = 0.153\nsamples = 8\nvalue = [1, 0, 0, 11]\nclass = sad", fillcolor="#db4be7"] ;
143 -> 144 ;
145 [label="gini = 0.0\nsamples = 1\nvalue = [1, 0, 0, 0]\nclass = anger", fillcolor="#e58139"] ;
144 -> 145 ;
146 [label="gini = 0.0\nsamples = 7\nvalue = [0, 0, 0, 11]\nclass = sad", fillcolor="#d739e5"] ;
144 -> 146 ;
147 [label="gini = 0.0\nsamples = 1\nvalue = [0, 0, 1, 0]\nclass = neutral", fillcolor="#399de5"] ;
143 -> 147 ;
148 [label="lm_295_y <= 0.591\ngini = 0.659\nsamples = 17\nvalue = [3, 1, 7, 8]\nclass = sad", fillcolor="#fceefd"] ;
118 -> 148 ;
149 [label="lm_469_z <= 0.032\ngini = 0.602\nsamples = 13\nvalue = [3, 1, 2, 8]\nclass = sad", fillcolor="#eda5f3"] ;
148 -> 149 ;
150 [label="lm_325_x <= 0.594\ngini = 0.56\nsamples = 5\nvalue = [3, 1, 1, 0]\nclass = anger", fillcolor="#f2c09c"] ;
149 -> 150 ;
151 [label="gini = 0.0\nsamples = 3\nvalue = [3, 0, 0, 0]\nclass = anger", fillcolor="#e58139"] ;
150 -> 151 ;
152 [label="lm_284_z <= 0.03\ngini = 0.5\nsamples = 2\nvalue = [0, 1, 1, 0]\nclass = happy", fillcolor="#ffffff"] ;
150 -> 152 ;
153 [label="gini = 0.0\nsamples = 1\nvalue = [0, 1, 0, 0]\nclass = happy", fillcolor="#47e539"] ;
152 -> 153 ;
154 [label="gini = 0.0\nsamples = 1\nvalue = [0, 0, 1, 0]\nclass = neutral", fillcolor="#399de5"] ;
152 -> 154 ;
155 [label="lm_313_z <= -0.063\ngini = 0.198\nsamples = 8\nvalue = [0, 0, 1, 8]\nclass = sad", fillcolor="#dc52e8"] ;
149 -> 155 ;
156 [label="gini = 0.0\nsamples = 6\nvalue = [0, 0, 0, 6]\nclass = sad", fillcolor="#d739e5"] ;
155 -> 156 ;
157 [label="lm_324_x <= 0.874\ngini = 0.444\nsamples = 2\nvalue = [0, 0, 1, 2]\nclass = sad", fillcolor="#eb9cf2"] ;
155 -> 157 ;
158 [label="gini = 0.0\nsamples = 1\nvalue = [0, 0, 1, 0]\nclass = neutral", fillcolor="#399de5"] ;
157 -> 158 ;
159 [label="gini = 0.0\nsamples = 1\nvalue = [0, 0, 0, 2]\nclass = sad", fillcolor="#d739e5"] ;
157 -> 159 ;
160 [label="gini = 0.0\nsamples = 4\nvalue = [0, 0, 5, 0]\nclass = neutral", fillcolor="#399de5"] ;
148 -> 160 ;
161 [label="lm_59_y <= 0.751\ngini = 0.665\nsamples = 15\nvalue = [3, 2, 8, 10]\nclass = sad", fillcolor="#fae5fc"] ;
117 -> 161 ;
162 [label="lm_295_x <= 0.619\ngini = 0.5\nsamples = 7\nvalue = [0, 2, 8, 2]\nclass = neutral", fillcolor="#88c4ef"] ;
161 -> 162 ;
163 [label="lm_381_y <= 0.418\ngini = 0.198\nsamples = 5\nvalue = [0, 0, 8, 1]\nclass = neutral", fillcolor="#52a9e8"] ;
162 -> 163 ;
164 [label="gini = 0.0\nsamples = 4\nvalue = [0, 0, 8, 0]\nclass = neutral", fillcolor="#399de5"] ;
163 -> 164 ;
165 [label="gini = 0.0\nsamples = 1\nvalue = [0, 0, 0, 1]\nclass = sad", fillcolor="#d739e5"] ;
163 -> 165 ;
166 [label="lm_333_z <= 0.069\ngini = 0.444\nsamples = 2\nvalue = [0, 2, 0, 1]\nclass = happy", fillcolor="#a3f29c"] ;
162 -> 166 ;
167 [label="gini = 0.0\nsamples = 1\nvalue = [0, 2, 0, 0]\nclass = happy", fillcolor="#47e539"] ;
166 -> 167 ;
168 [label="gini = 0.0\nsamples = 1\nvalue = [0, 0, 0, 1]\nclass = sad", fillcolor="#d739e5"] ;
166 -> 168 ;
169 [label="lm_66_y <= 0.373\ngini = 0.397\nsamples = 8\nvalue = [3, 0, 0, 8]\nclass = sad", fillcolor="#e683ef"] ;
161 -> 169 ;
170 [label="gini = 0.0\nsamples = 5\nvalue = [0, 0, 0, 7]\nclass = sad", fillcolor="#d739e5"] ;
169 -> 170 ;
171 [label="lm_22_y <= 0.425\ngini = 0.375\nsamples = 3\nvalue = [3, 0, 0, 1]\nclass = anger", fillcolor="#eeab7b"] ;
169 -> 171 ;
172 [label="gini = 0.0\nsamples = 2\nvalue = [3, 0, 0, 0]\nclass = anger", fillcolor="#e58139"] ;
171 -> 172 ;
173 [label="gini = 0.0\nsamples = 1\nvalue = [0, 0, 0, 1]\nclass = sad", fillcolor="#d739e5"] ;
171 -> 173 ;
174 [label="lm_478_y <= 0.444\ngini = 0.245\nsamples = 6\nvalue = [6, 0, 0, 1]\nclass = anger", fillcolor="#e9965a"] ;
116 -> 174 ;
175 [label="gini = 0.0\nsamples = 5\nvalue = [6, 0, 0, 0]\nclass = anger", fillcolor="#e58139"] ;
174 -> 175 ;
176 [label="gini = 0.0\nsamples = 1\nvalue = [0, 0, 0, 1]\nclass = sad", fillcolor="#d739e5"] ;
174 -> 176 ;
177 [label="gini = 0.0\nsamples = 1\nvalue = [0, 0, 4, 0]\nclass = neutral", fillcolor="#399de5"] ;
115 -> 177 ;
178 [label="gini = 0.0\nsamples = 4\nvalue = [5, 0, 0, 0]\nclass = anger", fillcolor="#e58139"] ;
114 -> 178 ;
179 [label="lm_11_y <= 0.301\ngini = 0.559\nsamples = 575\nvalue = [159, 11, 169, 524]\nclass = sad", fillcolor="#eb9af2"] ;
5 -> 179 ;
180 [label="lm_160_y <= 0.338\ngini = 0.549\nsamples = 565\nvalue = [158, 11, 154, 524]\nclass = sad", fillcolor="#ea96f1"] ;
179 -> 180 ;
181 [label="lm_381_x <= 0.626\ngini = 0.639\nsamples = 34\nvalue = [16, 0, 19, 9]\nclass = neutral", fillcolor="#eaf4fc"] ;
180 -> 181 ;
182 [label="lm_179_z <= -0.036\ngini = 0.26\nsamples = 7\nvalue = [11, 0, 0, 2]\nclass = anger", fillcolor="#ea985d"] ;
181 -> 182 ;
183 [label="gini = 0.0\nsamples = 6\nvalue = [11, 0, 0, 0]\nclass = anger", fillcolor="#e58139"] ;
182 -> 183 ;
184 [label="gini = 0.0\nsamples = 1\nvalue = [0, 0, 0, 2]\nclass = sad", fillcolor="#d739e5"] ;
182 -> 184 ;
185 [label="lm_319_z <= -0.04\ngini = 0.547\nsamples = 27\nvalue = [5, 0, 19, 7]\nclass = neutral", fillcolor="#9ccef2"] ;
181 -> 185 ;
186 [label="lm_53_y <= 0.259\ngini = 0.651\nsamples = 12\nvalue = [5, 0, 3, 5]\nclass = anger", fillcolor="#ffffff"] ;
185 -> 186 ;
187 [label="lm_147_y <= 0.671\ngini = 0.49\nsamples = 7\nvalue = [0, 0, 3, 4]\nclass = sad", fillcolor="#f5cef8"] ;
186 -> 187 ;
188 [label="gini = 0.0\nsamples = 3\nvalue = [0, 0, 3, 0]\nclass = neutral", fillcolor="#399de5"] ;
187 -> 188 ;
189 [label="gini = 0.0\nsamples = 4\nvalue = [0, 0, 0, 4]\nclass = sad", fillcolor="#d739e5"] ;
187 -> 189 ;
190 [label="lm_108_y <= 0.296\ngini = 0.278\nsamples = 5\nvalue = [5, 0, 0, 1]\nclass = anger", fillcolor="#ea9a61"] ;
186 -> 190 ;
191 [label="lm_82_z <= -0.059\ngini = 0.5\nsamples = 2\nvalue = [1, 0, 0, 1]\nclass = anger", fillcolor="#ffffff"] ;
190 -> 191 ;
192 [label="gini = 0.0\nsamples = 1\nvalue = [0, 0, 0, 1]\nclass = sad", fillcolor="#d739e5"] ;
191 -> 192 ;
193 [label="gini = 0.0\nsamples = 1\nvalue = [1, 0, 0, 0]\nclass = anger", fillcolor="#e58139"] ;
191 -> 193 ;
194 [label="gini = 0.0\nsamples = 3\nvalue = [4, 0, 0, 0]\nclass = anger", fillcolor="#e58139"] ;
190 -> 194 ;
195 [label="lm_85_z <= -0.076\ngini = 0.198\nsamples = 15\nvalue = [0, 0, 16, 2]\nclass = neutral", fillcolor="#52a9e8"] ;
185 -> 195 ;
196 [label="gini = 0.0\nsamples = 2\nvalue = [0, 0, 0, 2]\nclass = sad", fillcolor="#d739e5"] ;
195 -> 196 ;
197 [label="gini = 0.0\nsamples = 13\nvalue = [0, 0, 16, 0]\nclass = neutral", fillcolor="#399de5"] ;
195 -> 197 ;
198 [label="lm_296_y <= 0.362\ngini = 0.529\nsamples = 531\nvalue = [142, 11, 135, 515]\nclass = sad", fillcolor="#e88ff0"] ;
180 -> 198 ;
199 [label="lm_472_y <= 0.421\ngini = 0.393\nsamples = 203\nvalue = [21.0, 7.0, 45.0, 233.0]\nclass = sad", fillcolor="#e270ec"] ;
198 -> 199 ;
200 [label="lm_403_y <= 0.676\ngini = 0.484\nsamples = 130\nvalue = [18, 4, 40, 133]\nclass = sad", fillcolor="#e788ef"] ;
199 -> 200 ;
201 [label="lm_106_z <= 0.045\ngini = 0.512\nsamples = 8\nvalue = [3, 0, 7, 1]\nclass = neutral", fillcolor="#9ccef2"] ;
200 -> 201 ;
202 [label="lm_146_y <= 0.422\ngini = 0.375\nsamples = 4\nvalue = [3, 0, 0, 1]\nclass = anger", fillcolor="#eeab7b"] ;
201 -> 202 ;
203 [label="gini = 0.0\nsamples = 3\nvalue = [3, 0, 0, 0]\nclass = anger", fillcolor="#e58139"] ;
202 -> 203 ;
204 [label="gini = 0.0\nsamples = 1\nvalue = [0, 0, 0, 1]\nclass = sad", fillcolor="#d739e5"] ;
202 -> 204 ;
205 [label="gini = 0.0\nsamples = 4\nvalue = [0, 0, 7, 0]\nclass = neutral", fillcolor="#399de5"] ;
201 -> 205 ;
206 [label="lm_79_x <= 0.375\ngini = 0.446\nsamples = 122\nvalue = [15, 4, 33, 132]\nclass = sad", fillcolor="#e57dee"] ;
200 -> 206 ;
207 [label="lm_375_z <= 0.045\ngini = 0.274\nsamples = 64\nvalue = [2, 2, 10, 76]\nclass = sad", fillcolor="#de5cea"] ;
206 -> 207 ;
208 [label="lm_173_y <= 0.69\ngini = 0.205\nsamples = 58\nvalue = [2, 2, 5, 72]\nclass = sad", fillcolor="#dc50e8"] ;
207 -> 208 ;
209 [label="lm_54_x <= 0.292\ngini = 0.694\nsamples = 6\nvalue = [1, 2, 1, 3]\nclass = sad", fillcolor="#f7d7fa"] ;
208 -> 209 ;
210 [label="gini = 0.0\nsamples = 1\nvalue = [0, 2, 0, 0]\nclass = happy", fillcolor="#47e539"] ;
209 -> 210 ;
211 [label="lm_313_z <= -0.057\ngini = 0.56\nsamples = 5\nvalue = [1, 0, 1, 3]\nclass = sad", fillcolor="#eb9cf2"] ;
209 -> 211 ;
212 [label="lm_283_x <= 0.732\ngini = 0.5\nsamples = 2\nvalue = [1, 0, 1, 0]\nclass = anger", fillcolor="#ffffff"] ;
211 -> 212 ;
213 [label="gini = 0.0\nsamples = 1\nvalue = [0, 0, 1, 0]\nclass = neutral", fillcolor="#399de5"] ;
212 -> 213 ;
214 [label="gini = 0.0\nsamples = 1\nvalue = [1, 0, 0, 0]\nclass = anger", fillcolor="#e58139"] ;
212 -> 214 ;
215 [label="gini = 0.0\nsamples = 3\nvalue = [0, 0, 0, 3]\nclass = sad", fillcolor="#d739e5"] ;
211 -> 215 ;
216 [label="lm_357_z <= 0.215\ngini = 0.127\nsamples = 52\nvalue = [1, 0, 4, 69]\nclass = sad", fillcolor="#da47e7"] ;
208 -> 216 ;
217 [label="lm_264_x <= 0.685\ngini = 0.5\nsamples = 2\nvalue = [1, 0, 1, 0]\nclass = anger", fillcolor="#ffffff"] ;
216 -> 217 ;
218 [label="gini = 0.0\nsamples = 1\nvalue = [1, 0, 0, 0]\nclass = anger", fillcolor="#e58139"] ;
217 -> 218 ;
219 [label="gini = 0.0\nsamples = 1\nvalue = [0, 0, 1, 0]\nclass = neutral", fillcolor="#399de5"] ;
217 -> 219 ;
220 [label="lm_134_z <= 0.012\ngini = 0.08\nsamples = 50\nvalue = [0, 0, 3, 69]\nclass = sad", fillcolor="#d942e6"] ;
216 -> 220 ;
221 [label="lm_455_x <= 0.755\ngini = 0.444\nsamples = 3\nvalue = [0, 0, 2, 1]\nclass = neutral", fillcolor="#9ccef2"] ;
220 -> 221 ;
222 [label="gini = 0.0\nsamples = 1\nvalue = [0, 0, 0, 1]\nclass = sad", fillcolor="#d739e5"] ;
221 -> 222 ;
223 [label="gini = 0.0\nsamples = 2\nvalue = [0, 0, 2, 0]\nclass = neutral", fillcolor="#399de5"] ;
221 -> 223 ;
224 [label="lm_363_y <= 0.432\ngini = 0.029\nsamples = 47\nvalue = [0, 0, 1, 68]\nclass = sad", fillcolor="#d83ce5"] ;
220 -> 224 ;
225 [label="lm_160_x <= 0.349\ngini = 0.18\nsamples = 7\nvalue = [0, 0, 1, 9]\nclass = sad", fillcolor="#db4fe8"] ;
224 -> 225 ;
226 [label="lm_475_y <= 0.427\ngini = 0.5\nsamples = 2\nvalue = [0, 0, 1, 1]\nclass = neutral", fillcolor="#ffffff"] ;
225 -> 226 ;
227 [label="gini = 0.0\nsamples = 1\nvalue = [0, 0, 0, 1]\nclass = sad", fillcolor="#d739e5"] ;
226 -> 227 ;
228 [label="gini = 0.0\nsamples = 1\nvalue = [0, 0, 1, 0]\nclass = neutral", fillcolor="#399de5"] ;
226 -> 228 ;
229 [label="gini = 0.0\nsamples = 5\nvalue = [0, 0, 0, 8]\nclass = sad", fillcolor="#d739e5"] ;
225 -> 229 ;
230 [label="gini = 0.0\nsamples = 40\nvalue = [0, 0, 0, 59]\nclass = sad", fillcolor="#d739e5"] ;
224 -> 230 ;
231 [label="lm_173_z <= 0.126\ngini = 0.494\nsamples = 6\nvalue = [0, 0, 5, 4]\nclass = neutral", fillcolor="#d7ebfa"] ;
207 -> 231 ;
232 [label="gini = 0.0\nsamples = 3\nvalue = [0, 0, 0, 4]\nclass = sad", fillcolor="#d739e5"] ;
231 -> 232 ;
233 [label="gini = 0.0\nsamples = 3\nvalue = [0, 0, 5, 0]\nclass = neutral", fillcolor="#399de5"] ;
231 -> 233 ;
234 [label="lm_378_x <= 0.509\ngini = 0.566\nsamples = 58\nvalue = [13, 2, 23, 56]\nclass = sad", fillcolor="#eca3f3"] ;
206 -> 234 ;
235 [label="lm_54_x <= 0.31\ngini = 0.544\nsamples = 7\nvalue = [2, 0, 8, 3]\nclass = neutral", fillcolor="#9ccef2"] ;
234 -> 235 ;
236 [label="gini = 0.0\nsamples = 4\nvalue = [0, 0, 8, 0]\nclass = neutral", fillcolor="#399de5"] ;
235 -> 236 ;
237 [label="lm_96_x <= 0.395\ngini = 0.48\nsamples = 3\nvalue = [2, 0, 0, 3]\nclass = sad", fillcolor="#f2bdf6"] ;
235 -> 237 ;
238 [label="gini = 0.0\nsamples = 2\nvalue = [0, 0, 0, 3]\nclass = sad", fillcolor="#d739e5"] ;
237 -> 238 ;
239 [label="gini = 0.0\nsamples = 1\nvalue = [2, 0, 0, 0]\nclass = anger", fillcolor="#e58139"] ;
237 -> 239 ;
240 [label="lm_192_x <= 0.394\ngini = 0.519\nsamples = 51\nvalue = [11, 2, 15, 53]\nclass = sad", fillcolor="#e88df0"] ;
234 -> 240 ;
241 [label="gini = 0.0\nsamples = 3\nvalue = [0, 0, 5, 0]\nclass = neutral", fillcolor="#399de5"] ;
240 -> 241 ;
242 [label="lm_164_y <= 0.437\ngini = 0.475\nsamples = 48\nvalue = [11.0, 2.0, 10.0, 53.0]\nclass = sad", fillcolor="#e57fee"] ;
240 -> 242 ;
243 [label="lm_335_x <= 0.717\ngini = 0.422\nsamples = 44\nvalue = [11.0, 2.0, 5.0, 51.0]\nclass = sad", fillcolor="#e376ed"] ;
242 -> 243 ;
244 [label="lm_297_y <= 0.33\ngini = 0.359\nsamples = 40\nvalue = [10, 2, 2, 51]\nclass = sad", fillcolor="#e16bec"] ;
243 -> 244 ;
245 [label="lm_385_z <= 0.042\ngini = 0.238\nsamples = 27\nvalue = [2, 2, 2, 40]\nclass = sad", fillcolor="#dc54e9"] ;
244 -> 245 ;
246 [label="lm_286_y <= 0.366\ngini = 0.1\nsamples = 22\nvalue = [2, 0, 0, 36]\nclass = sad", fillcolor="#d944e6"] ;
245 -> 246 ;
247 [label="gini = 0.0\nsamples = 19\nvalue = [0, 0, 0, 35]\nclass = sad", fillcolor="#d739e5"] ;
246 -> 247 ;
248 [label="lm_158_z <= 0.013\ngini = 0.444\nsamples = 3\nvalue = [2, 0, 0, 1]\nclass = anger", fillcolor="#f2c09c"] ;
246 -> 248 ;
249 [label="gini = 0.0\nsamples = 1\nvalue = [0, 0, 0, 1]\nclass = sad", fillcolor="#d739e5"] ;
248 -> 249 ;
250 [label="gini = 0.0\nsamples = 2\nvalue = [2, 0, 0, 0]\nclass = anger", fillcolor="#e58139"] ;
248 -> 250 ;
251 [label="lm_62_z <= -0.046\ngini = 0.625\nsamples = 5\nvalue = [0, 2, 2, 4]\nclass = sad", fillcolor="#f2bdf6"] ;
245 -> 251 ;
252 [label="gini = 0.0\nsamples = 3\nvalue = [0, 0, 0, 4]\nclass = sad", fillcolor="#d739e5"] ;
251 -> 252 ;
253 [label="lm_410_y <= 0.679\ngini = 0.5\nsamples = 2\nvalue = [0, 2, 2, 0]\nclass = happy", fillcolor="#ffffff"] ;
251 -> 253 ;
254 [label="gini = 0.0\nsamples = 1\nvalue = [0, 2, 0, 0]\nclass = happy", fillcolor="#47e539"] ;
253 -> 254 ;
255 [label="gini = 0.0\nsamples = 1\nvalue = [0, 0, 2, 0]\nclass = neutral", fillcolor="#399de5"] ;
253 -> 255 ;
256 [label="lm_382_y <= 0.445\ngini = 0.488\nsamples = 13\nvalue = [8, 0, 0, 11]\nclass = sad", fillcolor="#f4c9f8"] ;
244 -> 256 ;
257 [label="gini = 0.0\nsamples = 6\nvalue = [7, 0, 0, 0]\nclass = anger", fillcolor="#e58139"] ;
256 -> 257 ;
258 [label="lm_309_x <= 0.576\ngini = 0.153\nsamples = 7\nvalue = [1, 0, 0, 11]\nclass = sad", fillcolor="#db4be7"] ;
256 -> 258 ;
259 [label="gini = 0.0\nsamples = 1\nvalue = [1, 0, 0, 0]\nclass = anger", fillcolor="#e58139"] ;
258 -> 259 ;
260 [label="gini = 0.0\nsamples = 6\nvalue = [0, 0, 0, 11]\nclass = sad", fillcolor="#d739e5"] ;
258 -> 260 ;
261 [label="lm_62_x <= 0.379\ngini = 0.375\nsamples = 4\nvalue = [1, 0, 3, 0]\nclass = neutral", fillcolor="#7bbeee"] ;
243 -> 261 ;
262 [label="gini = 0.0\nsamples = 3\nvalue = [0, 0, 3, 0]\nclass = neutral", fillcolor="#399de5"] ;
261 -> 262 ;
263 [label="gini = 0.0\nsamples = 1\nvalue = [1, 0, 0, 0]\nclass = anger", fillcolor="#e58139"] ;
261 -> 263 ;
264 [label="lm_64_x <= 0.264\ngini = 0.408\nsamples = 4\nvalue = [0, 0, 5, 2]\nclass = neutral", fillcolor="#88c4ef"] ;
242 -> 264 ;
265 [label="gini = 0.0\nsamples = 1\nvalue = [0, 0, 0, 2]\nclass = sad", fillcolor="#d739e5"] ;
264 -> 265 ;
266 [label="gini = 0.0\nsamples = 3\nvalue = [0, 0, 5, 0]\nclass = neutral", fillcolor="#399de5"] ;
264 -> 266 ;
267 [label="lm_54_x <= 0.265\ngini = 0.185\nsamples = 73\nvalue = [3, 3, 5, 100]\nclass = sad", fillcolor="#db4ee8"] ;
199 -> 267 ;
268 [label="lm_134_x <= 0.403\ngini = 0.5\nsamples = 15\nvalue = [3, 0, 3, 12]\nclass = sad", fillcolor="#e788ef"] ;
267 -> 268 ;
269 [label="lm_34_z <= 0.03\ngini = 0.142\nsamples = 11\nvalue = [1, 0, 0, 12]\nclass = sad", fillcolor="#da49e7"] ;
268 -> 269 ;
270 [label="gini = 0.0\nsamples = 1\nvalue = [1, 0, 0, 0]\nclass = anger", fillcolor="#e58139"] ;
269 -> 270 ;
271 [label="gini = 0.0\nsamples = 10\nvalue = [0, 0, 0, 12]\nclass = sad", fillcolor="#d739e5"] ;
269 -> 271 ;
272 [label="lm_318_x <= 0.52\ngini = 0.48\nsamples = 4\nvalue = [2, 0, 3, 0]\nclass = neutral", fillcolor="#bddef6"] ;
268 -> 272 ;
273 [label="gini = 0.0\nsamples = 2\nvalue = [2, 0, 0, 0]\nclass = anger", fillcolor="#e58139"] ;
272 -> 273 ;
274 [label="gini = 0.0\nsamples = 2\nvalue = [0, 0, 3, 0]\nclass = neutral", fillcolor="#399de5"] ;
272 -> 274 ;
275 [label="lm_96_z <= -0.002\ngini = 0.103\nsamples = 58\nvalue = [0, 3, 2, 88]\nclass = sad", fillcolor="#d944e6"] ;
267 -> 275 ;
276 [label="lm_337_z <= -0.059\ngini = 0.084\nsamples = 57\nvalue = [0, 2, 2, 88]\nclass = sad", fillcolor="#d942e6"] ;
275 -> 276 ;
277 [label="lm_82_z <= -0.032\ngini = 0.375\nsamples = 2\nvalue = [0, 0, 1, 3]\nclass = sad", fillcolor="#e47bee"] ;
276 -> 277 ;
278 [label="gini = 0.0\nsamples = 1\nvalue = [0, 0, 1, 0]\nclass = neutral", fillcolor="#399de5"] ;
277 -> 278 ;
279 [label="gini = 0.0\nsamples = 1\nvalue = [0, 0, 0, 3]\nclass = sad", fillcolor="#d739e5"] ;
277 -> 279 ;
280 [label="lm_270_y <= 0.654\ngini = 0.066\nsamples = 55\nvalue = [0, 2, 1, 85]\nclass = sad", fillcolor="#d840e6"] ;
276 -> 280 ;
281 [label="lm_339_x <= 0.563\ngini = 0.184\nsamples = 20\nvalue = [0, 2, 1, 27]\nclass = sad", fillcolor="#db4ee8"] ;
280 -> 281 ;
282 [label="gini = 0.0\nsamples = 1\nvalue = [0, 0, 1, 0]\nclass = neutral", fillcolor="#399de5"] ;
281 -> 282 ;
283 [label="lm_5_z <= -0.154\ngini = 0.128\nsamples = 19\nvalue = [0, 2, 0, 27]\nclass = sad", fillcolor="#da48e7"] ;
281 -> 283 ;
284 [label="gini = 0.0\nsamples = 2\nvalue = [0, 2, 0, 0]\nclass = happy", fillcolor="#47e539"] ;
283 -> 284 ;
285 [label="gini = 0.0\nsamples = 17\nvalue = [0, 0, 0, 27]\nclass = sad", fillcolor="#d739e5"] ;
283 -> 285 ;
286 [label="gini = 0.0\nsamples = 35\nvalue = [0, 0, 0, 58]\nclass = sad", fillcolor="#d739e5"] ;
280 -> 286 ;
287 [label="gini = 0.0\nsamples = 1\nvalue = [0, 1, 0, 0]\nclass = happy", fillcolor="#47e539"] ;
275 -> 287 ;
288 [label="lm_179_x <= 0.383\ngini = 0.586\nsamples = 328\nvalue = [121, 4, 90, 282]\nclass = sad", fillcolor="#eeaaf4"] ;
198 -> 288 ;
289 [label="lm_59_z <= 0.251\ngini = 0.322\nsamples = 97\nvalue = [7.0, 0.0, 20.0, 115.0]\nclass = sad", fillcolor="#e065eb"] ;
288 -> 289 ;
290 [label="lm_297_z <= -0.04\ngini = 0.194\nsamples = 71\nvalue = [4, 0, 7, 93]\nclass = sad", fillcolor="#dc4fe8"] ;
289 -> 290 ;
291 [label="gini = 0.0\nsamples = 2\nvalue = [0, 0, 2, 0]\nclass = neutral", fillcolor="#399de5"] ;
290 -> 291 ;
292 [label="lm_289_x <= 0.74\ngini = 0.165\nsamples = 69\nvalue = [4, 0, 5, 93]\nclass = sad", fillcolor="#db4be7"] ;
290 -> 292 ;
293 [label="lm_88_y <= 0.786\ngini = 0.132\nsamples = 68\nvalue = [2, 0, 5, 93]\nclass = sad", fillcolor="#da48e7"] ;
292 -> 293 ;
294 [label="lm_164_x <= 0.347\ngini = 0.115\nsamples = 67\nvalue = [1, 0, 5, 93]\nclass = sad", fillcolor="#da46e7"] ;
293 -> 294 ;
295 [label="gini = 0.0\nsamples = 32\nvalue = [0, 0, 0, 49]\nclass = sad", fillcolor="#d739e5"] ;
294 -> 295 ;
296 [label="lm_155_x <= 0.423\ngini = 0.215\nsamples = 35\nvalue = [1, 0, 5, 44]\nclass = sad", fillcolor="#dc53e8"] ;
294 -> 296 ;
297 [label="lm_312_x <= 0.461\ngini = 0.494\nsamples = 9\nvalue = [0, 0, 4, 5]\nclass = sad", fillcolor="#f7d7fa"] ;
296 -> 297 ;
298 [label="gini = 0.0\nsamples = 3\nvalue = [0, 0, 3, 0]\nclass = neutral", fillcolor="#399de5"] ;
297 -> 298 ;
299 [label="lm_474_y <= 0.467\ngini = 0.278\nsamples = 6\nvalue = [0, 0, 1, 5]\nclass = sad", fillcolor="#df61ea"] ;
297 -> 299 ;
300 [label="gini = 0.0\nsamples = 1\nvalue = [0, 0, 1, 0]\nclass = neutral", fillcolor="#399de5"] ;
299 -> 300 ;
301 [label="gini = 0.0\nsamples = 5\nvalue = [0, 0, 0, 5]\nclass = sad", fillcolor="#d739e5"] ;
299 -> 301 ;
302 [label="lm_387_y <= 0.441\ngini = 0.094\nsamples = 26\nvalue = [1, 0, 1, 39]\nclass = sad", fillcolor="#d943e6"] ;
296 -> 302 ;
303 [label="gini = 0.0\nsamples = 1\nvalue = [0, 0, 1, 0]\nclass = neutral", fillcolor="#399de5"] ;
302 -> 303 ;
304 [label="lm_64_x <= 0.318\ngini = 0.049\nsamples = 25\nvalue = [1, 0, 0, 39]\nclass = sad", fillcolor="#d83ee6"] ;
302 -> 304 ;
305 [label="gini = 0.0\nsamples = 1\nvalue = [1, 0, 0, 0]\nclass = anger", fillcolor="#e58139"] ;
304 -> 305 ;
306 [label="gini = 0.0\nsamples = 24\nvalue = [0, 0, 0, 39]\nclass = sad", fillcolor="#d739e5"] ;
304 -> 306 ;
307 [label="gini = 0.0\nsamples = 1\nvalue = [1, 0, 0, 0]\nclass = anger", fillcolor="#e58139"] ;
293 -> 307 ;
308 [label="gini = 0.0\nsamples = 1\nvalue = [2, 0, 0, 0]\nclass = anger", fillcolor="#e58139"] ;
292 -> 308 ;
309 [label="lm_398_y <= 0.854\ngini = 0.542\nsamples = 26\nvalue = [3, 0, 13, 22]\nclass = sad", fillcolor="#f1b8f6"] ;
289 -> 309 ;
310 [label="lm_235_y <= 0.428\ngini = 0.357\nsamples = 9\nvalue = [1, 0, 11, 2]\nclass = neutral", fillcolor="#6bb6ec"] ;
309 -> 310 ;
311 [label="lm_286_y <= 0.416\ngini = 0.153\nsamples = 8\nvalue = [1, 0, 11, 0]\nclass = neutral", fillcolor="#4ba6e7"] ;
310 -> 311 ;
312 [label="gini = 0.0\nsamples = 7\nvalue = [0, 0, 11, 0]\nclass = neutral", fillcolor="#399de5"] ;
311 -> 312 ;
313 [label="gini = 0.0\nsamples = 1\nvalue = [1, 0, 0, 0]\nclass = anger", fillcolor="#e58139"] ;
311 -> 313 ;
314 [label="gini = 0.0\nsamples = 1\nvalue = [0, 0, 0, 2]\nclass = sad", fillcolor="#d739e5"] ;
310 -> 314 ;
315 [label="lm_161_x <= 0.356\ngini = 0.292\nsamples = 17\nvalue = [2, 0, 2, 20]\nclass = sad", fillcolor="#de5dea"] ;
309 -> 315 ;
316 [label="gini = 0.0\nsamples = 11\nvalue = [0, 0, 0, 16]\nclass = sad", fillcolor="#d739e5"] ;
315 -> 316 ;
317 [label="lm_82_y <= 0.684\ngini = 0.625\nsamples = 6\nvalue = [2, 0, 2, 4]\nclass = sad", fillcolor="#f2bdf6"] ;
315 -> 317 ;
318 [label="gini = 0.0\nsamples = 3\nvalue = [0, 0, 0, 4]\nclass = sad", fillcolor="#d739e5"] ;
317 -> 318 ;
319 [label="lm_155_x <= 0.422\ngini = 0.5\nsamples = 3\nvalue = [2, 0, 2, 0]\nclass = anger", fillcolor="#ffffff"] ;
317 -> 319 ;
320 [label="gini = 0.0\nsamples = 1\nvalue = [0, 0, 2, 0]\nclass = neutral", fillcolor="#399de5"] ;
319 -> 320 ;
321 [label="gini = 0.0\nsamples = 2\nvalue = [2, 0, 0, 0]\nclass = anger", fillcolor="#e58139"] ;
319 -> 321 ;
322 [label="lm_163_x <= 0.195\ngini = 0.637\nsamples = 231\nvalue = [114, 4, 70, 167]\nclass = sad", fillcolor="#f6d3f9"] ;
288 -> 322 ;
323 [label="lm_247_y <= 0.369\ngini = 0.48\nsamples = 78\nvalue = [23, 1, 14, 83]\nclass = sad", fillcolor="#e786ef"] ;
322 -> 323 ;
324 [label="lm_14_x <= 0.469\ngini = 0.444\nsamples = 8\nvalue = [8, 0, 4, 0]\nclass = anger", fillcolor="#f2c09c"] ;
323 -> 324 ;
325 [label="lm_164_y <= 0.38\ngini = 0.32\nsamples = 4\nvalue = [1, 0, 4, 0]\nclass = neutral", fillcolor="#6ab6ec"] ;
324 -> 325 ;
326 [label="gini = 0.0\nsamples = 1\nvalue = [1, 0, 0, 0]\nclass = anger", fillcolor="#e58139"] ;
325 -> 326 ;
327 [label="gini = 0.0\nsamples = 3\nvalue = [0, 0, 4, 0]\nclass = neutral", fillcolor="#399de5"] ;
325 -> 327 ;
328 [label="gini = 0.0\nsamples = 4\nvalue = [7, 0, 0, 0]\nclass = anger", fillcolor="#e58139"] ;
324 -> 328 ;
329 [label="lm_335_y <= 0.345\ngini = 0.393\nsamples = 70\nvalue = [15, 1, 10, 83]\nclass = sad", fillcolor="#e270ec"] ;
323 -> 329 ;
330 [label="lm_378_x <= 0.557\ngini = 0.54\nsamples = 7\nvalue = [6, 0, 1, 3]\nclass = anger", fillcolor="#f4c9aa"] ;
329 -> 330 ;
331 [label="gini = 0.0\nsamples = 4\nvalue = [6, 0, 0, 0]\nclass = anger", fillcolor="#e58139"] ;
330 -> 331 ;
332 [label="lm_155_z <= 0.003\ngini = 0.375\nsamples = 3\nvalue = [0, 0, 1, 3]\nclass = sad", fillcolor="#e47bee"] ;
330 -> 332 ;
333 [label="gini = 0.0\nsamples = 1\nvalue = [0, 0, 1, 0]\nclass = neutral", fillcolor="#399de5"] ;
332 -> 333 ;
334 [label="gini = 0.0\nsamples = 2\nvalue = [0, 0, 0, 3]\nclass = sad", fillcolor="#d739e5"] ;
332 -> 334 ;
335 [label="lm_362_x <= 0.637\ngini = 0.33\nsamples = 63\nvalue = [9, 1, 9, 80]\nclass = sad", fillcolor="#df63ea"] ;
329 -> 335 ;
336 [label="gini = 0.0\nsamples = 2\nvalue = [0, 0, 3, 0]\nclass = neutral", fillcolor="#399de5"] ;
335 -> 336 ;
337 [label="lm_476_z <= 0.018\ngini = 0.293\nsamples = 61\nvalue = [9, 1, 6, 80]\nclass = sad", fillcolor="#de5dea"] ;
335 -> 337 ;
338 [label="lm_333_y <= 0.269\ngini = 0.611\nsamples = 4\nvalue = [3, 0, 2, 1]\nclass = anger", fillcolor="#f8e0ce"] ;
337 -> 338 ;
339 [label="lm_128_z <= 0.305\ngini = 0.444\nsamples = 2\nvalue = [0, 0, 2, 1]\nclass = neutral", fillcolor="#9ccef2"] ;
338 -> 339 ;
340 [label="gini = 0.0\nsamples = 1\nvalue = [0, 0, 0, 1]\nclass = sad", fillcolor="#d739e5"] ;
339 -> 340 ;
341 [label="gini = 0.0\nsamples = 1\nvalue = [0, 0, 2, 0]\nclass = neutral", fillcolor="#399de5"] ;
339 -> 341 ;
342 [label="gini = 0.0\nsamples = 2\nvalue = [3, 0, 0, 0]\nclass = anger", fillcolor="#e58139"] ;
338 -> 342 ;
343 [label="lm_137_z <= -0.01\ngini = 0.223\nsamples = 57\nvalue = [6, 1, 4, 79]\nclass = sad", fillcolor="#dc53e8"] ;
337 -> 343 ;
344 [label="gini = 0.0\nsamples = 1\nvalue = [2, 0, 0, 0]\nclass = anger", fillcolor="#e58139"] ;
343 -> 344 ;
345 [label="lm_292_z <= 0.039\ngini = 0.19\nsamples = 56\nvalue = [4, 1, 4, 79]\nclass = sad", fillcolor="#db4ee8"] ;
343 -> 345 ;
346 [label="lm_182_z <= -0.038\ngini = 0.171\nsamples = 55\nvalue = [4, 0, 4, 79]\nclass = sad", fillcolor="#db4ce8"] ;
345 -> 346 ;
347 [label="lm_264_z <= 0.047\ngini = 0.153\nsamples = 54\nvalue = [3, 0, 4, 79]\nclass = sad", fillcolor="#da4ae7"] ;
346 -> 347 ;
348 [label="gini = 0.0\nsamples = 1\nvalue = [1, 0, 0, 0]\nclass = anger", fillcolor="#e58139"] ;
347 -> 348 ;
349 [label="lm_292_y <= 0.772\ngini = 0.133\nsamples = 53\nvalue = [2, 0, 4, 79]\nclass = sad", fillcolor="#da48e7"] ;
347 -> 349 ;
350 [label="lm_379_z <= 0.091\ngini = 0.114\nsamples = 52\nvalue = [2, 0, 3, 79]\nclass = sad", fillcolor="#d945e7"] ;
349 -> 350 ;
351 [label="lm_470_y <= 0.392\ngini = 0.075\nsamples = 48\nvalue = [1, 0, 2, 75]\nclass = sad", fillcolor="#d941e6"] ;
350 -> 351 ;
352 [label="lm_163_x <= 0.17\ngini = 0.48\nsamples = 3\nvalue = [0, 0, 2, 3]\nclass = sad", fillcolor="#f2bdf6"] ;
351 -> 352 ;
353 [label="gini = 0.0\nsamples = 1\nvalue = [0, 0, 2, 0]\nclass = neutral", fillcolor="#399de5"] ;
352 -> 353 ;
354 [label="gini = 0.0\nsamples = 2\nvalue = [0, 0, 0, 3]\nclass = sad", fillcolor="#d739e5"] ;
352 -> 354 ;
355 [label="lm_473_x <= 0.345\ngini = 0.027\nsamples = 45\nvalue = [1, 0, 0, 72]\nclass = sad", fillcolor="#d83ce5"] ;
351 -> 355 ;
356 [label="lm_380_y <= 0.858\ngini = 0.133\nsamples = 7\nvalue = [1, 0, 0, 13]\nclass = sad", fillcolor="#da48e7"] ;
355 -> 356 ;
357 [label="gini = 0.0\nsamples = 6\nvalue = [0, 0, 0, 13]\nclass = sad", fillcolor="#d739e5"] ;
356 -> 357 ;
358 [label="gini = 0.0\nsamples = 1\nvalue = [1, 0, 0, 0]\nclass = anger", fillcolor="#e58139"] ;
356 -> 358 ;
359 [label="gini = 0.0\nsamples = 38\nvalue = [0, 0, 0, 59]\nclass = sad", fillcolor="#d739e5"] ;
355 -> 359 ;
360 [label="lm_319_z <= -0.007\ngini = 0.5\nsamples = 4\nvalue = [1, 0, 1, 4]\nclass = sad", fillcolor="#e788ef"] ;
350 -> 360 ;
361 [label="lm_388_y <= 0.447\ngini = 0.5\nsamples = 2\nvalue = [1, 0, 1, 0]\nclass = anger", fillcolor="#ffffff"] ;
360 -> 361 ;
362 [label="gini = 0.0\nsamples = 1\nvalue = [0, 0, 1, 0]\nclass = neutral", fillcolor="#399de5"] ;
361 -> 362 ;
363 [label="gini = 0.0\nsamples = 1\nvalue = [1, 0, 0, 0]\nclass = anger", fillcolor="#e58139"] ;
361 -> 363 ;
364 [label="gini = 0.0\nsamples = 2\nvalue = [0, 0, 0, 4]\nclass = sad", fillcolor="#d739e5"] ;
360 -> 364 ;
365 [label="gini = 0.0\nsamples = 1\nvalue = [0, 0, 1, 0]\nclass = neutral", fillcolor="#399de5"] ;
349 -> 365 ;
366 [label="gini = 0.0\nsamples = 1\nvalue = [1, 0, 0, 0]\nclass = anger", fillcolor="#e58139"] ;
346 -> 366 ;
367 [label="gini = 0.0\nsamples = 1\nvalue = [0, 1, 0, 0]\nclass = happy", fillcolor="#47e539"] ;
345 -> 367 ;
368 [label="lm_186_z <= -0.033\ngini = 0.662\nsamples = 153\nvalue = [91, 3, 56, 84]\nclass = anger", fillcolor="#fef9f6"] ;
322 -> 368 ;
369 [label="lm_297_y <= 0.345\ngini = 0.521\nsamples = 50\nvalue = [51, 1, 20, 8]\nclass = anger", fillcolor="#f2be99"] ;
368 -> 369 ;
370 [label="gini = 0.0\nsamples = 4\nvalue = [0, 0, 9, 0]\nclass = neutral", fillcolor="#399de5"] ;
369 -> 370 ;
371 [label="lm_478_x <= 0.627\ngini = 0.447\nsamples = 46\nvalue = [51, 1, 11, 8]\nclass = anger", fillcolor="#eeab7b"] ;
369 -> 371 ;
372 [label="lm_374_y <= 0.468\ngini = 0.54\nsamples = 9\nvalue = [3, 0, 6, 1]\nclass = neutral", fillcolor="#aad5f4"] ;
371 -> 372 ;
373 [label="lm_235_x <= 0.208\ngini = 0.375\nsamples = 3\nvalue = [3, 0, 0, 1]\nclass = anger", fillcolor="#eeab7b"] ;
372 -> 373 ;
374 [label="gini = 0.0\nsamples = 2\nvalue = [3, 0, 0, 0]\nclass = anger", fillcolor="#e58139"] ;
373 -> 374 ;
375 [label="gini = 0.0\nsamples = 1\nvalue = [0, 0, 0, 1]\nclass = sad", fillcolor="#d739e5"] ;
373 -> 375 ;
376 [label="gini = 0.0\nsamples = 6\nvalue = [0, 0, 6, 0]\nclass = neutral", fillcolor="#399de5"] ;
372 -> 376 ;
377 [label="lm_247_y <= 0.391\ngini = 0.361\nsamples = 37\nvalue = [48, 1, 5, 7]\nclass = anger", fillcolor="#eb9f69"] ;
371 -> 377 ;
378 [label="lm_403_y <= 0.689\ngini = 0.172\nsamples = 23\nvalue = [39, 0, 1, 3]\nclass = anger", fillcolor="#e88e4d"] ;
377 -> 378 ;
379 [label="lm_379_y <= 0.855\ngini = 0.5\nsamples = 6\nvalue = [3, 0, 0, 3]\nclass = anger", fillcolor="#ffffff"] ;
378 -> 379 ;
380 [label="gini = 0.0\nsamples = 3\nvalue = [0, 0, 0, 3]\nclass = sad", fillcolor="#d739e5"] ;
379 -> 380 ;
381 [label="gini = 0.0\nsamples = 3\nvalue = [3, 0, 0, 0]\nclass = anger", fillcolor="#e58139"] ;
379 -> 381 ;
382 [label="lm_335_x <= 0.757\ngini = 0.053\nsamples = 17\nvalue = [36, 0, 1, 0]\nclass = anger", fillcolor="#e6843e"] ;
378 -> 382 ;
383 [label="gini = 0.0\nsamples = 15\nvalue = [34, 0, 0, 0]\nclass = anger", fillcolor="#e58139"] ;
382 -> 383 ;
384 [label="lm_387_z <= 0.053\ngini = 0.444\nsamples = 2\nvalue = [2, 0, 1, 0]\nclass = anger", fillcolor="#f2c09c"] ;
382 -> 384 ;
385 [label="gini = 0.0\nsamples = 1\nvalue = [2, 0, 0, 0]\nclass = anger", fillcolor="#e58139"] ;
384 -> 385 ;
386 [label="gini = 0.0\nsamples = 1\nvalue = [0, 0, 1, 0]\nclass = neutral", fillcolor="#399de5"] ;
384 -> 386 ;
387 [label="lm_270_y <= 0.693\ngini = 0.648\nsamples = 14\nvalue = [9, 1, 4, 4]\nclass = anger", fillcolor="#f6d2b8"] ;
377 -> 387 ;
388 [label="lm_283_y <= 0.391\ngini = 0.66\nsamples = 8\nvalue = [1, 1, 4, 4]\nclass = neutral", fillcolor="#ffffff"] ;
387 -> 388 ;
389 [label="lm_83_y <= 0.664\ngini = 0.5\nsamples = 5\nvalue = [1, 1, 4, 0]\nclass = neutral", fillcolor="#88c4ef"] ;
388 -> 389 ;
390 [label="lm_47_z <= 0.081\ngini = 0.5\nsamples = 2\nvalue = [1, 1, 0, 0]\nclass = anger", fillcolor="#ffffff"] ;
389 -> 390 ;
391 [label="gini = 0.0\nsamples = 1\nvalue = [1, 0, 0, 0]\nclass = anger", fillcolor="#e58139"] ;
390 -> 391 ;
392 [label="gini = 0.0\nsamples = 1\nvalue = [0, 1, 0, 0]\nclass = happy", fillcolor="#47e539"] ;
390 -> 392 ;
393 [label="gini = 0.0\nsamples = 3\nvalue = [0, 0, 4, 0]\nclass = neutral", fillcolor="#399de5"] ;
389 -> 393 ;
394 [label="gini = 0.0\nsamples = 3\nvalue = [0, 0, 0, 4]\nclass = sad", fillcolor="#d739e5"] ;
388 -> 394 ;
395 [label="gini = 0.0\nsamples = 6\nvalue = [8, 0, 0, 0]\nclass = anger", fillcolor="#e58139"] ;
387 -> 395 ;
396 [label="lm_88_y <= 0.712\ngini = 0.634\nsamples = 103\nvalue = [40.0, 2.0, 36.0, 76.0]\nclass = sad", fillcolor="#f2c0f7"] ;
368 -> 396 ;
397 [label="lm_312_y <= 0.692\ngini = 0.675\nsamples = 63\nvalue = [26, 2, 35, 32]\nclass = neutral", fillcolor="#f6fafe"] ;
396 -> 397 ;
398 [label="lm_285_z <= 0.117\ngini = 0.441\nsamples = 18\nvalue = [6, 1, 1, 20]\nclass = sad", fillcolor="#e681ee"] ;
397 -> 398 ;
399 [label="lm_473_y <= 0.411\ngini = 0.095\nsamples = 11\nvalue = [1, 0, 0, 19]\nclass = sad", fillcolor="#d943e6"] ;
398 -> 399 ;
400 [label="gini = 0.0\nsamples = 1\nvalue = [1, 0, 0, 0]\nclass = anger", fillcolor="#e58139"] ;
399 -> 400 ;
401 [label="gini = 0.0\nsamples = 10\nvalue = [0, 0, 0, 19]\nclass = sad", fillcolor="#d739e5"] ;
399 -> 401 ;
402 [label="lm_296_y <= 0.376\ngini = 0.562\nsamples = 7\nvalue = [5, 1, 1, 1]\nclass = anger", fillcolor="#f0b78e"] ;
398 -> 402 ;
403 [label="gini = 0.0\nsamples = 4\nvalue = [5, 0, 0, 0]\nclass = anger", fillcolor="#e58139"] ;
402 -> 403 ;
404 [label="lm_298_y <= 0.284\ngini = 0.667\nsamples = 3\nvalue = [0, 1, 1, 1]\nclass = happy", fillcolor="#ffffff"] ;
402 -> 404 ;
405 [label="gini = 0.0\nsamples = 1\nvalue = [0, 1, 0, 0]\nclass = happy", fillcolor="#47e539"] ;
404 -> 405 ;
406 [label="lm_286_z <= -0.029\ngini = 0.5\nsamples = 2\nvalue = [0, 0, 1, 1]\nclass = neutral", fillcolor="#ffffff"] ;
404 -> 406 ;
407 [label="gini = 0.0\nsamples = 1\nvalue = [0, 0, 1, 0]\nclass = neutral", fillcolor="#399de5"] ;
406 -> 407 ;
408 [label="gini = 0.0\nsamples = 1\nvalue = [0, 0, 0, 1]\nclass = sad", fillcolor="#d739e5"] ;
406 -> 408 ;
409 [label="lm_158_z <= 0.041\ngini = 0.621\nsamples = 45\nvalue = [20, 1, 34, 12]\nclass = neutral", fillcolor="#c4e2f7"] ;
397 -> 409 ;
410 [label="lm_389_z <= 0.047\ngini = 0.513\nsamples = 33\nvalue = [8, 1, 33, 8]\nclass = neutral", fillcolor="#89c5f0"] ;
409 -> 410 ;
411 [label="lm_390_y <= 0.405\ngini = 0.484\nsamples = 31\nvalue = [8, 1, 33, 6]\nclass = neutral", fillcolor="#83c2ef"] ;
410 -> 411 ;
412 [label="gini = 0.0\nsamples = 3\nvalue = [4, 0, 0, 0]\nclass = anger", fillcolor="#e58139"] ;
411 -> 412 ;
413 [label="lm_391_x <= 0.651\ngini = 0.41\nsamples = 28\nvalue = [4, 1, 33, 6]\nclass = neutral", fillcolor="#72b9ed"] ;
411 -> 413 ;
414 [label="gini = 0.0\nsamples = 2\nvalue = [3, 0, 0, 0]\nclass = anger", fillcolor="#e58139"] ;
413 -> 414 ;
415 [label="lm_322_y <= 0.751\ngini = 0.33\nsamples = 26\nvalue = [1, 1, 33, 6]\nclass = neutral", fillcolor="#66b3eb"] ;
413 -> 415 ;
416 [label="lm_66_x <= 0.377\ngini = 0.174\nsamples = 20\nvalue = [0, 1, 29, 2]\nclass = neutral", fillcolor="#4da7e8"] ;
415 -> 416 ;
417 [label="gini = 0.0\nsamples = 1\nvalue = [0, 0, 0, 1]\nclass = sad", fillcolor="#d739e5"] ;
416 -> 417 ;
418 [label="lm_8_x <= 0.353\ngini = 0.123\nsamples = 19\nvalue = [0, 1, 29, 1]\nclass = neutral", fillcolor="#46a4e7"] ;
416 -> 418 ;
419 [label="lm_294_y <= 0.417\ngini = 0.067\nsamples = 17\nvalue = [0, 1, 28, 0]\nclass = neutral", fillcolor="#40a0e6"] ;
418 -> 419 ;
420 [label="gini = 0.0\nsamples = 15\nvalue = [0, 0, 26, 0]\nclass = neutral", fillcolor="#399de5"] ;
419 -> 420 ;
421 [label="gini = 0.444\nsamples = 2\nvalue = [0, 1, 2, 0]\nclass = neutral", fillcolor="#9ccef2"] ;
419 -> 421 ;
422 [label="lm_366_x <= 0.626\ngini = 0.5\nsamples = 2\nvalue = [0, 0, 1, 1]\nclass = neutral", fillcolor="#ffffff"] ;
418 -> 422 ;
423 [label="gini = 0.0\nsamples = 1\nvalue = [0, 0, 1, 0]\nclass = neutral", fillcolor="#399de5"] ;
422 -> 423 ;
424 [label="gini = 0.0\nsamples = 1\nvalue = [0, 0, 0, 1]\nclass = sad", fillcolor="#d739e5"] ;
422 -> 424 ;
425 [label="lm_94_x <= 0.181\ngini = 0.593\nsamples = 6\nvalue = [1, 0, 4, 4]\nclass = neutral", fillcolor="#ffffff"] ;
415 -> 425 ;
426 [label="gini = 0.0\nsamples = 2\nvalue = [0, 0, 4, 0]\nclass = neutral", fillcolor="#399de5"] ;
425 -> 426 ;
427 [label="lm_156_y <= 0.415\ngini = 0.32\nsamples = 4\nvalue = [1, 0, 0, 4]\nclass = sad", fillcolor="#e16aec"] ;
425 -> 427 ;
428 [label="gini = 0.0\nsamples = 1\nvalue = [1, 0, 0, 0]\nclass = anger", fillcolor="#e58139"] ;
427 -> 428 ;
429 [label="gini = 0.0\nsamples = 3\nvalue = [0, 0, 0, 4]\nclass = sad", fillcolor="#d739e5"] ;
427 -> 429 ;
430 [label="gini = 0.0\nsamples = 2\nvalue = [0, 0, 0, 2]\nclass = sad", fillcolor="#d739e5"] ;
410 -> 430 ;
431 [label="lm_335_y <= 0.361\ngini = 0.443\nsamples = 12\nvalue = [12, 0, 1, 4]\nclass = anger", fillcolor="#efb185"] ;
409 -> 431 ;
432 [label="lm_322_x <= 0.558\ngini = 0.5\nsamples = 5\nvalue = [1, 0, 1, 4]\nclass = sad", fillcolor="#e788ef"] ;
431 -> 432 ;
433 [label="gini = 0.0\nsamples = 3\nvalue = [0, 0, 0, 4]\nclass = sad", fillcolor="#d739e5"] ;
432 -> 433 ;
434 [label="lm_379_z <= 0.021\ngini = 0.5\nsamples = 2\nvalue = [1, 0, 1, 0]\nclass = anger", fillcolor="#ffffff"] ;
432 -> 434 ;
435 [label="gini = 0.0\nsamples = 1\nvalue = [0, 0, 1, 0]\nclass = neutral", fillcolor="#399de5"] ;
434 -> 435 ;
436 [label="gini = 0.0\nsamples = 1\nvalue = [1, 0, 0, 0]\nclass = anger", fillcolor="#e58139"] ;
434 -> 436 ;
437 [label="gini = 0.0\nsamples = 7\nvalue = [11, 0, 0, 0]\nclass = anger", fillcolor="#e58139"] ;
431 -> 437 ;
438 [label="lm_5_y <= 0.557\ngini = 0.387\nsamples = 40\nvalue = [14, 0, 1, 44]\nclass = sad", fillcolor="#e47bee"] ;
396 -> 438 ;
439 [label="lm_389_x <= 0.66\ngini = 0.403\nsamples = 7\nvalue = [9, 0, 1, 2]\nclass = anger", fillcolor="#eda774"] ;
438 -> 439 ;
440 [label="lm_387_x <= 0.625\ngini = 0.444\nsamples = 2\nvalue = [0, 0, 1, 2]\nclass = sad", fillcolor="#eb9cf2"] ;
439 -> 440 ;
441 [label="gini = 0.0\nsamples = 1\nvalue = [0, 0, 1, 0]\nclass = neutral", fillcolor="#399de5"] ;
440 -> 441 ;
442 [label="gini = 0.0\nsamples = 1\nvalue = [0, 0, 0, 2]\nclass = sad", fillcolor="#d739e5"] ;
440 -> 442 ;
443 [label="gini = 0.0\nsamples = 5\nvalue = [9, 0, 0, 0]\nclass = anger", fillcolor="#e58139"] ;
439 -> 443 ;
444 [label="lm_62_y <= 0.694\ngini = 0.19\nsamples = 33\nvalue = [5, 0, 0, 42]\nclass = sad", fillcolor="#dc51e8"] ;
438 -> 444 ;
445 [label="lm_235_z <= 0.225\ngini = 0.375\nsamples = 3\nvalue = [3, 0, 0, 1]\nclass = anger", fillcolor="#eeab7b"] ;
444 -> 445 ;
446 [label="gini = 0.0\nsamples = 1\nvalue = [0, 0, 0, 1]\nclass = sad", fillcolor="#d739e5"] ;
445 -> 446 ;
447 [label="gini = 0.0\nsamples = 2\nvalue = [3, 0, 0, 0]\nclass = anger", fillcolor="#e58139"] ;
445 -> 447 ;
448 [label="lm_283_y <= 0.405\ngini = 0.089\nsamples = 30\nvalue = [2, 0, 0, 41]\nclass = sad", fillcolor="#d943e6"] ;
444 -> 448 ;
449 [label="gini = 0.0\nsamples = 27\nvalue = [0, 0, 0, 40]\nclass = sad", fillcolor="#d739e5"] ;
448 -> 449 ;
450 [label="lm_155_z <= 0.02\ngini = 0.444\nsamples = 3\nvalue = [2, 0, 0, 1]\nclass = anger", fillcolor="#f2c09c"] ;
448 -> 450 ;
451 [label="gini = 0.0\nsamples = 2\nvalue = [2, 0, 0, 0]\nclass = anger", fillcolor="#e58139"] ;
450 -> 451 ;
452 [label="gini = 0.0\nsamples = 1\nvalue = [0, 0, 0, 1]\nclass = sad", fillcolor="#d739e5"] ;
450 -> 452 ;
453 [label="lm_386_z <= 0.009\ngini = 0.117\nsamples = 10\nvalue = [1, 0, 15, 0]\nclass = neutral", fillcolor="#46a4e7"] ;
179 -> 453 ;
454 [label="gini = 0.0\nsamples = 1\nvalue = [1, 0, 0, 0]\nclass = anger", fillcolor="#e58139"] ;
453 -> 454 ;
455 [label="gini = 0.0\nsamples = 9\nvalue = [0, 0, 15, 0]\nclass = neutral", fillcolor="#399de5"] ;
453 -> 455 ;
456 [label="lm_284_y <= 0.289\ngini = 0.684\nsamples = 1194\nvalue = [557, 75, 509, 723]\nclass = sad", fillcolor="#fae6fc"] ;
4 -> 456 ;
457 [label="lm_475_x <= 0.624\ngini = 0.52\nsamples = 49\nvalue = [3, 6, 52, 20]\nclass = neutral", fillcolor="#97ccf1"] ;
456 -> 457 ;
458 [label="gini = 0.0\nsamples = 5\nvalue = [0, 0, 0, 8]\nclass = sad", fillcolor="#d739e5"] ;
457 -> 458 ;
459 [label="lm_15_y <= 0.73\ngini = 0.457\nsamples = 44\nvalue = [3, 6, 52, 12]\nclass = neutral", fillcolor="#7dbfee"] ;
457 -> 459 ;
460 [label="lm_161_y <= 0.449\ngini = 0.306\nsamples = 38\nvalue = [3, 2, 52, 6]\nclass = neutral", fillcolor="#5fb0ea"] ;
459 -> 460 ;
461 [label="lm_186_y <= 0.736\ngini = 0.243\nsamples = 36\nvalue = [3, 2, 52, 3]\nclass = neutral", fillcolor="#55abe9"] ;
460 -> 461 ;
462 [label="lm_325_y <= 0.654\ngini = 0.172\nsamples = 31\nvalue = [3, 2, 49, 0]\nclass = neutral", fillcolor="#4ca7e8"] ;
461 -> 462 ;
463 [label="gini = 0.0\nsamples = 1\nvalue = [0, 2, 0, 0]\nclass = happy", fillcolor="#47e539"] ;
462 -> 463 ;
464 [label="lm_235_x <= 0.29\ngini = 0.109\nsamples = 30\nvalue = [3, 0, 49, 0]\nclass = neutral", fillcolor="#45a3e7"] ;
462 -> 464 ;
465 [label="lm_14_z <= -0.061\ngini = 0.075\nsamples = 29\nvalue = [2, 0, 49, 0]\nclass = neutral", fillcolor="#41a1e6"] ;
464 -> 465 ;
466 [label="gini = 0.0\nsamples = 1\nvalue = [1, 0, 0, 0]\nclass = anger", fillcolor="#e58139"] ;
465 -> 466 ;
467 [label="lm_366_y <= 0.673\ngini = 0.039\nsamples = 28\nvalue = [1, 0, 49, 0]\nclass = neutral", fillcolor="#3d9fe6"] ;
465 -> 467 ;
468 [label="gini = 0.0\nsamples = 1\nvalue = [1, 0, 0, 0]\nclass = anger", fillcolor="#e58139"] ;
467 -> 468 ;
469 [label="gini = 0.0\nsamples = 27\nvalue = [0, 0, 49, 0]\nclass = neutral", fillcolor="#399de5"] ;
467 -> 469 ;
470 [label="gini = 0.0\nsamples = 1\nvalue = [1, 0, 0, 0]\nclass = anger", fillcolor="#e58139"] ;
464 -> 470 ;
471 [label="lm_378_y <= 0.858\ngini = 0.5\nsamples = 5\nvalue = [0, 0, 3, 3]\nclass = neutral", fillcolor="#ffffff"] ;
461 -> 471 ;
472 [label="gini = 0.0\nsamples = 3\nvalue = [0, 0, 3, 0]\nclass = neutral", fillcolor="#399de5"] ;
471 -> 472 ;
473 [label="gini = 0.0\nsamples = 2\nvalue = [0, 0, 0, 3]\nclass = sad", fillcolor="#d739e5"] ;
471 -> 473 ;
474 [label="gini = 0.0\nsamples = 2\nvalue = [0, 0, 0, 3]\nclass = sad", fillcolor="#d739e5"] ;
460 -> 474 ;
475 [label="lm_94_z <= 0.284\ngini = 0.48\nsamples = 6\nvalue = [0, 4, 0, 6]\nclass = sad", fillcolor="#f2bdf6"] ;
459 -> 475 ;
476 [label="gini = 0.0\nsamples = 2\nvalue = [0, 4, 0, 0]\nclass = happy", fillcolor="#47e539"] ;
475 -> 476 ;
477 [label="gini = 0.0\nsamples = 4\nvalue = [0, 0, 0, 6]\nclass = sad", fillcolor="#d739e5"] ;
475 -> 477 ;
478 [label="lm_79_y <= 0.73\ngini = 0.681\nsamples = 1145\nvalue = [554.0, 69.0, 457.0, 703.0]\nclass = sad", fillcolor="#fae7fc"] ;
456 -> 478 ;
479 [label="lm_11_y <= 0.164\ngini = 0.687\nsamples = 1037\nvalue = [524, 69, 414, 589]\nclass = sad", fillcolor="#fdf3fd"] ;
478 -> 479 ;
480 [label="lm_82_y <= 0.705\ngini = 0.524\nsamples = 60\nvalue = [10, 2, 59, 21]\nclass = neutral", fillcolor="#95cbf1"] ;
479 -> 480 ;
481 [label="lm_410_z <= 0.022\ngini = 0.29\nsamples = 26\nvalue = [3, 2, 36, 2]\nclass = neutral", fillcolor="#5caeea"] ;
480 -> 481 ;
482 [label="lm_386_z <= -0.034\ngini = 0.221\nsamples = 25\nvalue = [3, 0, 36, 2]\nclass = neutral", fillcolor="#53aae8"] ;
481 -> 482 ;
483 [label="gini = 0.0\nsamples = 1\nvalue = [2, 0, 0, 0]\nclass = anger", fillcolor="#e58139"] ;
482 -> 483 ;
484 [label="lm_277_y <= 0.315\ngini = 0.145\nsamples = 24\nvalue = [1, 0, 36, 2]\nclass = neutral", fillcolor="#49a5e7"] ;
482 -> 484 ;
485 [label="gini = 0.0\nsamples = 1\nvalue = [1, 0, 0, 0]\nclass = anger", fillcolor="#e58139"] ;
484 -> 485 ;
486 [label="lm_159_x <= 0.39\ngini = 0.1\nsamples = 23\nvalue = [0, 0, 36, 2]\nclass = neutral", fillcolor="#44a2e6"] ;
484 -> 486 ;
487 [label="gini = 0.0\nsamples = 19\nvalue = [0, 0, 32, 0]\nclass = neutral", fillcolor="#399de5"] ;
486 -> 487 ;
488 [label="lm_455_y <= 0.5\ngini = 0.444\nsamples = 4\nvalue = [0, 0, 4, 2]\nclass = neutral", fillcolor="#9ccef2"] ;
486 -> 488 ;
489 [label="gini = 0.0\nsamples = 1\nvalue = [0, 0, 0, 2]\nclass = sad", fillcolor="#d739e5"] ;
488 -> 489 ;
490 [label="gini = 0.0\nsamples = 3\nvalue = [0, 0, 4, 0]\nclass = neutral", fillcolor="#399de5"] ;
488 -> 490 ;
491 [label="gini = 0.0\nsamples = 1\nvalue = [0, 2, 0, 0]\nclass = happy", fillcolor="#47e539"] ;
481 -> 491 ;
492 [label="lm_319_z <= -0.01\ngini = 0.609\nsamples = 34\nvalue = [7, 0, 23, 19]\nclass = neutral", fillcolor="#e5f2fc"] ;
480 -> 492 ;
493 [label="lm_390_y <= 0.324\ngini = 0.445\nsamples = 14\nvalue = [1, 0, 5, 14]\nclass = sad", fillcolor="#e788ef"] ;
492 -> 493 ;
494 [label="lm_41_x <= 0.429\ngini = 0.278\nsamples = 4\nvalue = [0, 0, 5, 1]\nclass = neutral", fillcolor="#61b1ea"] ;
493 -> 494 ;
495 [label="gini = 0.0\nsamples = 3\nvalue = [0, 0, 5, 0]\nclass = neutral", fillcolor="#399de5"] ;
494 -> 495 ;
496 [label="gini = 0.0\nsamples = 1\nvalue = [0, 0, 0, 1]\nclass = sad", fillcolor="#d739e5"] ;
494 -> 496 ;
497 [label="lm_41_z <= -0.011\ngini = 0.133\nsamples = 10\nvalue = [1, 0, 0, 13]\nclass = sad", fillcolor="#da48e7"] ;
493 -> 497 ;
498 [label="gini = 0.0\nsamples = 9\nvalue = [0, 0, 0, 13]\nclass = sad", fillcolor="#d739e5"] ;
497 -> 498 ;
499 [label="gini = 0.0\nsamples = 1\nvalue = [1, 0, 0, 0]\nclass = anger", fillcolor="#e58139"] ;
497 -> 499 ;
500 [label="lm_318_z <= -0.009\ngini = 0.542\nsamples = 20\nvalue = [6, 0, 18, 5]\nclass = neutral", fillcolor="#98ccf1"] ;
492 -> 500 ;
501 [label="lm_174_x <= 0.41\ngini = 0.422\nsamples = 16\nvalue = [6, 0, 18, 1]\nclass = neutral", fillcolor="#82c1ef"] ;
500 -> 501 ;
502 [label="lm_156_x <= 0.387\ngini = 0.568\nsamples = 8\nvalue = [5, 0, 3, 1]\nclass = anger", fillcolor="#f6d5bd"] ;
501 -> 502 ;
503 [label="gini = 0.0\nsamples = 3\nvalue = [0, 0, 3, 0]\nclass = neutral", fillcolor="#399de5"] ;
502 -> 503 ;
504 [label="lm_473_y <= 0.43\ngini = 0.278\nsamples = 5\nvalue = [5, 0, 0, 1]\nclass = anger", fillcolor="#ea9a61"] ;
502 -> 504 ;
505 [label="gini = 0.0\nsamples = 4\nvalue = [5, 0, 0, 0]\nclass = anger", fillcolor="#e58139"] ;
504 -> 505 ;
506 [label="gini = 0.0\nsamples = 1\nvalue = [0, 0, 0, 1]\nclass = sad", fillcolor="#d739e5"] ;
504 -> 506 ;
507 [label="lm_163_x <= 0.181\ngini = 0.117\nsamples = 8\nvalue = [1, 0, 15, 0]\nclass = neutral", fillcolor="#46a4e7"] ;
501 -> 507 ;
508 [label="gini = 0.0\nsamples = 1\nvalue = [1, 0, 0, 0]\nclass = anger", fillcolor="#e58139"] ;
507 -> 508 ;
509 [label="gini = 0.0\nsamples = 7\nvalue = [0, 0, 15, 0]\nclass = neutral", fillcolor="#399de5"] ;
507 -> 509 ;
510 [label="gini = 0.0\nsamples = 4\nvalue = [0, 0, 0, 4]\nclass = sad", fillcolor="#d739e5"] ;
500 -> 510 ;
511 [label="lm_67_y <= 0.311\ngini = 0.683\nsamples = 977\nvalue = [514, 67, 355, 568]\nclass = sad", fillcolor="#fdf4fe"] ;
479 -> 511 ;
512 [label="lm_134_y <= 0.404\ngini = 0.661\nsamples = 333\nvalue = [118, 20, 140, 236]\nclass = sad", fillcolor="#f5ccf8"] ;
511 -> 512 ;
513 [label="lm_391_z <= 0.039\ngini = 0.644\nsamples = 106\nvalue = [73, 1, 36, 50]\nclass = anger", fillcolor="#fae5d6"] ;
512 -> 513 ;
514 [label="lm_313_y <= 0.667\ngini = 0.616\nsamples = 89\nvalue = [69, 1, 31, 31]\nclass = anger", fillcolor="#f5d0b5"] ;
513 -> 514 ;
515 [label="gini = 0.0\nsamples = 8\nvalue = [13, 0, 0, 0]\nclass = anger", fillcolor="#e58139"] ;
514 -> 515 ;
516 [label="lm_286_y <= 0.388\ngini = 0.643\nsamples = 81\nvalue = [56.0, 1.0, 31.0, 31.0]\nclass = anger", fillcolor="#f8dbc7"] ;
514 -> 516 ;
517 [label="lm_137_y <= 0.714\ngini = 0.667\nsamples = 40\nvalue = [13, 1, 20, 20]\nclass = neutral", fillcolor="#ffffff"] ;
516 -> 517 ;
518 [label="lm_110_x <= 0.513\ngini = 0.491\nsamples = 17\nvalue = [0.0, 0.0, 10.0, 13.0]\nclass = sad", fillcolor="#f6d1f9"] ;
517 -> 518 ;
519 [label="gini = 0.0\nsamples = 8\nvalue = [0, 0, 0, 9]\nclass = sad", fillcolor="#d739e5"] ;
518 -> 519 ;
520 [label="lm_335_z <= -0.055\ngini = 0.408\nsamples = 9\nvalue = [0, 0, 10, 4]\nclass = neutral", fillcolor="#88c4ef"] ;
518 -> 520 ;
521 [label="gini = 0.0\nsamples = 5\nvalue = [0, 0, 9, 0]\nclass = neutral", fillcolor="#399de5"] ;
520 -> 521 ;
522 [label="lm_399_y <= 0.44\ngini = 0.32\nsamples = 4\nvalue = [0, 0, 1, 4]\nclass = sad", fillcolor="#e16aec"] ;
520 -> 522 ;
523 [label="gini = 0.0\nsamples = 3\nvalue = [0, 0, 0, 4]\nclass = sad", fillcolor="#d739e5"] ;
522 -> 523 ;
524 [label="gini = 0.0\nsamples = 1\nvalue = [0, 0, 1, 0]\nclass = neutral", fillcolor="#399de5"] ;
522 -> 524 ;
525 [label="lm_1_z <= -0.076\ngini = 0.668\nsamples = 23\nvalue = [13, 1, 10, 7]\nclass = anger", fillcolor="#fbede3"] ;
517 -> 525 ;
526 [label="gini = 0.0\nsamples = 3\nvalue = [0, 0, 6, 0]\nclass = neutral", fillcolor="#399de5"] ;
525 -> 526 ;
527 [label="lm_156_y <= 0.404\ngini = 0.624\nsamples = 20\nvalue = [13.0, 1.0, 4.0, 7.0]\nclass = anger", fillcolor="#f6d5bd"] ;
525 -> 527 ;
528 [label="lm_366_z <= 0.152\ngini = 0.545\nsamples = 18\nvalue = [13, 1, 1, 7]\nclass = anger", fillcolor="#f5cdb0"] ;
527 -> 528 ;
529 [label="lm_14_x <= 0.476\ngini = 0.542\nsamples = 10\nvalue = [4, 0, 1, 7]\nclass = sad", fillcolor="#f0b5f5"] ;
528 -> 529 ;
530 [label="lm_389_y <= 0.412\ngini = 0.37\nsamples = 7\nvalue = [1, 0, 1, 7]\nclass = sad", fillcolor="#e16aec"] ;
529 -> 530 ;
531 [label="gini = 0.0\nsamples = 1\nvalue = [0, 0, 1, 0]\nclass = neutral", fillcolor="#399de5"] ;
530 -> 531 ;
532 [label="lm_56_x <= 0.472\ngini = 0.219\nsamples = 6\nvalue = [1, 0, 0, 7]\nclass = sad", fillcolor="#dd55e9"] ;
530 -> 532 ;
533 [label="gini = 0.0\nsamples = 5\nvalue = [0, 0, 0, 7]\nclass = sad", fillcolor="#d739e5"] ;
532 -> 533 ;
534 [label="gini = 0.0\nsamples = 1\nvalue = [1, 0, 0, 0]\nclass = anger", fillcolor="#e58139"] ;
532 -> 534 ;
535 [label="gini = 0.0\nsamples = 3\nvalue = [3, 0, 0, 0]\nclass = anger", fillcolor="#e58139"] ;
529 -> 535 ;
536 [label="lm_410_y <= 0.68\ngini = 0.18\nsamples = 8\nvalue = [9, 1, 0, 0]\nclass = anger", fillcolor="#e88f4f"] ;
528 -> 536 ;
537 [label="gini = 0.0\nsamples = 1\nvalue = [0, 1, 0, 0]\nclass = happy", fillcolor="#47e539"] ;
536 -> 537 ;
538 [label="gini = 0.0\nsamples = 7\nvalue = [9, 0, 0, 0]\nclass = anger", fillcolor="#e58139"] ;
536 -> 538 ;
539 [label="gini = 0.0\nsamples = 2\nvalue = [0, 0, 3, 0]\nclass = neutral", fillcolor="#399de5"] ;
527 -> 539 ;
540 [label="lm_150_y <= 0.791\ngini = 0.505\nsamples = 41\nvalue = [43, 0, 11, 11]\nclass = anger", fillcolor="#f0b48a"] ;
516 -> 540 ;
541 [label="lm_158_z <= 0.02\ngini = 0.657\nsamples = 24\nvalue = [14, 0, 10, 10]\nclass = anger", fillcolor="#fbeade"] ;
540 -> 541 ;
542 [label="lm_292_x <= 0.459\ngini = 0.602\nsamples = 21\nvalue = [14, 0, 10, 4]\nclass = anger", fillcolor="#f9e3d3"] ;
541 -> 542 ;
543 [label="gini = 0.0\nsamples = 5\nvalue = [9, 0, 0, 0]\nclass = anger", fillcolor="#e58139"] ;
542 -> 543 ;
544 [label="lm_285_y <= 0.373\ngini = 0.609\nsamples = 16\nvalue = [5, 0, 10, 4]\nclass = neutral", fillcolor="#b8dcf6"] ;
542 -> 544 ;
545 [label="lm_322_z <= 0.024\ngini = 0.32\nsamples = 5\nvalue = [4, 0, 1, 0]\nclass = anger", fillcolor="#eca06a"] ;
544 -> 545 ;
546 [label="gini = 0.0\nsamples = 4\nvalue = [4, 0, 0, 0]\nclass = anger", fillcolor="#e58139"] ;
545 -> 546 ;
547 [label="gini = 0.0\nsamples = 1\nvalue = [0, 0, 1, 0]\nclass = neutral", fillcolor="#399de5"] ;
545 -> 547 ;
548 [label="lm_385_x <= 0.641\ngini = 0.5\nsamples = 11\nvalue = [1, 0, 9, 4]\nclass = neutral", fillcolor="#9ccef2"] ;
544 -> 548 ;
549 [label="lm_5_y <= 0.555\ngini = 0.314\nsamples = 9\nvalue = [1, 0, 9, 1]\nclass = neutral", fillcolor="#61b1ea"] ;
548 -> 549 ;
550 [label="lm_59_y <= 0.529\ngini = 0.5\nsamples = 2\nvalue = [1, 0, 0, 1]\nclass = anger", fillcolor="#ffffff"] ;
549 -> 550 ;
551 [label="gini = 0.0\nsamples = 1\nvalue = [0, 0, 0, 1]\nclass = sad", fillcolor="#d739e5"] ;
550 -> 551 ;
552 [label="gini = 0.0\nsamples = 1\nvalue = [1, 0, 0, 0]\nclass = anger", fillcolor="#e58139"] ;
550 -> 552 ;
553 [label="gini = 0.0\nsamples = 7\nvalue = [0, 0, 9, 0]\nclass = neutral", fillcolor="#399de5"] ;
549 -> 553 ;
554 [label="gini = 0.0\nsamples = 2\nvalue = [0, 0, 0, 3]\nclass = sad", fillcolor="#d739e5"] ;
548 -> 554 ;
555 [label="gini = 0.0\nsamples = 3\nvalue = [0, 0, 0, 6]\nclass = sad", fillcolor="#d739e5"] ;
541 -> 555 ;
556 [label="lm_89_x <= 0.286\ngini = 0.123\nsamples = 17\nvalue = [29, 0, 1, 1]\nclass = anger", fillcolor="#e78946"] ;
540 -> 556 ;
557 [label="gini = 0.0\nsamples = 1\nvalue = [0, 0, 0, 1]\nclass = sad", fillcolor="#d739e5"] ;
556 -> 557 ;
558 [label="lm_14_y <= 0.727\ngini = 0.064\nsamples = 16\nvalue = [29, 0, 1, 0]\nclass = anger", fillcolor="#e68540"] ;
556 -> 558 ;
559 [label="gini = 0.0\nsamples = 15\nvalue = [29, 0, 0, 0]\nclass = anger", fillcolor="#e58139"] ;
558 -> 559 ;
560 [label="gini = 0.0\nsamples = 1\nvalue = [0, 0, 1, 0]\nclass = neutral", fillcolor="#399de5"] ;
558 -> 560 ;
561 [label="lm_179_y <= 0.697\ngini = 0.487\nsamples = 17\nvalue = [4, 0, 5, 19]\nclass = sad", fillcolor="#e786ef"] ;
513 -> 561 ;
562 [label="lm_154_y <= 0.397\ngini = 0.18\nsamples = 12\nvalue = [2, 0, 0, 18]\nclass = sad", fillcolor="#db4fe8"] ;
561 -> 562 ;
563 [label="lm_478_y <= 0.463\ngini = 0.1\nsamples = 11\nvalue = [1, 0, 0, 18]\nclass = sad", fillcolor="#d944e6"] ;
562 -> 563 ;
564 [label="gini = 0.0\nsamples = 1\nvalue = [1, 0, 0, 0]\nclass = anger", fillcolor="#e58139"] ;
563 -> 564 ;
565 [label="gini = 0.0\nsamples = 10\nvalue = [0, 0, 0, 18]\nclass = sad", fillcolor="#d739e5"] ;
563 -> 565 ;
566 [label="gini = 0.0\nsamples = 1\nvalue = [1, 0, 0, 0]\nclass = anger", fillcolor="#e58139"] ;
562 -> 566 ;
567 [label="lm_455_z <= 0.357\ngini = 0.531\nsamples = 5\nvalue = [2, 0, 5, 1]\nclass = neutral", fillcolor="#9ccef2"] ;
561 -> 567 ;
568 [label="gini = 0.0\nsamples = 3\nvalue = [0, 0, 5, 0]\nclass = neutral", fillcolor="#399de5"] ;
567 -> 568 ;
569 [label="lm_319_z <= 0.005\ngini = 0.444\nsamples = 2\nvalue = [2, 0, 0, 1]\nclass = anger", fillcolor="#f2c09c"] ;
567 -> 569 ;
570 [label="gini = 0.0\nsamples = 1\nvalue = [2, 0, 0, 0]\nclass = anger", fillcolor="#e58139"] ;
569 -> 570 ;
571 [label="gini = 0.0\nsamples = 1\nvalue = [0, 0, 0, 1]\nclass = sad", fillcolor="#d739e5"] ;
569 -> 571 ;
572 [label="lm_158_y <= 0.392\ngini = 0.619\nsamples = 227\nvalue = [45.0, 19.0, 104.0, 186.0]\nclass = sad", fillcolor="#f2bef6"] ;
512 -> 572 ;
573 [label="lm_108_z <= -0.098\ngini = 0.687\nsamples = 109\nvalue = [30, 13, 60, 63]\nclass = sad", fillcolor="#fef9fe"] ;
572 -> 573 ;
574 [label="lm_337_y <= 0.374\ngini = 0.492\nsamples = 23\nvalue = [8, 1, 22, 2]\nclass = neutral", fillcolor="#90c8f0"] ;
573 -> 574 ;
575 [label="lm_186_z <= 0.014\ngini = 0.324\nsamples = 19\nvalue = [2, 1, 22, 2]\nclass = neutral", fillcolor="#61b1ea"] ;
574 -> 575 ;
576 [label="lm_128_x <= 0.215\ngini = 0.272\nsamples = 18\nvalue = [2, 0, 22, 2]\nclass = neutral", fillcolor="#5aade9"] ;
575 -> 576 ;
577 [label="lm_163_z <= 0.04\ngini = 0.156\nsamples = 16\nvalue = [1, 0, 22, 1]\nclass = neutral", fillcolor="#4aa6e7"] ;
576 -> 577 ;
578 [label="gini = 0.0\nsamples = 1\nvalue = [1, 0, 0, 0]\nclass = anger", fillcolor="#e58139"] ;
577 -> 578 ;
579 [label="lm_110_y <= 0.154\ngini = 0.083\nsamples = 15\nvalue = [0, 0, 22, 1]\nclass = neutral", fillcolor="#42a1e6"] ;
577 -> 579 ;
580 [label="gini = 0.0\nsamples = 1\nvalue = [0, 0, 0, 1]\nclass = sad", fillcolor="#d739e5"] ;
579 -> 580 ;
581 [label="gini = 0.0\nsamples = 14\nvalue = [0, 0, 22, 0]\nclass = neutral", fillcolor="#399de5"] ;
579 -> 581 ;
582 [label="lm_357_y <= 0.482\ngini = 0.5\nsamples = 2\nvalue = [1, 0, 0, 1]\nclass = anger", fillcolor="#ffffff"] ;
576 -> 582 ;
583 [label="gini = 0.0\nsamples = 1\nvalue = [0, 0, 0, 1]\nclass = sad", fillcolor="#d739e5"] ;
582 -> 583 ;
584 [label="gini = 0.0\nsamples = 1\nvalue = [1, 0, 0, 0]\nclass = anger", fillcolor="#e58139"] ;
582 -> 584 ;
585 [label="gini = 0.0\nsamples = 1\nvalue = [0, 1, 0, 0]\nclass = happy", fillcolor="#47e539"] ;
575 -> 585 ;
586 [label="gini = 0.0\nsamples = 4\nvalue = [6, 0, 0, 0]\nclass = anger", fillcolor="#e58139"] ;
574 -> 586 ;
587 [label="lm_311_y <= 0.67\ngini = 0.673\nsamples = 86\nvalue = [22, 12, 38, 61]\nclass = sad", fillcolor="#f5cff9"] ;
573 -> 587 ;
588 [label="gini = 0.0\nsamples = 3\nvalue = [0, 5, 0, 0]\nclass = happy", fillcolor="#47e539"] ;
587 -> 588 ;
589 [label="lm_298_x <= 0.713\ngini = 0.652\nsamples = 83\nvalue = [22, 7, 38, 61]\nclass = sad", fillcolor="#f5ccf8"] ;
587 -> 589 ;
590 [label="lm_286_y <= 0.375\ngini = 0.661\nsamples = 43\nvalue = [15, 1, 26, 19]\nclass = neutral", fillcolor="#deeffb"] ;
589 -> 590 ;
591 [label="lm_53_z <= -0.035\ngini = 0.534\nsamples = 16\nvalue = [0, 1, 11, 13]\nclass = sad", fillcolor="#f9e3fb"] ;
590 -> 591 ;
592 [label="lm_298_x <= 0.684\ngini = 0.462\nsamples = 8\nvalue = [0, 1, 9, 3]\nclass = neutral", fillcolor="#88c4ef"] ;
591 -> 592 ;
593 [label="gini = 0.0\nsamples = 5\nvalue = [0, 0, 9, 0]\nclass = neutral", fillcolor="#399de5"] ;
592 -> 593 ;
594 [label="lm_416_y <= 0.718\ngini = 0.375\nsamples = 3\nvalue = [0, 1, 0, 3]\nclass = sad", fillcolor="#e47bee"] ;
592 -> 594 ;
595 [label="gini = 0.0\nsamples = 1\nvalue = [0, 1, 0, 0]\nclass = happy", fillcolor="#47e539"] ;
594 -> 595 ;
596 [label="gini = 0.0\nsamples = 2\nvalue = [0, 0, 0, 3]\nclass = sad", fillcolor="#d739e5"] ;
594 -> 596 ;
597 [label="lm_104_y <= 0.179\ngini = 0.278\nsamples = 8\nvalue = [0, 0, 2, 10]\nclass = sad", fillcolor="#df61ea"] ;
591 -> 597 ;
598 [label="gini = 0.0\nsamples = 1\nvalue = [0, 0, 1, 0]\nclass = neutral", fillcolor="#399de5"] ;
597 -> 598 ;
599 [label="lm_5_y <= 0.553\ngini = 0.165\nsamples = 7\nvalue = [0, 0, 1, 10]\nclass = sad", fillcolor="#db4de8"] ;
597 -> 599 ;
600 [label="gini = 0.0\nsamples = 1\nvalue = [0, 0, 1, 0]\nclass = neutral", fillcolor="#399de5"] ;
599 -> 600 ;
601 [label="gini = 0.0\nsamples = 6\nvalue = [0, 0, 0, 10]\nclass = sad", fillcolor="#d739e5"] ;
599 -> 601 ;
602 [label="lm_55_x <= 0.286\ngini = 0.625\nsamples = 27\nvalue = [15, 0, 15, 6]\nclass = anger", fillcolor="#ffffff"] ;
590 -> 602 ;
603 [label="lm_85_x <= 0.423\ngini = 0.521\nsamples = 9\nvalue = [8, 0, 1, 4]\nclass = anger", fillcolor="#f3c7a7"] ;
602 -> 603 ;
604 [label="lm_469_x <= 0.353\ngini = 0.444\nsamples = 4\nvalue = [2, 0, 0, 4]\nclass = sad", fillcolor="#eb9cf2"] ;
603 -> 604 ;
605 [label="gini = 0.0\nsamples = 1\nvalue = [2, 0, 0, 0]\nclass = anger", fillcolor="#e58139"] ;
604 -> 605 ;
606 [label="gini = 0.0\nsamples = 3\nvalue = [0, 0, 0, 4]\nclass = sad", fillcolor="#d739e5"] ;
604 -> 606 ;
607 [label="lm_470_x <= 0.398\ngini = 0.245\nsamples = 5\nvalue = [6, 0, 1, 0]\nclass = anger", fillcolor="#e9965a"] ;
603 -> 607 ;
608 [label="gini = 0.0\nsamples = 1\nvalue = [0, 0, 1, 0]\nclass = neutral", fillcolor="#399de5"] ;
607 -> 608 ;
609 [label="gini = 0.0\nsamples = 4\nvalue = [6, 0, 0, 0]\nclass = anger", fillcolor="#e58139"] ;
607 -> 609 ;
610 [label="lm_159_y <= 0.375\ngini = 0.529\nsamples = 18\nvalue = [7, 0, 14, 2]\nclass = neutral", fillcolor="#a8d4f4"] ;
602 -> 610 ;
611 [label="lm_163_x <= 0.289\ngini = 0.421\nsamples = 15\nvalue = [3, 0, 14, 2]\nclass = neutral", fillcolor="#77bced"] ;
610 -> 611 ;
612 [label="lm_285_y <= 0.359\ngini = 0.219\nsamples = 14\nvalue = [0, 0, 14, 2]\nclass = neutral", fillcolor="#55abe9"] ;
611 -> 612 ;
613 [label="lm_477_x <= 0.603\ngini = 0.124\nsamples = 13\nvalue = [0, 0, 14, 1]\nclass = neutral", fillcolor="#47a4e7"] ;
612 -> 613 ;
614 [label="gini = 0.0\nsamples = 1\nvalue = [0, 0, 0, 1]\nclass = sad", fillcolor="#d739e5"] ;
613 -> 614 ;
615 [label="gini = 0.0\nsamples = 12\nvalue = [0, 0, 14, 0]\nclass = neutral", fillcolor="#399de5"] ;
613 -> 615 ;
616 [label="gini = 0.0\nsamples = 1\nvalue = [0, 0, 0, 1]\nclass = sad", fillcolor="#d739e5"] ;
612 -> 616 ;
617 [label="gini = 0.0\nsamples = 1\nvalue = [3, 0, 0, 0]\nclass = anger", fillcolor="#e58139"] ;
611 -> 617 ;
618 [label="gini = 0.0\nsamples = 3\nvalue = [4, 0, 0, 0]\nclass = anger", fillcolor="#e58139"] ;
610 -> 618 ;
619 [label="lm_313_x <= 0.454\ngini = 0.556\nsamples = 40\nvalue = [7, 6, 12, 42]\nclass = sad", fillcolor="#e993f1"] ;
589 -> 619 ;
620 [label="lm_335_x <= 0.732\ngini = 0.675\nsamples = 14\nvalue = [2, 5, 12, 8]\nclass = neutral", fillcolor="#d5eafa"] ;
619 -> 620 ;
621 [label="lm_389_y <= 0.452\ngini = 0.587\nsamples = 6\nvalue = [0, 5, 2, 8]\nclass = sad", fillcolor="#f3c4f7"] ;
620 -> 621 ;
622 [label="gini = 0.0\nsamples = 1\nvalue = [0, 5, 0, 0]\nclass = happy", fillcolor="#47e539"] ;
621 -> 622 ;
623 [label="lm_151_z <= 0.12\ngini = 0.32\nsamples = 5\nvalue = [0, 0, 2, 8]\nclass = sad", fillcolor="#e16aec"] ;
621 -> 623 ;
624 [label="gini = 0.0\nsamples = 1\nvalue = [0, 0, 2, 0]\nclass = neutral", fillcolor="#399de5"] ;
623 -> 624 ;
625 [label="gini = 0.0\nsamples = 4\nvalue = [0, 0, 0, 8]\nclass = sad", fillcolor="#d739e5"] ;
623 -> 625 ;
626 [label="lm_324_z <= 0.303\ngini = 0.278\nsamples = 8\nvalue = [2, 0, 10, 0]\nclass = neutral", fillcolor="#61b1ea"] ;
620 -> 626 ;
627 [label="gini = 0.0\nsamples = 6\nvalue = [0, 0, 10, 0]\nclass = neutral", fillcolor="#399de5"] ;
626 -> 627 ;
628 [label="gini = 0.0\nsamples = 2\nvalue = [2, 0, 0, 0]\nclass = anger", fillcolor="#e58139"] ;
626 -> 628 ;
629 [label="lm_151_z <= 0.15\ngini = 0.261\nsamples = 26\nvalue = [5, 1, 0, 34]\nclass = sad", fillcolor="#de5be9"] ;
619 -> 629 ;
630 [label="lm_156_x <= 0.426\ngini = 0.059\nsamples = 20\nvalue = [1, 0, 0, 32]\nclass = sad", fillcolor="#d83fe6"] ;
629 -> 630 ;
631 [label="lm_64_y <= 0.284\ngini = 0.444\nsamples = 3\nvalue = [1, 0, 0, 2]\nclass = sad", fillcolor="#eb9cf2"] ;
630 -> 631 ;
632 [label="gini = 0.0\nsamples = 2\nvalue = [0, 0, 0, 2]\nclass = sad", fillcolor="#d739e5"] ;
631 -> 632 ;
633 [label="gini = 0.0\nsamples = 1\nvalue = [1, 0, 0, 0]\nclass = anger", fillcolor="#e58139"] ;
631 -> 633 ;
634 [label="gini = 0.0\nsamples = 17\nvalue = [0, 0, 0, 30]\nclass = sad", fillcolor="#d739e5"] ;
630 -> 634 ;
635 [label="lm_83_y <= 0.698\ngini = 0.571\nsamples = 6\nvalue = [4, 1, 0, 2]\nclass = anger", fillcolor="#f5cdb0"] ;
629 -> 635 ;
636 [label="lm_104_x <= 0.336\ngini = 0.444\nsamples = 3\nvalue = [0, 1, 0, 2]\nclass = sad", fillcolor="#eb9cf2"] ;
635 -> 636 ;
637 [label="gini = 0.0\nsamples = 2\nvalue = [0, 0, 0, 2]\nclass = sad", fillcolor="#d739e5"] ;
636 -> 637 ;
638 [label="gini = 0.0\nsamples = 1\nvalue = [0, 1, 0, 0]\nclass = happy", fillcolor="#47e539"] ;
636 -> 638 ;
639 [label="gini = 0.0\nsamples = 3\nvalue = [4, 0, 0, 0]\nclass = anger", fillcolor="#e58139"] ;
635 -> 639 ;
640 [label="lm_174_y <= 0.417\ngini = 0.51\nsamples = 118\nvalue = [15.0, 6.0, 44.0, 123.0]\nclass = sad", fillcolor="#e992f1"] ;
572 -> 640 ;
641 [label="lm_399_y <= 0.428\ngini = 0.399\nsamples = 86\nvalue = [9, 2, 24, 107]\nclass = sad", fillcolor="#e374ed"] ;
640 -> 641 ;
642 [label="lm_473_y <= 0.431\ngini = 0.566\nsamples = 34\nvalue = [5, 1, 19, 32]\nclass = sad", fillcolor="#f1bbf6"] ;
641 -> 642 ;
643 [label="lm_71_y <= 0.327\ngini = 0.604\nsamples = 21\nvalue = [4, 1, 17, 10]\nclass = neutral", fillcolor="#c0e0f7"] ;
642 -> 643 ;
644 [label="lm_173_x <= 0.223\ngini = 0.351\nsamples = 15\nvalue = [0, 0, 17, 5]\nclass = neutral", fillcolor="#73baed"] ;
643 -> 644 ;
645 [label="gini = 0.0\nsamples = 2\nvalue = [0, 0, 0, 3]\nclass = sad", fillcolor="#d739e5"] ;
644 -> 645 ;
646 [label="lm_145_x <= 0.36\ngini = 0.188\nsamples = 13\nvalue = [0, 0, 17, 2]\nclass = neutral", fillcolor="#50a9e8"] ;
644 -> 646 ;
647 [label="lm_388_z <= -0.017\ngini = 0.105\nsamples = 12\nvalue = [0, 0, 17, 1]\nclass = neutral", fillcolor="#45a3e7"] ;
646 -> 647 ;
648 [label="gini = 0.0\nsamples = 1\nvalue = [0, 0, 0, 1]\nclass = sad", fillcolor="#d739e5"] ;
647 -> 648 ;
649 [label="gini = 0.0\nsamples = 11\nvalue = [0, 0, 17, 0]\nclass = neutral", fillcolor="#399de5"] ;
647 -> 649 ;
650 [label="gini = 0.0\nsamples = 1\nvalue = [0, 0, 0, 1]\nclass = sad", fillcolor="#d739e5"] ;
646 -> 650 ;
651 [label="lm_416_x <= 0.561\ngini = 0.58\nsamples = 6\nvalue = [4, 1, 0, 5]\nclass = sad", fillcolor="#f8defb"] ;
643 -> 651 ;
652 [label="gini = 0.0\nsamples = 1\nvalue = [3, 0, 0, 0]\nclass = anger", fillcolor="#e58139"] ;
651 -> 652 ;
653 [label="lm_286_x <= 0.558\ngini = 0.449\nsamples = 5\nvalue = [1, 1, 0, 5]\nclass = sad", fillcolor="#e47bee"] ;
651 -> 653 ;
654 [label="lm_378_z <= 0.029\ngini = 0.5\nsamples = 2\nvalue = [1, 1, 0, 0]\nclass = anger", fillcolor="#ffffff"] ;
653 -> 654 ;
655 [label="gini = 0.0\nsamples = 1\nvalue = [0, 1, 0, 0]\nclass = happy", fillcolor="#47e539"] ;
654 -> 655 ;
656 [label="gini = 0.0\nsamples = 1\nvalue = [1, 0, 0, 0]\nclass = anger", fillcolor="#e58139"] ;
654 -> 656 ;
657 [label="gini = 0.0\nsamples = 3\nvalue = [0, 0, 0, 5]\nclass = sad", fillcolor="#d739e5"] ;
653 -> 657 ;
658 [label="lm_8_z <= -0.005\ngini = 0.218\nsamples = 13\nvalue = [1, 0, 2, 22]\nclass = sad", fillcolor="#dc53e8"] ;
642 -> 658 ;
659 [label="lm_318_z <= -0.019\ngini = 0.444\nsamples = 2\nvalue = [1, 0, 2, 0]\nclass = neutral", fillcolor="#9ccef2"] ;
658 -> 659 ;
660 [label="gini = 0.0\nsamples = 1\nvalue = [1, 0, 0, 0]\nclass = anger", fillcolor="#e58139"] ;
659 -> 660 ;
661 [label="gini = 0.0\nsamples = 1\nvalue = [0, 0, 2, 0]\nclass = neutral", fillcolor="#399de5"] ;
659 -> 661 ;
662 [label="gini = 0.0\nsamples = 11\nvalue = [0, 0, 0, 22]\nclass = sad", fillcolor="#d739e5"] ;
658 -> 662 ;
663 [label="lm_339_z <= -0.015\ngini = 0.216\nsamples = 52\nvalue = [4, 1, 5, 75]\nclass = sad", fillcolor="#dc52e8"] ;
641 -> 663 ;
664 [label="lm_40_y <= 0.642\ngini = 0.165\nsamples = 50\nvalue = [1, 1, 5, 72]\nclass = sad", fillcolor="#db4ce7"] ;
663 -> 664 ;
665 [label="lm_313_z <= -0.044\ngini = 0.64\nsamples = 5\nvalue = [0, 1, 2, 2]\nclass = neutral", fillcolor="#ffffff"] ;
664 -> 665 ;
666 [label="lm_174_z <= 0.02\ngini = 0.444\nsamples = 3\nvalue = [0, 1, 0, 2]\nclass = sad", fillcolor="#eb9cf2"] ;
665 -> 666 ;
667 [label="gini = 0.0\nsamples = 2\nvalue = [0, 0, 0, 2]\nclass = sad", fillcolor="#d739e5"] ;
666 -> 667 ;
668 [label="gini = 0.0\nsamples = 1\nvalue = [0, 1, 0, 0]\nclass = happy", fillcolor="#47e539"] ;
666 -> 668 ;
669 [label="gini = 0.0\nsamples = 2\nvalue = [0, 0, 2, 0]\nclass = neutral", fillcolor="#399de5"] ;
665 -> 669 ;
670 [label="lm_173_z <= 0.228\ngini = 0.103\nsamples = 45\nvalue = [1, 0, 3, 70]\nclass = sad", fillcolor="#d944e6"] ;
664 -> 670 ;
671 [label="gini = 0.0\nsamples = 29\nvalue = [0, 0, 0, 53]\nclass = sad", fillcolor="#d739e5"] ;
670 -> 671 ;
672 [label="lm_474_z <= -0.0\ngini = 0.322\nsamples = 16\nvalue = [1, 0, 3, 17]\nclass = sad", fillcolor="#e065eb"] ;
670 -> 672 ;
673 [label="lm_64_x <= 0.279\ngini = 0.111\nsamples = 12\nvalue = [0, 0, 1, 16]\nclass = sad", fillcolor="#da45e7"] ;
672 -> 673 ;
674 [label="gini = 0.0\nsamples = 1\nvalue = [0, 0, 1, 0]\nclass = neutral", fillcolor="#399de5"] ;
673 -> 674 ;
675 [label="gini = 0.0\nsamples = 11\nvalue = [0, 0, 0, 16]\nclass = sad", fillcolor="#d739e5"] ;
673 -> 675 ;
676 [label="lm_277_y <= 0.401\ngini = 0.625\nsamples = 4\nvalue = [1, 0, 2, 1]\nclass = neutral", fillcolor="#bddef6"] ;
672 -> 676 ;
677 [label="lm_173_y <= 0.713\ngini = 0.5\nsamples = 2\nvalue = [1, 0, 0, 1]\nclass = anger", fillcolor="#ffffff"] ;
676 -> 677 ;
678 [label="gini = 0.0\nsamples = 1\nvalue = [1, 0, 0, 0]\nclass = anger", fillcolor="#e58139"] ;
677 -> 678 ;
679 [label="gini = 0.0\nsamples = 1\nvalue = [0, 0, 0, 1]\nclass = sad", fillcolor="#d739e5"] ;
677 -> 679 ;
680 [label="gini = 0.0\nsamples = 2\nvalue = [0, 0, 2, 0]\nclass = neutral", fillcolor="#399de5"] ;
676 -> 680 ;
681 [label="lm_376_y <= 0.706\ngini = 0.5\nsamples = 2\nvalue = [3, 0, 0, 3]\nclass = anger", fillcolor="#ffffff"] ;
663 -> 681 ;
682 [label="gini = 0.0\nsamples = 1\nvalue = [0, 0, 0, 3]\nclass = sad", fillcolor="#d739e5"] ;
681 -> 682 ;
683 [label="gini = 0.0\nsamples = 1\nvalue = [3, 0, 0, 0]\nclass = anger", fillcolor="#e58139"] ;
681 -> 683 ;
684 [label="lm_385_z <= 0.002\ngini = 0.665\nsamples = 32\nvalue = [6, 4, 20, 16]\nclass = neutral", fillcolor="#e5f2fc"] ;
640 -> 684 ;
685 [label="lm_333_z <= 0.008\ngini = 0.526\nsamples = 24\nvalue = [2, 0, 20, 12]\nclass = neutral", fillcolor="#b7dbf6"] ;
684 -> 685 ;
686 [label="lm_134_x <= 0.422\ngini = 0.462\nsamples = 9\nvalue = [1, 0, 3, 9]\nclass = sad", fillcolor="#e788ef"] ;
685 -> 686 ;
687 [label="lm_81_x <= 0.383\ngini = 0.56\nsamples = 5\nvalue = [1, 0, 3, 1]\nclass = neutral", fillcolor="#9ccef2"] ;
686 -> 687 ;
688 [label="lm_477_z <= -0.007\ngini = 0.5\nsamples = 2\nvalue = [1, 0, 0, 1]\nclass = anger", fillcolor="#ffffff"] ;
687 -> 688 ;
689 [label="gini = 0.0\nsamples = 1\nvalue = [0, 0, 0, 1]\nclass = sad", fillcolor="#d739e5"] ;
688 -> 689 ;
690 [label="gini = 0.0\nsamples = 1\nvalue = [1, 0, 0, 0]\nclass = anger", fillcolor="#e58139"] ;
688 -> 690 ;
691 [label="gini = 0.0\nsamples = 3\nvalue = [0, 0, 3, 0]\nclass = neutral", fillcolor="#399de5"] ;
687 -> 691 ;
692 [label="gini = 0.0\nsamples = 4\nvalue = [0, 0, 0, 8]\nclass = sad", fillcolor="#d739e5"] ;
686 -> 692 ;
693 [label="lm_158_y <= 0.416\ngini = 0.322\nsamples = 15\nvalue = [1, 0, 17, 3]\nclass = neutral", fillcolor="#65b3eb"] ;
685 -> 693 ;
694 [label="gini = 0.0\nsamples = 12\nvalue = [0, 0, 17, 0]\nclass = neutral", fillcolor="#399de5"] ;
693 -> 694 ;
695 [label="lm_264_z <= 0.033\ngini = 0.375\nsamples = 3\nvalue = [1, 0, 0, 3]\nclass = sad", fillcolor="#e47bee"] ;
693 -> 695 ;
696 [label="gini = 0.0\nsamples = 1\nvalue = [1, 0, 0, 0]\nclass = anger", fillcolor="#e58139"] ;
695 -> 696 ;
697 [label="gini = 0.0\nsamples = 2\nvalue = [0, 0, 0, 3]\nclass = sad", fillcolor="#d739e5"] ;
695 -> 697 ;
698 [label="lm_79_z <= 0.005\ngini = 0.667\nsamples = 8\nvalue = [4, 4, 0, 4]\nclass = anger", fillcolor="#ffffff"] ;
684 -> 698 ;
699 [label="gini = 0.0\nsamples = 2\nvalue = [4, 0, 0, 0]\nclass = anger", fillcolor="#e58139"] ;
698 -> 699 ;
700 [label="lm_34_y <= 0.41\ngini = 0.5\nsamples = 6\nvalue = [0, 4, 0, 4]\nclass = happy", fillcolor="#ffffff"] ;
698 -> 700 ;
701 [label="gini = 0.0\nsamples = 3\nvalue = [0, 0, 0, 4]\nclass = sad", fillcolor="#d739e5"] ;
700 -> 701 ;
702 [label="gini = 0.0\nsamples = 3\nvalue = [0, 4, 0, 0]\nclass = happy", fillcolor="#47e539"] ;
700 -> 702 ;
703 [label="lm_174_y <= 0.407\ngini = 0.678\nsamples = 644\nvalue = [396, 47, 215, 332]\nclass = anger", fillcolor="#fcf3ec"] ;
511 -> 703 ;
704 [label="lm_40_y <= 0.603\ngini = 0.446\nsamples = 119\nvalue = [144, 7, 21, 27]\nclass = anger", fillcolor="#eda978"] ;
703 -> 704 ;
705 [label="gini = 0.0\nsamples = 2\nvalue = [0, 5, 0, 0]\nclass = happy", fillcolor="#47e539"] ;
704 -> 705 ;
706 [label="lm_106_x <= 0.32\ngini = 0.418\nsamples = 117\nvalue = [144, 2, 21, 27]\nclass = anger", fillcolor="#eda774"] ;
704 -> 706 ;
707 [label="lm_162_x <= 0.328\ngini = 0.049\nsamples = 23\nvalue = [39, 1, 0, 0]\nclass = anger", fillcolor="#e6843e"] ;
706 -> 707 ;
708 [label="gini = 0.0\nsamples = 22\nvalue = [39, 0, 0, 0]\nclass = anger", fillcolor="#e58139"] ;
707 -> 708 ;
709 [label="gini = 0.0\nsamples = 1\nvalue = [0, 1, 0, 0]\nclass = happy", fillcolor="#47e539"] ;
707 -> 709 ;
710 [label="lm_133_z <= 0.175\ngini = 0.486\nsamples = 94\nvalue = [105.0, 1.0, 21.0, 27.0]\nclass = anger", fillcolor="#efb285"] ;
706 -> 710 ;
711 [label="lm_366_x <= 0.651\ngini = 0.623\nsamples = 11\nvalue = [5, 0, 9, 4]\nclass = neutral", fillcolor="#c2e1f7"] ;
710 -> 711 ;
712 [label="lm_8_x <= 0.353\ngini = 0.314\nsamples = 7\nvalue = [1, 0, 9, 1]\nclass = neutral", fillcolor="#61b1ea"] ;
711 -> 712 ;
713 [label="lm_339_x <= 0.551\ngini = 0.18\nsamples = 6\nvalue = [1, 0, 9, 0]\nclass = neutral", fillcolor="#4fa8e8"] ;
712 -> 713 ;
714 [label="gini = 0.0\nsamples = 1\nvalue = [1, 0, 0, 0]\nclass = anger", fillcolor="#e58139"] ;
713 -> 714 ;
715 [label="gini = 0.0\nsamples = 5\nvalue = [0, 0, 9, 0]\nclass = neutral", fillcolor="#399de5"] ;
713 -> 715 ;
716 [label="gini = 0.0\nsamples = 1\nvalue = [0, 0, 0, 1]\nclass = sad", fillcolor="#d739e5"] ;
712 -> 716 ;
717 [label="lm_192_y <= 0.707\ngini = 0.49\nsamples = 4\nvalue = [4, 0, 0, 3]\nclass = anger", fillcolor="#f8e0ce"] ;
711 -> 717 ;
718 [label="gini = 0.0\nsamples = 2\nvalue = [4, 0, 0, 0]\nclass = anger", fillcolor="#e58139"] ;
717 -> 718 ;
719 [label="gini = 0.0\nsamples = 2\nvalue = [0, 0, 0, 3]\nclass = sad", fillcolor="#d739e5"] ;
717 -> 719 ;
720 [label="lm_96_x <= 0.333\ngini = 0.423\nsamples = 83\nvalue = [100, 1, 12, 23]\nclass = anger", fillcolor="#eda978"] ;
710 -> 720 ;
721 [label="gini = 0.0\nsamples = 2\nvalue = [0, 0, 0, 4]\nclass = sad", fillcolor="#d739e5"] ;
720 -> 721 ;
722 [label="lm_149_y <= 0.841\ngini = 0.397\nsamples = 81\nvalue = [100, 1, 12, 19]\nclass = anger", fillcolor="#eca571"] ;
720 -> 722 ;
723 [label="lm_64_y <= 0.293\ngini = 0.623\nsamples = 16\nvalue = [13, 0, 9, 5]\nclass = anger", fillcolor="#f9e3d3"] ;
722 -> 723 ;
724 [label="gini = 0.0\nsamples = 3\nvalue = [10, 0, 0, 0]\nclass = anger", fillcolor="#e58139"] ;
723 -> 724 ;
725 [label="lm_55_y <= 0.221\ngini = 0.602\nsamples = 13\nvalue = [3, 0, 9, 5]\nclass = neutral", fillcolor="#bddef6"] ;
723 -> 725 ;
726 [label="gini = 0.0\nsamples = 3\nvalue = [0, 0, 0, 3]\nclass = sad", fillcolor="#d739e5"] ;
725 -> 726 ;
727 [label="lm_134_y <= 0.411\ngini = 0.52\nsamples = 10\nvalue = [3, 0, 9, 2]\nclass = neutral", fillcolor="#93caf1"] ;
725 -> 727 ;
728 [label="gini = 0.0\nsamples = 5\nvalue = [0, 0, 9, 0]\nclass = neutral", fillcolor="#399de5"] ;
727 -> 728 ;
729 [label="lm_475_x <= 0.65\ngini = 0.48\nsamples = 5\nvalue = [3, 0, 0, 2]\nclass = anger", fillcolor="#f6d5bd"] ;
727 -> 729 ;
730 [label="gini = 0.0\nsamples = 2\nvalue = [0, 0, 0, 2]\nclass = sad", fillcolor="#d739e5"] ;
729 -> 730 ;
731 [label="gini = 0.0\nsamples = 3\nvalue = [3, 0, 0, 0]\nclass = anger", fillcolor="#e58139"] ;
729 -> 731 ;
732 [label="lm_388_z <= 0.008\ngini = 0.295\nsamples = 65\nvalue = [87, 1, 3, 14]\nclass = anger", fillcolor="#ea9a60"] ;
722 -> 732 ;
733 [label="lm_5_z <= -0.157\ngini = 0.498\nsamples = 32\nvalue = [29, 1, 3, 11]\nclass = anger", fillcolor="#f1ba93"] ;
732 -> 733 ;
734 [label="lm_475_x <= 0.691\ngini = 0.444\nsamples = 4\nvalue = [0, 0, 2, 4]\nclass = sad", fillcolor="#eb9cf2"] ;
733 -> 734 ;
735 [label="gini = 0.0\nsamples = 3\nvalue = [0, 0, 0, 4]\nclass = sad", fillcolor="#d739e5"] ;
734 -> 735 ;
736 [label="gini = 0.0\nsamples = 1\nvalue = [0, 0, 2, 0]\nclass = neutral", fillcolor="#399de5"] ;
734 -> 736 ;
737 [label="lm_173_z <= 0.192\ngini = 0.382\nsamples = 28\nvalue = [29, 1, 1, 7]\nclass = anger", fillcolor="#eda672"] ;
733 -> 737 ;
738 [label="gini = 0.0\nsamples = 2\nvalue = [0, 0, 0, 4]\nclass = sad", fillcolor="#d739e5"] ;
737 -> 738 ;
739 [label="lm_96_z <= 0.021\ngini = 0.263\nsamples = 26\nvalue = [29, 1, 1, 3]\nclass = anger", fillcolor="#e99559"] ;
737 -> 739 ;
740 [label="lm_294_z <= -0.003\ngini = 0.127\nsamples = 22\nvalue = [28, 0, 1, 1]\nclass = anger", fillcolor="#e78a47"] ;
739 -> 740 ;
741 [label="lm_164_y <= 0.414\ngini = 0.067\nsamples = 21\nvalue = [28, 0, 1, 0]\nclass = anger", fillcolor="#e68640"] ;
740 -> 741 ;
742 [label="gini = 0.0\nsamples = 19\nvalue = [26, 0, 0, 0]\nclass = anger", fillcolor="#e58139"] ;
741 -> 742 ;
743 [label="lm_309_y <= 0.7\ngini = 0.444\nsamples = 2\nvalue = [2, 0, 1, 0]\nclass = anger", fillcolor="#f2c09c"] ;
741 -> 743 ;
744 [label="gini = 0.0\nsamples = 1\nvalue = [2, 0, 0, 0]\nclass = anger", fillcolor="#e58139"] ;
743 -> 744 ;
745 [label="gini = 0.0\nsamples = 1\nvalue = [0, 0, 1, 0]\nclass = neutral", fillcolor="#399de5"] ;
743 -> 745 ;
746 [label="gini = 0.0\nsamples = 1\nvalue = [0, 0, 0, 1]\nclass = sad", fillcolor="#d739e5"] ;
740 -> 746 ;
747 [label="lm_385_x <= 0.597\ngini = 0.625\nsamples = 4\nvalue = [1, 1, 0, 2]\nclass = sad", fillcolor="#f2bdf6"] ;
739 -> 747 ;
748 [label="gini = 0.0\nsamples = 2\nvalue = [0, 0, 0, 2]\nclass = sad", fillcolor="#d739e5"] ;
747 -> 748 ;
749 [label="lm_18_x <= 0.486\ngini = 0.5\nsamples = 2\nvalue = [1, 1, 0, 0]\nclass = anger", fillcolor="#ffffff"] ;
747 -> 749 ;
750 [label="gini = 0.0\nsamples = 1\nvalue = [0, 1, 0, 0]\nclass = happy", fillcolor="#47e539"] ;
749 -> 750 ;
751 [label="gini = 0.0\nsamples = 1\nvalue = [1, 0, 0, 0]\nclass = anger", fillcolor="#e58139"] ;
749 -> 751 ;
752 [label="lm_108_y <= 0.333\ngini = 0.094\nsamples = 33\nvalue = [58, 0, 0, 3]\nclass = anger", fillcolor="#e68843"] ;
732 -> 752 ;
753 [label="gini = 0.0\nsamples = 1\nvalue = [0, 0, 0, 2]\nclass = sad", fillcolor="#d739e5"] ;
752 -> 753 ;
754 [label="lm_56_x <= 0.509\ngini = 0.033\nsamples = 32\nvalue = [58, 0, 0, 1]\nclass = anger", fillcolor="#e5833c"] ;
752 -> 754 ;
755 [label="gini = 0.0\nsamples = 30\nvalue = [54, 0, 0, 0]\nclass = anger", fillcolor="#e58139"] ;
754 -> 755 ;
756 [label="lm_145_x <= 0.396\ngini = 0.32\nsamples = 2\nvalue = [4, 0, 0, 1]\nclass = anger", fillcolor="#eca06a"] ;
754 -> 756 ;
757 [label="gini = 0.0\nsamples = 1\nvalue = [4, 0, 0, 0]\nclass = anger", fillcolor="#e58139"] ;
756 -> 757 ;
758 [label="gini = 0.0\nsamples = 1\nvalue = [0, 0, 0, 1]\nclass = sad", fillcolor="#d739e5"] ;
756 -> 758 ;
759 [label="lm_295_y <= 0.619\ngini = 0.687\nsamples = 525\nvalue = [252, 40, 194, 305]\nclass = sad", fillcolor="#fbecfc"] ;
703 -> 759 ;
760 [label="lm_79_x <= 0.386\ngini = 0.679\nsamples = 471\nvalue = [249, 39, 146, 282]\nclass = sad", fillcolor="#fcf1fd"] ;
759 -> 760 ;
761 [label="lm_150_x <= 0.357\ngini = 0.652\nsamples = 120\nvalue = [39.0, 25.0, 30.0, 101.0]\nclass = sad", fillcolor="#efb0f5"] ;
760 -> 761 ;
762 [label="lm_133_x <= 0.226\ngini = 0.604\nsamples = 99\nvalue = [39, 6, 27, 90]\nclass = sad", fillcolor="#eeadf4"] ;
761 -> 762 ;
763 [label="lm_475_x <= 0.67\ngini = 0.526\nsamples = 80\nvalue = [33, 6, 9, 84]\nclass = sad", fillcolor="#ea99f2"] ;
762 -> 763 ;
764 [label="lm_38_y <= 0.674\ngini = 0.63\nsamples = 55\nvalue = [31, 6, 9, 43]\nclass = sad", fillcolor="#f7d6fa"] ;
763 -> 764 ;
765 [label="lm_154_z <= -0.045\ngini = 0.444\nsamples = 32\nvalue = [7.0, 5.0, 3.0, 40.0]\nclass = sad", fillcolor="#e477ed"] ;
764 -> 765 ;
766 [label="gini = 0.0\nsamples = 2\nvalue = [0, 4, 0, 0]\nclass = happy", fillcolor="#47e539"] ;
765 -> 766 ;
767 [label="lm_62_y <= 0.702\ngini = 0.362\nsamples = 30\nvalue = [7.0, 1.0, 3.0, 40.0]\nclass = sad", fillcolor="#e16bec"] ;
765 -> 767 ;
768 [label="lm_475_y <= 0.479\ngini = 0.294\nsamples = 28\nvalue = [4, 1, 3, 40]\nclass = sad", fillcolor="#de5dea"] ;
767 -> 768 ;
769 [label="lm_155_x <= 0.426\ngini = 0.168\nsamples = 25\nvalue = [3, 0, 1, 40]\nclass = sad", fillcolor="#db4ce8"] ;
768 -> 769 ;
770 [label="lm_18_z <= -0.054\ngini = 0.092\nsamples = 23\nvalue = [1, 0, 1, 40]\nclass = sad", fillcolor="#d943e6"] ;
769 -> 770 ;
771 [label="gini = 0.0\nsamples = 1\nvalue = [0, 0, 1, 0]\nclass = neutral", fillcolor="#399de5"] ;
770 -> 771 ;
772 [label="lm_294_z <= 0.025\ngini = 0.048\nsamples = 22\nvalue = [1, 0, 0, 40]\nclass = sad", fillcolor="#d83ee6"] ;
770 -> 772 ;
773 [label="gini = 0.0\nsamples = 18\nvalue = [0, 0, 0, 36]\nclass = sad", fillcolor="#d739e5"] ;
772 -> 773 ;
774 [label="lm_64_z <= -0.01\ngini = 0.32\nsamples = 4\nvalue = [1, 0, 0, 4]\nclass = sad", fillcolor="#e16aec"] ;
772 -> 774 ;
775 [label="gini = 0.0\nsamples = 3\nvalue = [0, 0, 0, 4]\nclass = sad", fillcolor="#d739e5"] ;
774 -> 775 ;
776 [label="gini = 0.0\nsamples = 1\nvalue = [1, 0, 0, 0]\nclass = anger", fillcolor="#e58139"] ;
774 -> 776 ;
777 [label="gini = 0.0\nsamples = 2\nvalue = [2, 0, 0, 0]\nclass = anger", fillcolor="#e58139"] ;
769 -> 777 ;
778 [label="lm_1_x <= 0.463\ngini = 0.625\nsamples = 3\nvalue = [1, 1, 2, 0]\nclass = neutral", fillcolor="#bddef6"] ;
768 -> 778 ;
779 [label="lm_398_y <= 0.825\ngini = 0.5\nsamples = 2\nvalue = [1, 1, 0, 0]\nclass = anger", fillcolor="#ffffff"] ;
778 -> 779 ;
780 [label="gini = 0.0\nsamples = 1\nvalue = [0, 1, 0, 0]\nclass = happy", fillcolor="#47e539"] ;
779 -> 780 ;
781 [label="gini = 0.0\nsamples = 1\nvalue = [1, 0, 0, 0]\nclass = anger", fillcolor="#e58139"] ;
779 -> 781 ;
782 [label="gini = 0.0\nsamples = 1\nvalue = [0, 0, 2, 0]\nclass = neutral", fillcolor="#399de5"] ;
778 -> 782 ;
783 [label="gini = 0.0\nsamples = 2\nvalue = [3, 0, 0, 0]\nclass = anger", fillcolor="#e58139"] ;
767 -> 783 ;
784 [label="lm_337_x <= 0.574\ngini = 0.462\nsamples = 23\nvalue = [24, 1, 6, 3]\nclass = anger", fillcolor="#eeae80"] ;
764 -> 784 ;
785 [label="lm_154_y <= 0.449\ngini = 0.255\nsamples = 18\nvalue = [24, 0, 2, 2]\nclass = anger", fillcolor="#e99457"] ;
784 -> 785 ;
786 [label="lm_85_y <= 0.733\ngini = 0.142\nsamples = 17\nvalue = [24, 0, 0, 2]\nclass = anger", fillcolor="#e78c49"] ;
785 -> 786 ;
787 [label="gini = 0.0\nsamples = 1\nvalue = [0, 0, 0, 1]\nclass = sad", fillcolor="#d739e5"] ;
786 -> 787 ;
788 [label="lm_388_y <= 0.446\ngini = 0.077\nsamples = 16\nvalue = [24, 0, 0, 1]\nclass = anger", fillcolor="#e68641"] ;
786 -> 788 ;
789 [label="gini = 0.0\nsamples = 15\nvalue = [24, 0, 0, 0]\nclass = anger", fillcolor="#e58139"] ;
788 -> 789 ;
790 [label="gini = 0.0\nsamples = 1\nvalue = [0, 0, 0, 1]\nclass = sad", fillcolor="#d739e5"] ;
788 -> 790 ;
791 [label="gini = 0.0\nsamples = 1\nvalue = [0, 0, 2, 0]\nclass = neutral", fillcolor="#399de5"] ;
785 -> 791 ;
792 [label="lm_179_y <= 0.713\ngini = 0.5\nsamples = 5\nvalue = [0, 1, 4, 1]\nclass = neutral", fillcolor="#88c4ef"] ;
784 -> 792 ;
793 [label="gini = 0.0\nsamples = 3\nvalue = [0, 0, 4, 0]\nclass = neutral", fillcolor="#399de5"] ;
792 -> 793 ;
794 [label="lm_133_x <= 0.163\ngini = 0.5\nsamples = 2\nvalue = [0, 1, 0, 1]\nclass = happy", fillcolor="#ffffff"] ;
792 -> 794 ;
795 [label="gini = 0.0\nsamples = 1\nvalue = [0, 1, 0, 0]\nclass = happy", fillcolor="#47e539"] ;
794 -> 795 ;
796 [label="gini = 0.0\nsamples = 1\nvalue = [0, 0, 0, 1]\nclass = sad", fillcolor="#d739e5"] ;
794 -> 796 ;
797 [label="lm_104_y <= 0.19\ngini = 0.089\nsamples = 25\nvalue = [2, 0, 0, 41]\nclass = sad", fillcolor="#d943e6"] ;
763 -> 797 ;
798 [label="gini = 0.0\nsamples = 1\nvalue = [1, 0, 0, 0]\nclass = anger", fillcolor="#e58139"] ;
797 -> 798 ;
799 [label="lm_192_x <= 0.4\ngini = 0.046\nsamples = 24\nvalue = [1, 0, 0, 41]\nclass = sad", fillcolor="#d83ee6"] ;
797 -> 799 ;
800 [label="gini = 0.0\nsamples = 22\nvalue = [0, 0, 0, 38]\nclass = sad", fillcolor="#d739e5"] ;
799 -> 800 ;
801 [label="lm_478_z <= 0.006\ngini = 0.375\nsamples = 2\nvalue = [1, 0, 0, 3]\nclass = sad", fillcolor="#e47bee"] ;
799 -> 801 ;
802 [label="gini = 0.0\nsamples = 1\nvalue = [1, 0, 0, 0]\nclass = anger", fillcolor="#e58139"] ;
801 -> 802 ;
803 [label="gini = 0.0\nsamples = 1\nvalue = [0, 0, 0, 3]\nclass = sad", fillcolor="#d739e5"] ;
801 -> 803 ;
804 [label="lm_64_y <= 0.324\ngini = 0.56\nsamples = 19\nvalue = [6, 0, 18, 6]\nclass = neutral", fillcolor="#9ccef2"] ;
762 -> 804 ;
805 [label="lm_476_z <= -0.006\ngini = 0.569\nsamples = 8\nvalue = [5, 0, 1, 6]\nclass = sad", fillcolor="#f9e3fb"] ;
804 -> 805 ;
806 [label="gini = 0.0\nsamples = 4\nvalue = [0, 0, 0, 6]\nclass = sad", fillcolor="#d739e5"] ;
805 -> 806 ;
807 [label="lm_162_z <= 0.032\ngini = 0.278\nsamples = 4\nvalue = [5, 0, 1, 0]\nclass = anger", fillcolor="#ea9a61"] ;
805 -> 807 ;
808 [label="gini = 0.0\nsamples = 1\nvalue = [0, 0, 1, 0]\nclass = neutral", fillcolor="#399de5"] ;
807 -> 808 ;
809 [label="gini = 0.0\nsamples = 3\nvalue = [5, 0, 0, 0]\nclass = anger", fillcolor="#e58139"] ;
807 -> 809 ;
810 [label="lm_416_y <= 0.683\ngini = 0.105\nsamples = 11\nvalue = [1, 0, 17, 0]\nclass = neutral", fillcolor="#45a3e7"] ;
804 -> 810 ;
811 [label="gini = 0.0\nsamples = 1\nvalue = [1, 0, 0, 0]\nclass = anger", fillcolor="#e58139"] ;
810 -> 811 ;
812 [label="gini = 0.0\nsamples = 10\nvalue = [0, 0, 17, 0]\nclass = neutral", fillcolor="#399de5"] ;
810 -> 812 ;
813 [label="lm_88_z <= -0.017\ngini = 0.549\nsamples = 21\nvalue = [0, 19, 3, 11]\nclass = happy", fillcolor="#bcf6b7"] ;
761 -> 813 ;
814 [label="lm_11_y <= 0.216\ngini = 0.33\nsamples = 17\nvalue = [0, 19, 0, 5]\nclass = happy", fillcolor="#77ec6d"] ;
813 -> 814 ;
815 [label="lm_362_z <= 0.301\ngini = 0.494\nsamples = 6\nvalue = [0, 4, 0, 5]\nclass = sad", fillcolor="#f7d7fa"] ;
814 -> 815 ;
816 [label="gini = 0.0\nsamples = 4\nvalue = [0, 0, 0, 5]\nclass = sad", fillcolor="#d739e5"] ;
815 -> 816 ;
817 [label="gini = 0.0\nsamples = 2\nvalue = [0, 4, 0, 0]\nclass = happy", fillcolor="#47e539"] ;
815 -> 817 ;
